1874 100
located -0.097917214 0.047907025 -0.00083492545 -0.063888215 0.03446768 -0.5831652 0.10545397 0.6697174 -0.079827696 -0.15431978 0.16821605 -0.32226494 -0.11202065 0.1529954 0.06770257 -0.16601408 0.18937546 -0.2713125 0.034463655 -0.6351139 0.146158 0.12217521 0.16494127 -0.17721784 -0.14580634 0.066210926 -0.0935335 -0.19285186 -0.26228958 -0.06370336 0.30474728 0.07270023 0.2364657 -0.12838022 -0.1266406 0.29628673 0.029659273 -0.3361028 -0.15178703 -0.4989278 0.0641862 -0.36112663 0.044288088 0.002354767 0.15622227 -0.13763188 -0.1275061 -0.12001638 0.26233932 0.3523398 -0.028949937 -0.21515879 -0.028296994 0.17015742 -0.13304031 0.3464362 0.25204444 0.08540257 -0.16605587 0.14339213 0.15022899 0.08607161 0.12731834 -0.05560498 -0.41490546 0.3541036 0.013553158 0.28015324 -0.4081735 0.25283033 -0.21282554 0.056845807 0.26362038 0.022573095 0.39250317 0.17970876 0.0051692324 0.042060025 -0.51694876 0.17353068 -0.059049785 -0.017791267 -0.22479385 0.6253568 -0.06239651 0.23017398 0.051712625 0.3089626 0.20475253 0.06882708 0.4093712 0.13630264 0.018419435 0.10708649 0.48360407 0.19024687 0.12524442 -0.2918248 -0.10552403 -0.12349758
building -0.13304482 0.09541628 0.021107357 -0.04245804 0.049726006 -0.4869984 0.13366674 0.6061314 -0.11919138 -0.16397668 0.048097264 -0.3229266 -0.07133424 0.11298218 0.1161073 -0.16410032 0.11231038 -0.24632095 -0.02307412 -0.63517797 0.13643469 0.11342512 0.15351434 -0.21303058 -0.07103669 0.08264972 -0.09379427 -0.19144976 -0.26269832 0.005861257 0.30028883 0.043954253 0.20682307 -0.18816066 -0.10014345 0.33175045 0.03626046 -0.22788602 -0.102737054 -0.44368786 0.043344267 -0.3173836 0.018566864 -0.010478178 0.14996396 -0.13001612 -0.09593121 -0.063072175 0.20610063 0.2734299 0.0123441005 -0.2412958 -0.04156657 0.115782514 -0.11337643 0.29236075 0.18626578 0.08672455 -0.20100808 0.1518413 0.103535265 0.10293746 0.12289602 -0.04954593 -0.35679877 0.34779313 0.0674639 0.28780305 -0.3964437 0.2948438 -0.22434251 0.11416003 0.26272145 0.018173048 0.36945683 0.12542032 -0.08708915 -0.0152180195 -0.40795246 0.15175033 -0.08265268 -0.049458332 -0.23589453 0.51836115 -0.01599477 0.15212007 0.07880818 0.24936587 0.2585674 0.083350495 0.43658382 0.13831621 0.058152802 0.06687264 0.4624619 0.19192955 0.110091 -0.27167785 -0.06305398 -0.16362698
floor -0.13598137 0.10727508 0.008305231 -0.04278995 0.041395217 -0.512998 0.13256428 0.64809704 -0.14222676 -0.15762737 0.0421064 -0.34080857 -0.05300442 0.12733406 0.13337381 -0.192205 0.11949123 -0.26279756 -0.02647119 -0.6823705 0.13238922 0.12679909 0.1568638 -0.23406957 -0.06786579 0.080362275 -0.09326653 -0.2068352 -0.29237828 -0.0015786375 0.32878667 0.03714821 0.21229948 -0.19687858 -0.13447937 0.3554035 0.031819757 -0.25717533 -0.1265198 -0.49011955 0.027495878 -0.33115065 0.030159 -0.011188383 0.17304724 -0.15157256 -0.11004242 -0.072301656 0.2084562 0.28777072 0.013586156 -0.24455863 -0.054479394 0.11042813 -0.13423918 0.29488423 0.19585873 0.07068391 -0.22889927 0.13714556 0.12819925 0.1051741 0.1454352 -0.043332554 -0.40233183 0.38226476 0.070954055 0.3235035 -0.44866887 0.3230995 -0.23518509 0.14086397 0.2848318 0.012434174 0.3947659 0.15253317 -0.071132325 -0.010250002 -0.44401267 0.1671593 -0.080007166 -0.07998617 -0.2716898 0.5654482 -0.026423039 0.15363106 0.08203762 0.264573 0.28142488 0.09559727 0.46201187 0.15714943 0.068183176 0.072453916 0.5199084 0.21383035 0.11470966 -0.28828564 -0.04545391 -0.18938395
institute -0.076714024 0.04254134 -0.010500427 -0.042773645 0.06411803 -0.3984743 0.060365323 0.45579794 -0.005606639 -0.124740824 0.16246645 -0.19719894 -0.08741385 0.09898775 0.04704735 -0.10490647 0.15414013 -0.17768213 0.02654428 -0.3522329 0.07798317 0.09109133 0.10565809 -0.06615854 -0.14952372 0.03762555 -0.046053503 -0.11166243 -0.14696108 -0.06398021 0.18895121 0.03626171 0.14383301 -0.05526129 -0.080260105 0.20436448 0.0545222 -0.22571734 -0.14382365 -0.27056426 0.09372209 -0.23110418 0.048764404 -0.0026418203 0.111861356 -0.054057844 -0.10009951 -0.11194229 0.17791723 0.22954066 0.0021724645 -0.13859998 -0.016996577 0.102848954 -0.13534085 0.23717253 0.19959578 0.07901985 -0.054286294 0.0959933 0.106501214 0.05191958 0.09254812 -0.037906073 -0.25271317 0.20807393 0.005984265 0.18215941 -0.2671704 0.10089662 -0.12270007 -0.004498665 0.18656285 0.053305615 0.25128666 0.10056233 0.020281363 0.07952073 -0.35152298 0.123037934 -0.05163933 0.025407486 -0.11282483 0.413293 -0.06360314 0.18192875 0.033078786 0.22115515 0.09880965 -0.006361372 0.21134995 0.08684793 9.340077e-05 0.0710954 0.3003702 0.10654045 0.12099629 -0.18688947 -0.06568523 -0.062611796
get -0.09340905 0.0351788 -0.021928532 -0.07986768 0.053043067 -0.57906777 0.086069755 0.654384 -0.061341006 -0.13813072 0.17930932 -0.3072148 -0.12256941 0.1555182 0.050318025 -0.15915129 0.202912 -0.2590406 0.06667188 -0.5990239 0.13744651 0.10243943 0.16365527 -0.14779204 -0.17754316 0.06733622 -0.08888682 -0.18406959 -0.24615724 -0.07419579 0.31493273 0.08240803 0.22155075 -0.10480921 -0.11817875 0.27224088 0.020409815 -0.3371515 -0.16217571 -0.4818903 0.08821485 -0.37728852 0.047289386 0.023816518 0.15642908 -0.13474856 -0.12129527 -0.14606798 0.26850012 0.33732614 -0.020981677 -0.20388636 -0.006662957 0.1729727 -0.15410581 0.3481139 0.25352985 0.084362894 -0.14250325 0.12071068 0.16184801 0.06654847 0.1282453 -0.045017477 -0.41419592 0.33484223 0.011295335 0.26706454 -0.389931 0.23243718 -0.2167747 0.026139008 0.25280532 0.04679882 0.37783894 0.19468857 0.018969294 0.07018135 -0.51583415 0.174664 -0.0602051 -0.014504086 -0.21255212 0.6131504 -0.077160954 0.233551 0.04633182 0.31987974 0.17439725 0.041996174 0.3845245 0.124523826 0.0056450143 0.11015517 0.4545314 0.16669777 0.1448676 -0.2734922 -0.11598492 -0.108231805
find -0.092389785 0.044537753 -0.005857168 -0.07318114 0.033019356 -0.5064109 0.08783604 0.5850456 -0.06479353 -0.14278835 0.1418377 -0.28270614 -0.10273316 0.11927406 0.057549465 -0.1513294 0.16161849 -0.23974393 0.038682234 -0.5413482 0.11320228 0.10236986 0.14581497 -0.14077641 -0.15217546 0.058946982 -0.07585032 -0.18051887 -0.21652713 -0.048524056 0.27486077 0.054411612 0.19358711 -0.10909708 -0.11133015 0.26597545 0.029403122 -0.28336117 -0.13358742 -0.42842206 0.083787695 -0.3279516 0.036224075 0.0047197742 0.13448912 -0.119400226 -0.11090978 -0.110180676 0.2274303 0.29992086 -0.016132938 -0.20013203 -0.01217459 0.15511073 -0.1404105 0.31189334 0.23173152 0.074705794 -0.14115576 0.11001827 0.14069499 0.067177825 0.12594485 -0.050254174 -0.35575446 0.30754027 0.013616354 0.24305856 -0.36342168 0.20020719 -0.1884375 0.0433901 0.24244784 0.03853691 0.33817506 0.16643424 -0.005026962 0.048914038 -0.45253548 0.16655846 -0.04477994 -0.020482726 -0.18966696 0.5321458 -0.05346798 0.19557767 0.03521506 0.2835255 0.17332499 0.049711365 0.35963508 0.12770092 0.0057829097 0.09413321 0.41693914 0.16532202 0.12412289 -0.25356674 -0.08708247 -0.11353336
pass -0.042991094 0.013850705 -0.012403404 -0.048855886 0.036636963 -0.38388324 0.062591955 0.4305101 -0.032969724 -0.10257978 0.13878638 -0.19733213 -0.07864252 0.114310935 0.028781023 -0.10101763 0.15098861 -0.16410556 0.045901265 -0.38902003 0.09120076 0.07212341 0.113569215 -0.09854434 -0.118896075 0.046615105 -0.06299991 -0.12586044 -0.15101944 -0.053572383 0.20312233 0.05941137 0.1443853 -0.054661196 -0.087666616 0.17912929 0.009247134 -0.23858538 -0.11765952 -0.31880227 0.07301156 -0.25044042 0.046191476 0.0022603148 0.10231726 -0.07044876 -0.0944554 -0.1140789 0.17089133 0.22753343 -0.015187089 -0.14535825 -0.019445954 0.11812599 -0.11475473 0.22467981 0.17587398 0.05315454 -0.09216001 0.07509209 0.103782475 0.03880312 0.088988096 -0.032669336 -0.2705009 0.22680163 -0.0075962567 0.15966178 -0.26549196 0.13375475 -0.13693708 0.015039638 0.16900292 0.035283808 0.25694633 0.113847286 0.028902074 0.052165765 -0.35003543 0.13142146 -0.028904648 -0.008548163 -0.14421688 0.4106744 -0.051232807 0.1560763 0.032252636 0.20271431 0.10385076 0.022468956 0.24175335 0.0831682 -0.002365762 0.07434256 0.2908936 0.109691195 0.10341161 -0.18807936 -0.07774656 -0.0583426
office -0.04064773 0.0012069639 0.00203226 -0.05305063 0.025827266 -0.41186085 0.06310223 0.46850204 -0.039331198 -0.11710803 0.14684975 -0.20632969 -0.09001137 0.09999344 0.037336893 -0.11378958 0.16148087 -0.1878612 0.039133348 -0.4381938 0.09291347 0.08612086 0.1170438 -0.13365822 -0.13435559 0.053902153 -0.072407596 -0.11909503 -0.18489195 -0.027823282 0.19975965 0.05975352 0.1651193 -0.08399477 -0.092207305 0.1811673 -0.013134141 -0.26255304 -0.12226218 -0.34023988 0.079889886 -0.27048245 0.035915855 0.0035120507 0.11928403 -0.10989115 -0.09700027 -0.118045524 0.21051517 0.2714996 -0.031977884 -0.15904024 0.00043397982 0.12263055 -0.11604326 0.27637267 0.17527983 0.07504773 -0.103363335 0.112813205 0.120951846 0.046702363 0.08364784 -0.016774526 -0.29925126 0.26000667 -0.008057077 0.19943121 -0.29361135 0.14706336 -0.1422129 0.013237834 0.20017156 0.02479494 0.26688433 0.13412002 0.04184649 0.041669462 -0.37434742 0.118993506 -0.040383913 -0.0015934819 -0.16198723 0.46593592 -0.04228774 0.17341307 0.021617312 0.2512803 0.13097782 0.03119175 0.27100402 0.080373675 -0.008353526 0.07890487 0.31271365 0.12259691 0.11170091 -0.20996578 -0.068750106 -0.08449955
new -0.111657485 0.091574274 0.02013357 -0.026279986 0.037348602 -0.41340125 0.11607578 0.5094012 -0.10612349 -0.12555899 0.058824547 -0.27535787 -0.039893564 0.090655796 0.10519267 -0.14158091 0.08618891 -0.22008747 -0.015325743 -0.53009117 0.11389609 0.11503527 0.13632496 -0.1775817 -0.07040483 0.07604917 -0.082804374 -0.17912304 -0.21695808 -0.021146292 0.25597125 0.034548093 0.1822171 -0.13480075 -0.09591168 0.28349704 0.022768408 -0.20343591 -0.0979173 -0.3994916 0.033225447 -0.26155597 0.026096515 -0.01363244 0.12587531 -0.12456754 -0.08751602 -0.054727547 0.16691956 0.22898383 0.0034471413 -0.1908402 -0.034753993 0.097288266 -0.092401855 0.24309956 0.15996137 0.062578656 -0.15666427 0.10213866 0.09054269 0.07696079 0.12034448 -0.038120378 -0.32381713 0.28943664 0.033956748 0.25124624 -0.35329655 0.24549457 -0.19640906 0.099770844 0.22457321 0.017262546 0.3072389 0.10968759 -0.068732046 -0.01786379 -0.3706269 0.13306917 -0.0650001 -0.06027228 -0.19510376 0.45095176 -0.019370077 0.14322513 0.06623333 0.2089986 0.20768413 0.07880335 0.3570159 0.116348416 0.043881495 0.066354185 0.41082352 0.16912282 0.09008771 -0.21894124 -0.044264343 -0.14609207
student -0.102750234 0.027129034 -0.0324621 -0.0842107 0.05132717 -0.70406824 0.09270398 0.7757762 -0.065854914 -0.17160481 0.22986291 -0.373229 -0.13919042 0.17879273 0.059081502 -0.16973756 0.25074297 -0.3299441 0.07894308 -0.7024638 0.15601459 0.12905426 0.17768495 -0.18817906 -0.1944108 0.065556325 -0.10447794 -0.21814954 -0.28360263 -0.10685547 0.37750491 0.10184698 0.26740906 -0.096394755 -0.1561313 0.33538488 0.021760799 -0.40938368 -0.17952 -0.5726816 0.10286139 -0.43337163 0.06957037 0.0152794635 0.17874676 -0.14219426 -0.15247056 -0.16577466 0.32382894 0.4281251 -0.027003324 -0.23169293 -0.025308186 0.2316868 -0.16995737 0.41694984 0.30259186 0.10730558 -0.16880809 0.14262542 0.18081145 0.095140874 0.16821907 -0.052765965 -0.49943778 0.39245123 -0.013595492 0.29099467 -0.45232013 0.25557217 -0.2416617 0.02843492 0.2939593 0.033000845 0.4462381 0.21993612 0.035228427 0.06452369 -0.6113477 0.2198949 -0.06032232 -0.0067176307 -0.25982577 0.7382036 -0.0758855 0.2805391 0.026459716 0.37531945 0.22692375 0.07308437 0.429453 0.1679397 0.0034515758 0.15531006 0.54639184 0.20220588 0.1432606 -0.31684008 -0.13242085 -0.12224504
i -0.095814146 0.035001185 -0.0076221423 -0.11983826 0.048428074 -0.7800455 0.096908905 0.855946 -0.08380332 -0.1964904 0.25796577 -0.41502744 -0.13648985 0.19884701 0.07883478 -0.19506188 0.27764422 -0.34613025 0.09034685 -0.7878994 0.17620951 0.12471447 0.21145384 -0.21526033 -0.24119407 0.09224558 -0.10973661 -0.26082787 -0.30012965 -0.09181439 0.4030774 0.11074014 0.296879 -0.1156356 -0.15528485 0.35815287 0.025591249 -0.45486823 -0.20631501 -0.6525823 0.106755085 -0.49555436 0.06672687 0.033280104 0.18436211 -0.1774102 -0.16096558 -0.19409727 0.33500877 0.45569006 -0.0453455 -0.27034935 -0.03285952 0.24117951 -0.1891979 0.47822702 0.33072042 0.12287865 -0.18030804 0.16258694 0.19436905 0.09453657 0.17072918 -0.056393422 -0.5542998 0.4414506 -0.016878635 0.32711273 -0.49400258 0.28819907 -0.2745126 0.028101558 0.3241912 0.071551524 0.49395856 0.2729543 0.029656343 0.067931995 -0.6975285 0.2506614 -0.056226034 -0.0031742542 -0.27349228 0.82517827 -0.09453669 0.32072484 0.04112422 0.41847053 0.24926952 0.07000435 0.5099396 0.17380787 -0.002219865 0.17049935 0.58091444 0.23144853 0.19003925 -0.37354627 -0.16262531 -0.15911748
university -0.08820239 0.04242471 -0.015963487 -0.08862089 0.047651935 -0.69424486 0.09095537 0.7677059 -0.077738 -0.17097157 0.21788059 -0.3633906 -0.13277839 0.17528208 0.07814074 -0.18777354 0.23759614 -0.31902686 0.06901602 -0.71329993 0.1572343 0.11147788 0.18649277 -0.2008913 -0.21303628 0.07091947 -0.11342208 -0.22030737 -0.27647752 -0.08858336 0.36269107 0.08976013 0.25689837 -0.11305794 -0.14456704 0.32046905 0.018913975 -0.4043333 -0.18790987 -0.5897071 0.08359185 -0.4380154 0.06877689 0.03178863 0.17030996 -0.1592079 -0.12744962 -0.16830519 0.30102468 0.4161948 -0.03089998 -0.24974312 -0.017605845 0.21516588 -0.18140762 0.42212594 0.30557394 0.11815834 -0.17740224 0.13922141 0.18788356 0.09155169 0.15205282 -0.057935387 -0.49643934 0.40181077 0.0022429656 0.31162414 -0.46195918 0.26940483 -0.25343353 0.033587255 0.29656583 0.05279213 0.44315964 0.23426984 0.012341935 0.07354341 -0.6214895 0.21179245 -0.05917197 -0.0010478311 -0.26597127 0.72686875 -0.06598308 0.2796745 0.035079185 0.36629015 0.22969034 0.06956528 0.45900738 0.14665736 -0.0123744365 0.14850217 0.54048705 0.20932974 0.14785346 -0.32991084 -0.14992547 -0.14054993
dean's -0.043412782 0.0039278218 0.0011752023 -0.06359201 0.032089245 -0.3180179 0.043905567 0.39160234 -0.013195549 -0.09448897 0.111296 -0.16441344 -0.083708294 0.07422807 0.018215885 -0.10672708 0.121923916 -0.14202312 0.049439043 -0.34305114 0.06669641 0.063519984 0.09111464 -0.08259061 -0.09679519 0.04306094 -0.06513244 -0.09588728 -0.14025101 -0.018740362 0.15055917 0.04609671 0.13454022 -0.054226402 -0.07388034 0.13090518 -0.017106514 -0.22058806 -0.08698256 -0.27226964 0.053247496 -0.20547631 0.028487142 -0.0036033224 0.074442714 -0.094002895 -0.0590718 -0.0972863 0.14958017 0.22699624 -0.0067542163 -0.13583149 -0.01013291 0.09570214 -0.08260483 0.20088987 0.14150915 0.05497288 -0.07252797 0.09129445 0.07505101 0.033613387 0.08170718 -0.023432633 -0.25049508 0.20486903 0.018286854 0.14785644 -0.25018823 0.12795189 -0.10698584 0.022641642 0.1620283 0.013247605 0.21954574 0.10588339 0.03746553 0.03424672 -0.30813238 0.10807676 -0.034200083 0.013300468 -0.12419125 0.38081264 -0.042481925 0.13961431 0.027764823 0.18360871 0.08184822 0.028789898 0.21807785 0.06497392 0.009669418 0.043067075 0.2584389 0.10328012 0.1037117 -0.15392812 -0.050208993 -0.0543411
hostel -0.0879266 0.035493277 -0.020583605 -0.08207391 0.03837315 -0.57886976 0.07079931 0.6256885 -0.06356357 -0.14200759 0.17291024 -0.2975284 -0.11832757 0.1446412 0.06820959 -0.13878088 0.20991501 -0.2476998 0.067029946 -0.5835317 0.14154471 0.10535732 0.16216415 -0.15297069 -0.16062367 0.079817034 -0.098260686 -0.19597241 -0.22864377 -0.06539177 0.30975878 0.08826956 0.22371209 -0.09459712 -0.11446667 0.26115265 0.007791794 -0.3282368 -0.15295893 -0.48238084 0.07878545 -0.37090364 0.061946005 0.026365155 0.1452762 -0.13588573 -0.11904772 -0.14722666 0.26095626 0.3313376 -0.026547624 -0.19739757 -0.026430154 0.17741854 -0.15014409 0.35286152 0.26050055 0.09058678 -0.14309052 0.12772845 0.16246721 0.084932536 0.12769085 -0.03677977 -0.39451498 0.3272543 0.0054270006 0.25433305 -0.36658674 0.21431552 -0.20677331 0.011516275 0.2360205 0.04624144 0.37679666 0.20224836 0.012547545 0.06795049 -0.5088 0.17891566 -0.044173017 -0.014130811 -0.20167623 0.6072193 -0.057427615 0.24410984 0.04298482 0.31568426 0.17714444 0.036605503 0.38334683 0.13167186 -0.00068394415 0.114868194 0.432417 0.16525848 0.14149901 -0.2778145 -0.12873575 -0.09921158
automation -0.012307689 0.031652182 -0.0009853701 -0.01802517 0.04834707 -0.15101318 0.025826152 0.17270985 0.022382041 -0.053487178 0.07942334 -0.08729401 -0.048537076 0.030431729 -0.008647712 -0.01849672 0.07159928 -0.06318391 0.027433308 -0.11735387 0.03720956 0.05495137 0.023790652 -0.027912578 -0.08141775 0.013050914 -0.011572619 -0.036097337 -0.03480537 -0.043432463 0.043121614 0.0020698558 0.059265785 -0.014004591 -0.045728177 0.056905583 0.048231315 -0.060774837 -0.06734829 -0.06495142 0.063361526 -0.08008172 0.022607835 0.010308982 0.05001275 0.0007588804 -0.06269175 -0.05427092 0.06992968 0.08552992 0.00663997 -0.037630007 0.012724471 0.032708615 -0.063721836 0.070822746 0.10794525 0.03159858 0.0018825005 0.048654824 0.024073636 -0.00893685 0.030392334 -0.0030513369 -0.0691446 0.08094331 0.0025073139 0.05237626 -0.08671641 0.01900492 -0.05780604 -0.020489993 0.086249344 0.012069354 0.08550676 0.02081625 0.03758118 0.037516333 -0.12364637 0.04806629 -0.039620418 0.022875289 -0.023104563 0.12700887 -0.022612575 0.084397756 0.012270082 0.09135643 0.030513652 -0.016920086 0.0766812 0.035520557 0.0057633882 0.030357527 0.09653169 0.017057939 0.056466427 -0.034910418 -0.017278576 0.02026983
electrometry -0.035952657 0.03006041 -0.00010387016 -0.0028123886 0.0342099 -0.18692443 0.014366525 0.21052633 -0.0015772359 -0.040345047 0.07175432 -0.10641008 -0.05414278 0.057924338 -0.008157511 -0.044963833 0.06471276 -0.06553591 0.033469766 -0.14631662 0.031819016 0.061697558 0.024958437 -0.032185256 -0.09240873 0.009753012 -0.01784884 -0.033607434 -0.057934232 -0.052597333 0.06547851 -0.0010593006 0.0771107 -0.0029311862 -0.05258768 0.09434047 0.05343255 -0.09683173 -0.0878839 -0.08744808 0.06880568 -0.10711024 0.006861608 0.017310666 0.06079831 -0.005665739 -0.07330143 -0.07365211 0.088247344 0.08825248 -0.0030167974 -0.05991317 0.019022394 0.061204966 -0.071399644 0.107744984 0.12319149 0.026311953 0.0046595917 0.06305133 0.04412971 -0.004477097 0.026690137 -0.015213168 -0.084762484 0.08603573 0.00054985844 0.08494852 -0.10408269 0.041056387 -0.0719372 -0.011742738 0.102465466 0.013331198 0.11713893 0.05335685 0.027994331 0.042175677 -0.15595491 0.04956483 -0.043173824 0.016860738 -0.03861837 0.17639612 -0.04052063 0.102630384 -0.0024587405 0.096804276 0.055109706 0.003283895 0.08793374 0.04784622 -0.0051533603 0.018689927 0.1155098 0.03999613 0.07212967 -0.050247304 -0.006701411 0.010025478
take -0.07759842 0.017393485 -0.009781032 -0.081358775 0.049148615 -0.5759095 0.077250324 0.646599 -0.053398434 -0.1394619 0.18140158 -0.31608874 -0.118463874 0.1608443 0.04535733 -0.14208746 0.19376123 -0.26102802 0.060505673 -0.5902111 0.14405236 0.10739604 0.15483217 -0.1540934 -0.17040227 0.07457767 -0.077302255 -0.20093447 -0.2393648 -0.07924727 0.30967388 0.07768107 0.21476607 -0.10000735 -0.11945902 0.27354363 0.0223724 -0.3467566 -0.16111262 -0.49571186 0.077199325 -0.37758633 0.051897608 0.024760697 0.15415564 -0.12180724 -0.12515369 -0.15204753 0.26844358 0.3484627 -0.03258096 -0.20699093 -0.017511733 0.1836633 -0.14358121 0.359872 0.24801873 0.0814283 -0.15294233 0.11743747 0.16056736 0.078960605 0.12797038 -0.04127663 -0.40843046 0.3333912 -0.0153448 0.26017457 -0.3669876 0.22461206 -0.1968361 0.024573931 0.24788293 0.03980132 0.37005922 0.18342192 0.029638069 0.051444743 -0.50754213 0.18006834 -0.04774053 -0.018672515 -0.22551136 0.5997306 -0.07183945 0.23815213 0.02412977 0.3048887 0.17486788 0.04625001 0.38057926 0.13393931 0.008569264 0.12459864 0.43664452 0.18474351 0.12099333 -0.27739865 -0.13222909 -0.10543613
order -0.07041048 0.034533404 -0.011600224 -0.0859363 0.05203763 -0.5451905 0.08295322 0.59785604 -0.058659494 -0.13374978 0.16684572 -0.2968145 -0.09258287 0.13887735 0.057655692 -0.15071496 0.19403172 -0.24279454 0.067564614 -0.55140674 0.1318783 0.08793194 0.13626872 -0.15798628 -0.16524813 0.05593241 -0.079711504 -0.1862709 -0.21800098 -0.07212969 0.28412056 0.079024 0.19128963 -0.08822742 -0.10874473 0.260396 0.00476658 -0.31498113 -0.13550754 -0.45937282 0.08514745 -0.3556203 0.06142583 0.021434622 0.1390687 -0.120077506 -0.11328174 -0.14070615 0.24151926 0.31834656 -0.016911203 -0.1750776 -0.0034619907 0.16391794 -0.12345461 0.32920694 0.24385358 0.0876633 -0.13129413 0.11480549 0.13762671 0.06031133 0.10749257 -0.040416446 -0.3701272 0.30898657 -0.0053538973 0.23433258 -0.33910486 0.19560145 -0.19099239 0.0035497816 0.23137783 0.048356093 0.35176685 0.18669169 0.029682843 0.058325406 -0.47403204 0.18215643 -0.049529146 0.0013771999 -0.19310626 0.5624081 -0.047685485 0.22721392 0.037159715 0.29150143 0.18126501 0.050104015 0.35896614 0.12414983 0.0059695696 0.1068332 0.41951308 0.16784677 0.1185472 -0.25924328 -0.11164745 -0.107642196
pay -0.047815546 0.0052207494 -0.015737504 -0.058003534 0.040923163 -0.4448338 0.06257117 0.49323788 -0.05190594 -0.111574896 0.13138168 -0.23601167 -0.08218248 0.12959608 0.05088357 -0.107637845 0.15482132 -0.17931035 0.0645113 -0.43438116 0.11008804 0.06516118 0.112626135 -0.12992862 -0.12354729 0.04911657 -0.077677555 -0.1363035 -0.16658399 -0.061590277 0.2440267 0.06393522 0.16081554 -0.06653033 -0.09452135 0.19403279 0.018458813 -0.24978665 -0.1066747 -0.37822762 0.05945971 -0.28640586 0.05136808 0.026396649 0.10565524 -0.09302329 -0.09473801 -0.11377492 0.2069634 0.25331122 -0.030793333 -0.15667719 -0.018788528 0.13459644 -0.105523005 0.28373095 0.18918888 0.06961614 -0.09354402 0.09111973 0.11868492 0.07254382 0.10587947 -0.025381763 -0.3136702 0.25979435 0.002055841 0.19768749 -0.28160965 0.16589814 -0.14617953 0.004990203 0.19421595 0.03651749 0.29011196 0.14512743 0.0072414656 0.055194028 -0.40561295 0.1281767 -0.040791694 -0.0084905615 -0.16242103 0.46840903 -0.03310103 0.18010679 0.028203178 0.23832068 0.13164656 0.019849537 0.294945 0.08815811 0.003885021 0.10212302 0.337857 0.1381635 0.10713797 -0.21249047 -0.09196582 -0.08900229
unearth -0.05542381 0.033627383 -0.0042886655 -0.045462664 0.023972971 -0.3926676 0.07182838 0.45123383 -0.040890466 -0.10926897 0.12474099 -0.21230511 -0.070424765 0.10290669 0.045972757 -0.11008076 0.14599955 -0.18908592 0.029549131 -0.42015374 0.090782225 0.083246216 0.100563414 -0.11666393 -0.12593625 0.0512295 -0.06391786 -0.14190356 -0.16533768 -0.037936155 0.206496 0.044084862 0.15892637 -0.0744163 -0.09660793 0.20547755 0.0068593863 -0.2393723 -0.113973096 -0.3377126 0.06165311 -0.24310946 0.04053777 0.013580903 0.10539662 -0.088658705 -0.09126145 -0.10654692 0.18692234 0.24371432 -0.025226142 -0.15283756 -0.023034176 0.113107584 -0.09807535 0.2541777 0.18082847 0.0677858 -0.09468456 0.090572275 0.10471054 0.041451447 0.090840444 -0.03497167 -0.28288493 0.24587436 -0.00042472442 0.18078443 -0.28311512 0.15453868 -0.14856812 0.025847668 0.18711756 0.02201692 0.259338 0.12707351 0.017192956 0.045503035 -0.36037028 0.12372228 -0.044737853 -0.007462467 -0.15008858 0.4291117 -0.034698483 0.1609294 0.02647987 0.21137221 0.13122627 0.02752522 0.26741195 0.09302894 -0.0015519543 0.08463357 0.30569774 0.11256442 0.08849369 -0.1869425 -0.06599582 -0.07006096
discover -0.05884806 0.031761818 -0.009254332 -0.037340645 0.042480163 -0.38471156 0.05955125 0.44492355 -0.027592324 -0.104189076 0.13022144 -0.21103619 -0.07464193 0.10428799 0.040517617 -0.11007391 0.1313726 -0.17110172 0.03124595 -0.39437658 0.087941244 0.08542678 0.09224211 -0.095373064 -0.122088574 0.03789365 -0.053630758 -0.12805974 -0.1688257 -0.055366803 0.20022257 0.036366377 0.15192777 -0.06322899 -0.09032452 0.1956572 0.026560424 -0.21306655 -0.111397944 -0.31018218 0.06905642 -0.24571387 0.028456407 0.014168511 0.10133514 -0.08862538 -0.097002685 -0.10148749 0.18100353 0.2381089 -0.0060664094 -0.14801864 -0.009860532 0.11243467 -0.11164853 0.24312226 0.1852308 0.05936971 -0.09826982 0.08641957 0.10130236 0.054325562 0.09282068 -0.041466884 -0.27752823 0.23420708 0.0047187135 0.17349882 -0.2587762 0.13755682 -0.13423966 0.017075043 0.1735889 0.029533911 0.26146993 0.12772821 0.015923053 0.051005915 -0.35092938 0.123021096 -0.047119163 0.0022245506 -0.13978213 0.4085601 -0.05199143 0.17532109 0.029215103 0.21037951 0.11906757 0.03592279 0.2451022 0.09342786 0.0061133653 0.081542596 0.30983418 0.112773895 0.10082753 -0.18396582 -0.07744566 -0.0725855
main -0.08836162 0.073734306 0.019780897 -0.030432532 0.020322746 -0.39026845 0.0863908 0.48097256 -0.085110694 -0.113123134 0.066943884 -0.24338922 -0.04411251 0.09435905 0.07507931 -0.13759066 0.104518056 -0.20774378 -0.000990042 -0.48133454 0.10307101 0.08763459 0.11736376 -0.1519315 -0.07551791 0.07227697 -0.07801069 -0.15481916 -0.19301718 -0.013259612 0.23929085 0.03738285 0.17087501 -0.13378944 -0.086389884 0.24251164 0.017200084 -0.21625823 -0.100478664 -0.37056407 0.032731503 -0.25214744 0.030120114 -0.009546124 0.107658036 -0.117894456 -0.082636625 -0.067014635 0.15712921 0.22313143 0.005309406 -0.17000592 -0.039786678 0.10433695 -0.10016418 0.22464892 0.15359183 0.059176095 -0.15313788 0.0964101 0.09380305 0.08050133 0.093771614 -0.027493896 -0.29440314 0.26871637 0.04156532 0.22784624 -0.32132566 0.22125334 -0.16836254 0.0876976 0.20177087 0.008007091 0.29420775 0.108337894 -0.043748755 0.004345508 -0.3397702 0.13748117 -0.0634947 -0.04607883 -0.17880413 0.4288373 -0.034326237 0.13812405 0.059815984 0.20674072 0.18225206 0.07004828 0.34182376 0.10093925 0.031329736 0.0641866 0.36069876 0.14454916 0.078963675 -0.20365393 -0.05614958 -0.11897411
administrative -0.08712373 0.07253485 0.014228517 -0.024176572 0.026787354 -0.37070587 0.085902475 0.4488392 -0.087724835 -0.11971615 0.043647718 -0.2386884 -0.038344212 0.08819446 0.08730569 -0.11517307 0.07716626 -0.18886666 0.00485055 -0.45595047 0.10260586 0.09598209 0.10177688 -0.13657764 -0.059708167 0.072446376 -0.07564531 -0.13875994 -0.17976987 -0.011514484 0.21173397 0.042624768 0.14704028 -0.12911652 -0.076990314 0.24805222 0.027193993 -0.1923055 -0.09853898 -0.33034638 0.03729058 -0.23734741 0.011442735 -0.01458806 0.10349568 -0.109268054 -0.0754547 -0.053029843 0.14723514 0.19712901 0.011498179 -0.17083561 -0.038224004 0.102379784 -0.078933656 0.22506818 0.13193485 0.047941744 -0.13824613 0.096799694 0.07595585 0.066377334 0.09698423 -0.02469034 -0.2662612 0.25442272 0.028017435 0.20648071 -0.30093536 0.21421915 -0.16863592 0.08526011 0.1869008 0.0024928404 0.2657376 0.10715788 -0.057818636 -0.0077858204 -0.3133184 0.12523109 -0.060330324 -0.037457895 -0.16492532 0.38675827 -0.02877693 0.13022083 0.060095944 0.19029096 0.19014478 0.06471139 0.3153261 0.097804695 0.023973117 0.06545479 0.3453886 0.1276166 0.07434671 -0.19844854 -0.04119751 -0.10740218
without -0.04538408 0.0054706596 0.002942728 -0.048078846 0.011661404 -0.3116708 0.032790978 0.3410004 -0.028338552 -0.08028264 0.08931137 -0.16351008 -0.059625473 0.08621153 0.041893672 -0.07037506 0.120629124 -0.14962436 0.043494157 -0.31166583 0.08320898 0.061066717 0.08950589 -0.09484613 -0.10390582 0.049858462 -0.053236008 -0.09564532 -0.112137906 -0.038033456 0.1725605 0.046584107 0.101085976 -0.057696275 -0.066991135 0.13111627 0.018653149 -0.17748071 -0.0961531 -0.24341385 0.05441846 -0.18639147 0.040417824 -0.004648794 0.079225875 -0.08056566 -0.06756808 -0.07915614 0.13837089 0.18139386 -0.009802819 -0.10476778 -0.0054429383 0.103382416 -0.08647271 0.19499135 0.14508562 0.06166842 -0.06714728 0.06168388 0.07939856 0.04229743 0.063871235 -0.011756541 -0.21560857 0.17993914 0.0020523742 0.12192038 -0.19436178 0.12953682 -0.11452008 0.0102601545 0.12281511 0.011132617 0.20692608 0.09772546 0.016371744 0.03348997 -0.2774414 0.09941406 -0.031031318 -0.008530677 -0.11022041 0.32860276 -0.037711836 0.12566145 0.0061158407 0.17898391 0.08472733 0.031866793 0.20705783 0.055901617 -0.008064912 0.05307524 0.23039046 0.097997986 0.082988605 -0.14369725 -0.06489892 -0.047231045
internet -0.059272826 0.015502958 -0.005782002 -0.05677996 0.012843915 -0.37834838 0.064050294 0.4160764 -0.043463714 -0.09955149 0.1151947 -0.19346769 -0.07104813 0.09640476 0.033639316 -0.089168675 0.13066553 -0.15589644 0.028137999 -0.37932283 0.078288026 0.063163355 0.0873885 -0.09599774 -0.114572674 0.037234347 -0.05144281 -0.13285486 -0.1501423 -0.05800353 0.20656456 0.06451556 0.14026986 -0.05358092 -0.07198503 0.16313238 0.02594955 -0.22809659 -0.08949015 -0.30482763 0.047061805 -0.23813178 0.0480761 0.009299952 0.102241226 -0.091261484 -0.062632404 -0.09141528 0.17302272 0.21432543 -0.010476316 -0.11807722 -0.011806854 0.115467064 -0.08815147 0.23525178 0.17461592 0.07029804 -0.084567025 0.08845847 0.1131834 0.051394574 0.0782844 -0.028755497 -0.25946286 0.21260484 -0.013618449 0.1530458 -0.2423072 0.1498077 -0.1361463 0.00444725 0.16420574 0.024602551 0.24082482 0.12556879 0.012533414 0.047665514 -0.32816786 0.11578335 -0.021997718 -0.0026708015 -0.14246877 0.39755213 -0.035455655 0.1545947 0.018380342 0.20371339 0.12459013 0.037056264 0.24289066 0.07021848 0.00068333885 0.07657488 0.29155007 0.10350395 0.094827 -0.18340646 -0.072609186 -0.08382253
stand -0.057373643 0.032188214 -0.010397534 -0.068322964 0.03506092 -0.4676911 0.05898062 0.5275153 -0.0446865 -0.10897828 0.13995486 -0.2429329 -0.090527646 0.123530395 0.037216578 -0.11889711 0.1735097 -0.20361035 0.04384964 -0.48489204 0.1050734 0.084311284 0.11487062 -0.13868092 -0.14106178 0.055205617 -0.08042069 -0.15892623 -0.19121353 -0.0521828 0.24949066 0.065274976 0.16618112 -0.082766935 -0.10148655 0.22769195 0.020696253 -0.27880073 -0.12138827 -0.40626642 0.06316786 -0.30357116 0.05317189 0.0125817675 0.11516016 -0.11312174 -0.09809272 -0.12604544 0.20856327 0.27265474 -0.026930762 -0.16631402 -0.022284148 0.14250015 -0.1151703 0.28411195 0.20070297 0.07130509 -0.12599449 0.09913679 0.13312374 0.058263715 0.10429474 -0.033038232 -0.32226825 0.27467415 0.0060960166 0.19596523 -0.31350037 0.1743163 -0.17590338 0.00487588 0.19342211 0.0302053 0.30311522 0.1501205 0.005428768 0.05266153 -0.42166594 0.15239057 -0.031239742 -0.00028347824 -0.17341155 0.49798638 -0.05562617 0.19643696 0.030343454 0.2645896 0.14640416 0.042121336 0.30267382 0.09821953 0.008879918 0.09040969 0.3612066 0.13259414 0.09957414 -0.21449731 -0.10586801 -0.086333446
mathematics -0.058095142 0.014052084 -0.015783599 -0.0451808 0.041762657 -0.35377228 0.065000646 0.42196977 -0.037816163 -0.086709306 0.12742141 -0.17247646 -0.07571035 0.09065127 0.01748268 -0.104851425 0.14414686 -0.17579512 0.049153615 -0.38672885 0.093547165 0.07238754 0.10845894 -0.11415711 -0.1245962 0.025332592 -0.0652433 -0.10527448 -0.15237944 -0.024083309 0.18174073 0.04692735 0.15594728 -0.049959652 -0.08261577 0.17313106 -0.008588304 -0.21908444 -0.10707288 -0.29781747 0.07438883 -0.2388495 0.027332367 -0.0018570701 0.096354984 -0.090530336 -0.07191623 -0.10870005 0.18560399 0.23218766 -0.01045497 -0.13426976 -0.007820679 0.11911655 -0.103921376 0.23260482 0.17416582 0.05374229 -0.09740049 0.08375156 0.09072529 0.036404975 0.07576082 -0.032569613 -0.27255297 0.22389092 0.016935632 0.16290914 -0.26557377 0.14099483 -0.1308804 0.0073373597 0.1742993 0.020067545 0.23521592 0.09525101 0.036585014 0.049368627 -0.33190447 0.12546557 -0.032791067 0.014674482 -0.12815145 0.4158332 -0.04018546 0.15296757 0.012242408 0.22600156 0.10835147 0.028159123 0.24705227 0.07010759 -0.0018911996 0.045446083 0.27399397 0.09569537 0.1100075 -0.17090192 -0.051908266 -0.061521415
scholarship -0.046789475 0.02539433 -0.016598962 -0.047955867 0.04222759 -0.34661895 0.05731311 0.37012044 -0.02791102 -0.07222877 0.12017508 -0.20164125 -0.072195105 0.09697561 0.022938833 -0.09630669 0.13094352 -0.1669431 0.024540426 -0.3387975 0.06649366 0.070634075 0.09049429 -0.091407955 -0.103133775 0.028805256 -0.06512444 -0.11473021 -0.14600432 -0.050551604 0.1943798 0.03875033 0.123382755 -0.05752716 -0.08389109 0.14646058 0.010932761 -0.19147685 -0.07942596 -0.30350482 0.034906596 -0.22728114 0.024900626 0.0037372732 0.07996468 -0.068294264 -0.080983646 -0.086213775 0.15687445 0.21260042 -0.02500308 -0.12802112 0.0019947852 0.10393795 -0.07155464 0.21513195 0.16936286 0.056137774 -0.08275934 0.082007684 0.08160968 0.033851 0.07654292 -0.025008488 -0.24885443 0.192959 -0.012933198 0.14258385 -0.22304597 0.1283315 -0.11827341 0.010005103 0.15253389 0.017702797 0.20876868 0.098452896 -0.0011630692 0.029056598 -0.31228063 0.09240423 -0.03348227 -0.008492066 -0.11413219 0.365699 -0.022879584 0.13599601 0.013014428 0.1850175 0.11820387 0.031311568 0.22838214 0.07804341 0.00049016037 0.051378965 0.27022624 0.10831491 0.08600095 -0.16283274 -0.09251576 -0.07099559
go -0.045553703 0.017058847 -0.020132767 -0.043787654 0.02637506 -0.37889513 0.0591609 0.42206517 -0.034315318 -0.091661334 0.123726614 -0.20506062 -0.06651832 0.11351998 0.025527852 -0.092732936 0.15050483 -0.17777239 0.04411394 -0.3871102 0.10026218 0.07238466 0.110270046 -0.08919164 -0.1141978 0.038314488 -0.060347456 -0.12295865 -0.15000968 -0.047365576 0.21107896 0.058642007 0.15429984 -0.06923735 -0.08637327 0.18138276 0.019987117 -0.22622803 -0.11637203 -0.3180895 0.051717214 -0.23423964 0.04230896 0.0011417915 0.09987056 -0.07809954 -0.09155425 -0.10507953 0.17514299 0.23497915 -0.027751144 -0.136033 -0.01933089 0.11646151 -0.10016902 0.23000044 0.1721647 0.063542165 -0.0957654 0.09136082 0.10814929 0.037144035 0.07952554 -0.027239028 -0.27723515 0.21041793 -0.010603459 0.16135801 -0.24351548 0.15033601 -0.1357594 -0.00014183398 0.17346388 0.03326457 0.2470824 0.114645064 0.015909731 0.04392793 -0.35424563 0.12422488 -0.035130322 -0.009947408 -0.14630058 0.41248482 -0.0580674 0.15327309 0.028964734 0.21180864 0.113015525 0.02191249 0.24596377 0.08934529 -0.009307687 0.07214714 0.28708878 0.108737566 0.085083514 -0.19353919 -0.06925534 -0.061489344
ngu -0.084423855 0.01752638 -0.013578659 -0.07922394 0.050512295 -0.5411295 0.069901325 0.6048666 -0.066985786 -0.13157073 0.16945563 -0.296358 -0.09805749 0.15478362 0.059934456 -0.15517639 0.20105422 -0.25912252 0.04547545 -0.5668952 0.12823555 0.09642562 0.14221177 -0.14537029 -0.15425782 0.07099273 -0.083206 -0.16800255 -0.22020721 -0.071650684 0.2796372 0.08629439 0.19251263 -0.094382726 -0.10895296 0.24826552 0.020526303 -0.32587913 -0.1394512 -0.44917125 0.06813434 -0.3491307 0.062322516 0.0164081 0.13679063 -0.124264196 -0.124586776 -0.12007873 0.24396172 0.31971416 -0.026239876 -0.19419073 -0.026598625 0.17087582 -0.14306583 0.32878518 0.24849503 0.09763071 -0.12776741 0.11557008 0.14713341 0.058714196 0.12705699 -0.033394255 -0.3877393 0.31162003 -0.001951554 0.24408877 -0.3720718 0.21908408 -0.19335878 0.029255064 0.22877912 0.035120137 0.3425882 0.17296487 0.021778496 0.061290238 -0.49083912 0.17737837 -0.05782894 -0.010525375 -0.2114022 0.5844348 -0.062752314 0.2315126 0.030598821 0.30317748 0.17845108 0.049337745 0.3607314 0.1309731 0.004028537 0.12081275 0.42505434 0.17619541 0.1367044 -0.2684999 -0.119188175 -0.10334471
wifi -0.058703545 0.018157186 -0.008119933 -0.045019094 0.019604975 -0.39958006 0.06574823 0.44601524 -0.035326395 -0.09286121 0.12325828 -0.22084922 -0.071062654 0.09358841 0.038286537 -0.11101849 0.13917497 -0.18686967 0.050598703 -0.40824857 0.104704924 0.05763853 0.09962421 -0.10675728 -0.11951532 0.047089748 -0.065422036 -0.1352278 -0.17170611 -0.0671772 0.22027165 0.061363105 0.15654255 -0.07001087 -0.08027077 0.17265414 0.026287848 -0.23099495 -0.11244755 -0.32392773 0.04818741 -0.26375455 0.043723155 0.018932536 0.09381496 -0.100614935 -0.06903956 -0.09713094 0.1785027 0.23786527 -0.0221701 -0.13513522 -0.014059105 0.13645358 -0.10876454 0.24907228 0.187105 0.05959702 -0.1095697 0.094216265 0.12019897 0.050409555 0.09126379 -0.032540943 -0.28765792 0.22523963 -0.010313427 0.18151629 -0.25743613 0.14308289 -0.14312539 0.008229263 0.17991792 0.025470592 0.26459998 0.13563609 0.004985756 0.052235726 -0.35358012 0.11946311 -0.038749468 -0.010926286 -0.15436445 0.427612 -0.053940006 0.15839586 0.026546648 0.21665926 0.13323475 0.028215077 0.26058826 0.08965643 0.0046817698 0.086424656 0.32160148 0.1267976 0.08237165 -0.19043726 -0.09472669 -0.08689072
guests -0.07487064 0.005832191 0.012124857 -0.0727373 0.03814848 -0.52835345 0.056310363 0.5537594 -0.034556128 -0.12786724 0.16521612 -0.2831744 -0.07365932 0.14072886 0.058470808 -0.14318334 0.18662684 -0.23041154 0.076431766 -0.50763506 0.1263531 0.0927353 0.13878667 -0.16986635 -0.13771312 0.07003402 -0.09181038 -0.14983733 -0.20808473 -0.0491901 0.26431558 0.08194583 0.1857328 -0.08426792 -0.11838509 0.25498533 0.021460265 -0.3260468 -0.13813238 -0.44253325 0.07456392 -0.35393277 0.065208964 0.019934619 0.1497536 -0.11095961 -0.106768034 -0.13537884 0.22279418 0.27650154 -0.0095293615 -0.15256196 0.004819564 0.15060705 -0.1438685 0.31761676 0.21798588 0.09758409 -0.12126541 0.110184 0.1530099 0.0696639 0.10141254 -0.049262 -0.3334298 0.2887838 -0.0017472123 0.21719861 -0.32466972 0.21243984 -0.18532862 0.014471496 0.2061387 0.049080618 0.34618413 0.17636724 0.0003175441 0.04274162 -0.45092937 0.18446627 -0.030369548 -0.02747942 -0.19628423 0.5219776 -0.06241495 0.23044668 0.0073133553 0.2546911 0.1767171 0.05496935 0.3512979 0.11145756 -0.0110701425 0.083986424 0.39698252 0.11890581 0.10187821 -0.24921146 -0.123792976 -0.109756105
faculty -0.040966872 -0.002191323 -0.019904487 -0.061396193 0.032126535 -0.39500192 0.050995618 0.464574 -0.021794517 -0.1164673 0.15462849 -0.17907088 -0.10241942 0.09827916 0.039391708 -0.10456797 0.14354354 -0.18736185 0.055598505 -0.42782912 0.07975901 0.073478706 0.12145576 -0.120064855 -0.110268466 0.04314403 -0.059597068 -0.11130035 -0.16621119 -0.022501962 0.19707426 0.041410252 0.1757013 -0.07454622 -0.071342744 0.16891749 -0.020192433 -0.26375458 -0.10312636 -0.32799712 0.065531954 -0.27055138 0.031549994 -0.009273861 0.11188587 -0.111552246 -0.07527874 -0.11141769 0.19437407 0.27580103 -0.02556367 -0.16103622 -0.011716671 0.13494112 -0.088410944 0.2492956 0.17944723 0.07497051 -0.112937815 0.107219025 0.09423249 0.053695977 0.09256294 -0.02418491 -0.30028942 0.24889228 0.02003554 0.19471328 -0.3032195 0.15865177 -0.12777144 0.013140636 0.2012574 0.01919341 0.26172376 0.114000216 0.028400693 0.048473306 -0.36827138 0.1210415 -0.017929059 -0.002973885 -0.15288216 0.46169814 -0.02862674 0.17122066 0.020878686 0.22947794 0.11074172 0.045253165 0.24753733 0.0800384 0.0063518486 0.057291105 0.30567104 0.12431686 0.12746723 -0.19490781 -0.05776238 -0.08429417
canteen -0.058490567 0.044873096 0.0020033224 -0.023419533 0.015156572 -0.2546755 0.06699682 0.31554928 -0.066821255 -0.08832507 0.019045819 -0.15187058 -0.04288276 0.06840601 0.058409993 -0.08455045 0.05301289 -0.13729998 -0.0053226287 -0.31369317 0.060562544 0.06132745 0.0754832 -0.10148027 -0.030549929 0.037768025 -0.037881084 -0.106040746 -0.13805722 0.010394207 0.15795064 0.014306714 0.09891793 -0.10291806 -0.06082699 0.17427519 0.00504124 -0.11613499 -0.048018977 -0.23782293 0.0071993913 -0.16212621 0.01232285 -0.004879061 0.08487902 -0.071539916 -0.055553403 -0.027720744 0.09370819 0.136308 0.0031155418 -0.106931336 -0.028764253 0.05103906 -0.05535317 0.14824522 0.08551835 0.030807106 -0.10553494 0.06901033 0.047788672 0.04704395 0.061562277 -0.016173003 -0.18677475 0.1768136 0.026157128 0.14681043 -0.20457727 0.14883025 -0.105656646 0.06301702 0.12141189 0.006432032 0.20162085 0.061000198 -0.046701383 -0.009228423 -0.20148003 0.07738343 -0.027322367 -0.038518816 -0.11583716 0.2611856 -0.002607357 0.07973438 0.04297995 0.12450262 0.13763204 0.052740026 0.21808419 0.060196728 0.032129593 0.030943858 0.22853146 0.10250968 0.046314154 -0.146404 -0.015493136 -0.08857559
help -0.048092756 0.012004887 -0.017938197 -0.056526016 0.019334927 -0.36093125 0.041446313 0.40500796 -0.02627179 -0.08980384 0.11970917 -0.19872478 -0.059504416 0.09990416 0.031445608 -0.100172214 0.123743035 -0.15521146 0.03462213 -0.35539278 0.09369654 0.06565856 0.088285245 -0.0913753 -0.10989946 0.030493349 -0.040142886 -0.1298409 -0.14193977 -0.049829733 0.1792218 0.049024522 0.13975838 -0.06300147 -0.082396746 0.17056741 0.005808193 -0.22118068 -0.090219386 -0.29857737 0.059560068 -0.2252928 0.048792157 -0.000978314 0.09427133 -0.06578499 -0.07157384 -0.09039935 0.16041975 0.21128443 -0.024640411 -0.13146397 -0.010665017 0.11007597 -0.0778886 0.21887304 0.16385044 0.059685517 -0.078208044 0.061902326 0.097080834 0.042898227 0.0816947 -0.026687622 -0.25804165 0.21447715 -0.009405207 0.15639009 -0.24020557 0.13854946 -0.11630844 0.0093524745 0.15871958 0.023050958 0.23728012 0.12816043 0.013071529 0.032244235 -0.3288168 0.12714162 -0.033396266 0.00021511443 -0.13665493 0.38643405 -0.028137665 0.14559051 0.022234289 0.19663884 0.1143288 0.039395493 0.2278539 0.074916266 0.0044485508 0.06956736 0.2691544 0.116721116 0.06774775 -0.17478561 -0.07800555 -0.05928285
please -0.063672364 0.020692134 -0.0020047352 -0.06504441 0.024356702 -0.48496112 0.066607215 0.5322554 -0.054421213 -0.123801164 0.15039937 -0.25164264 -0.09250381 0.12864132 0.052855767 -0.1276683 0.15873301 -0.21737798 0.051187932 -0.48976624 0.12150388 0.09034283 0.13439517 -0.14506514 -0.14111865 0.05159314 -0.066340424 -0.15353669 -0.20407985 -0.062789984 0.26553863 0.07080115 0.18197422 -0.09132448 -0.09354862 0.21956222 0.010565114 -0.28498772 -0.1302334 -0.41329226 0.055595566 -0.30311802 0.03929409 0.009942078 0.12844793 -0.10408176 -0.097857825 -0.11637241 0.22596067 0.28417915 -0.018504214 -0.16231917 -0.02706011 0.13607131 -0.110801645 0.30027956 0.2059521 0.08237291 -0.13090149 0.09318869 0.12081232 0.07470771 0.10426164 -0.04604747 -0.3479581 0.28380227 -0.0047400165 0.21028183 -0.31874442 0.18926927 -0.18031283 0.01848347 0.21415257 0.03532554 0.3064987 0.16304497 0.015243936 0.032791197 -0.43896884 0.15874296 -0.052519124 -0.011458618 -0.1935282 0.5207855 -0.056995355 0.18761005 0.031117907 0.25951263 0.16582267 0.05261006 0.3232818 0.11148549 0.007446976 0.10079302 0.36998308 0.15354311 0.11297435 -0.22084503 -0.102934465 -0.11242368
room -0.063867435 0.057832204 -0.008621886 -0.04054324 0.022581937 -0.34908518 0.09042762 0.42872122 -0.051650092 -0.088285275 0.079200394 -0.22735302 -0.050585005 0.084641345 0.06204403 -0.10452686 0.098359816 -0.16411014 0.012929372 -0.42175817 0.089589626 0.06523332 0.08459749 -0.12066317 -0.089716285 0.057525177 -0.05697399 -0.14863423 -0.17843607 -0.035710603 0.19619945 0.045191366 0.16148777 -0.10957907 -0.08539743 0.22597443 0.031837743 -0.17898983 -0.105780624 -0.3161312 0.029528655 -0.22357635 0.03805651 -0.0027175758 0.1147052 -0.10921621 -0.06844572 -0.060410883 0.16412823 0.21667375 -0.009679104 -0.14120059 -0.032348737 0.08774122 -0.08490937 0.20230685 0.14569175 0.05773251 -0.109722234 0.07699984 0.08634174 0.0600549 0.08354167 -0.030382061 -0.25707328 0.22836372 0.019334927 0.20792225 -0.2763126 0.17465176 -0.1353744 0.058650862 0.17443949 0.028616145 0.26950532 0.114678 -0.024783503 0.010800484 -0.30373377 0.123242386 -0.053300045 -0.03728836 -0.15958162 0.37802035 -0.017701471 0.11726702 0.043148573 0.20009926 0.15705669 0.05398986 0.26988664 0.09619383 0.030061377 0.06936971 0.32758 0.13077801 0.09034965 -0.1725144 -0.06009251 -0.105234616
online -0.06909791 0.01259862 -0.0040971213 -0.07698783 0.033143263 -0.52917343 0.08148525 0.583907 -0.057519633 -0.12933777 0.15707159 -0.2843888 -0.1086676 0.13347948 0.05435584 -0.12877771 0.18722746 -0.22204933 0.06204979 -0.53673434 0.113255024 0.10053518 0.15063876 -0.15326011 -0.14924967 0.075669944 -0.08778927 -0.18179674 -0.22339626 -0.06616984 0.27560386 0.08059393 0.21425326 -0.09234902 -0.12335122 0.24231182 0.00609347 -0.3204204 -0.14899462 -0.4445696 0.07187399 -0.33483812 0.048414078 0.03327744 0.14321446 -0.12527 -0.096450396 -0.14387432 0.23463243 0.31343138 -0.026350053 -0.18655759 -0.018246999 0.16054389 -0.1448983 0.32084155 0.22360198 0.08845929 -0.13099802 0.09995181 0.14715475 0.07470375 0.11741581 -0.034983132 -0.37804425 0.3109326 -0.015318335 0.22733983 -0.3488544 0.19813013 -0.195748 0.025976472 0.23161092 0.03117241 0.34453827 0.18900436 0.005288988 0.063003324 -0.48167306 0.1792825 -0.03727013 -0.008944055 -0.2053424 0.5544461 -0.05340809 0.21728982 0.045543537 0.2810122 0.1543608 0.030278234 0.34472704 0.1158271 -0.0025067404 0.10741327 0.4153572 0.16514103 0.13020617 -0.2463685 -0.12139453 -0.10814509
social -0.06304584 0.01144814 -0.014899816 -0.048850484 0.028764537 -0.3804188 0.052033905 0.42328185 -0.03660108 -0.0884683 0.1241339 -0.21199162 -0.08491696 0.1082514 0.027467465 -0.111799404 0.129087 -0.16693678 0.04818128 -0.3864617 0.10100169 0.059903447 0.10712493 -0.10566265 -0.10869178 0.039365593 -0.046403047 -0.13670655 -0.14997542 -0.042333346 0.20809388 0.06218797 0.15370265 -0.05973696 -0.07404753 0.18284777 0.011124986 -0.2244691 -0.0960307 -0.3332147 0.054844648 -0.25284466 0.045284852 0.005314992 0.093672626 -0.08438888 -0.0715509 -0.1052534 0.18126085 0.22665185 -0.0141621 -0.13092846 -0.00434952 0.119426884 -0.100225076 0.24440274 0.16846853 0.06931793 -0.10352402 0.08455503 0.10488084 0.0497359 0.08644211 -0.031347256 -0.27946654 0.21347387 0.0005718653 0.17310576 -0.26022115 0.15913685 -0.13570876 0.004786203 0.16487259 0.034487315 0.24107847 0.13208672 0.017528813 0.04696729 -0.34306344 0.12590323 -0.034290906 -0.011458193 -0.1343001 0.4035803 -0.043617293 0.15651461 0.029986711 0.20331632 0.12584467 0.03652527 0.25002652 0.07507835 -0.012419155 0.08262302 0.28882754 0.12397435 0.08654194 -0.19853024 -0.09187968 -0.06714755
academic -0.06507647 0.033955052 -0.024307381 -0.07459568 0.03394254 -0.44370788 0.05425314 0.47878748 -0.05888896 -0.102183275 0.15101118 -0.2548952 -0.09704834 0.123021744 0.044659007 -0.12781341 0.16814062 -0.21349642 0.0466689 -0.43765795 0.10364736 0.08417974 0.124611236 -0.12024237 -0.13717534 0.053244013 -0.078757025 -0.15502866 -0.17357436 -0.0697882 0.23072006 0.055241972 0.17307618 -0.063691415 -0.094430305 0.21321659 0.014061529 -0.25529623 -0.12402014 -0.38272828 0.049042165 -0.28949755 0.04997331 0.016314931 0.1056067 -0.09083935 -0.08331712 -0.116540775 0.19432102 0.26562437 -0.032298937 -0.14267167 -0.0006585872 0.15079376 -0.09347856 0.26646766 0.1980856 0.06181934 -0.1131835 0.08485566 0.122383595 0.054501437 0.08761275 -0.021000475 -0.31345052 0.2555054 -0.004754871 0.18313089 -0.29454508 0.1785386 -0.15753722 0.0072336732 0.19617286 0.033904787 0.27880484 0.15156811 0.007802099 0.05354606 -0.40355912 0.12719928 -0.043284558 -0.013327699 -0.15932144 0.46760717 -0.039293442 0.19396657 0.02367298 0.24543703 0.14133674 0.040678773 0.28912652 0.09555733 -0.007435685 0.07679576 0.34509408 0.13553618 0.091828324 -0.20899458 -0.10158978 -0.08860305
cafe -0.06111828 0.041433897 0.0017923857 -0.027343057 0.014659727 -0.20987533 0.0525315 0.24511099 -0.042152278 -0.06776552 0.0025633073 -0.1256364 -0.03287212 0.046088137 0.05619955 -0.08047816 0.031416122 -0.116796345 -0.004820131 -0.25923893 0.05908495 0.055890497 0.064221434 -0.09459859 -0.013972732 0.042401053 -0.033333186 -0.07413177 -0.12439533 0.005016513 0.1362211 0.015925035 0.07483883 -0.085995935 -0.051559635 0.1429376 0.010607746 -0.087646246 -0.04278342 -0.18854488 0.0047210176 -0.120499305 0.0035686574 -0.01937468 0.060537297 -0.07041279 -0.04815539 -0.019772606 0.0819467 0.11190311 0.011760841 -0.09811803 -0.018603148 0.04274069 -0.03739969 0.12337422 0.070065275 0.031812195 -0.09993766 0.05505704 0.036789894 0.044073347 0.050032515 -0.02340642 -0.1511954 0.14922988 0.01619367 0.13016652 -0.16920894 0.13373631 -0.09593957 0.068074524 0.11868784 0.004298435 0.15934452 0.040927116 -0.04570194 -0.010273954 -0.16312587 0.063399084 -0.04039757 -0.023054201 -0.113495804 0.2288103 8.4713654e-05 0.051784392 0.039863866 0.11282594 0.10627942 0.035910986 0.20030552 0.06068341 0.034379963 0.016500624 0.19877812 0.0916757 0.039796777 -0.11603546 -0.0243346 -0.08209141
tell -0.09042079 0.04157092 -0.013441475 -0.089636974 0.049737304 -0.58622247 0.079047516 0.6449969 -0.05562731 -0.14727 0.18089826 -0.31605095 -0.10271082 0.15973124 0.061512068 -0.16020185 0.20566265 -0.26230967 0.05245653 -0.6021101 0.1351606 0.106726535 0.14789194 -0.16708206 -0.16382147 0.063822694 -0.07888996 -0.19186579 -0.24490514 -0.082274534 0.31373146 0.08723037 0.21042149 -0.1041573 -0.13231894 0.2780493 0.014935431 -0.33544174 -0.1511667 -0.50137466 0.076209396 -0.3673719 0.057427574 0.0053656343 0.14073695 -0.13697444 -0.11456006 -0.14370428 0.26375338 0.34936213 -0.024171585 -0.20438471 -0.022909177 0.17640524 -0.15313254 0.35242927 0.26523003 0.08986467 -0.15990402 0.123479396 0.16497175 0.07782049 0.129295 -0.049369678 -0.41757742 0.3246223 -0.01254088 0.24913877 -0.38740972 0.2389599 -0.20104443 0.018538477 0.25278452 0.051791903 0.37318757 0.18657185 0.018222427 0.055005737 -0.5250934 0.17878045 -0.04052972 -0.0024000423 -0.23048422 0.6135556 -0.06088987 0.23634903 0.026672564 0.32709298 0.17961727 0.05661591 0.3956567 0.13051458 0.004278541 0.11453971 0.43946558 0.18470302 0.13369863 -0.28722015 -0.11548231 -0.13073358
certificate -0.036371723 0.008734846 -0.025702372 -0.058482535 0.030021502 -0.34801728 0.054815855 0.37576127 -0.019436913 -0.07301391 0.12657827 -0.1730728 -0.075005315 0.076193325 0.023605846 -0.09133966 0.1285928 -0.1507069 0.033782274 -0.33397552 0.07432199 0.05011549 0.09521127 -0.104627945 -0.10213984 0.028624548 -0.03859239 -0.11854431 -0.131043 -0.054373603 0.19276924 0.041345406 0.13240692 -0.0505898 -0.06208004 0.15086257 0.0018087301 -0.21606034 -0.07993921 -0.29405937 0.05386449 -0.22049801 0.048206203 0.001423198 0.08700162 -0.06853321 -0.0804183 -0.07480916 0.15096875 0.21535926 -0.012474272 -0.11255291 -0.008183247 0.12074882 -0.09413077 0.22246224 0.16327308 0.05583504 -0.077138186 0.07237056 0.09490245 0.03794378 0.07787696 -0.024156163 -0.23814657 0.20683551 -0.018267063 0.14656223 -0.23372872 0.12582363 -0.13180435 0.012489002 0.14300498 0.021471515 0.22661476 0.10461842 0.016939905 0.030265486 -0.31112802 0.1016514 -0.03768439 0.008460765 -0.13682117 0.36510733 -0.04045769 0.13747098 0.017591616 0.17233376 0.10074882 0.023552122 0.2048197 0.068133146 -0.006795169 0.072084375 0.2588683 0.09282594 0.07018564 -0.16493416 -0.08112364 -0.070135266
want -0.07046182 0.016051034 -0.019700997 -0.08012014 0.041750427 -0.49792424 0.05679221 0.5456258 -0.040449277 -0.121953495 0.15995868 -0.2703257 -0.09439005 0.14184809 0.043497633 -0.116403736 0.17497924 -0.21072257 0.06052893 -0.5009908 0.10861091 0.070497 0.12689051 -0.13924555 -0.15144369 0.04735227 -0.06720374 -0.15973766 -0.1897178 -0.07512735 0.25789663 0.07595026 0.1881354 -0.07769638 -0.10354746 0.21260169 0.016974935 -0.29239136 -0.13259713 -0.40905246 0.07045181 -0.30212432 0.03247411 0.014803364 0.121119335 -0.110175684 -0.09737652 -0.111512676 0.2102478 0.28966177 -0.027294481 -0.16648121 -0.008307047 0.1554395 -0.11311915 0.3091013 0.22205025 0.072533414 -0.1080993 0.10255678 0.12357749 0.05478975 0.11372802 -0.0308808 -0.3532885 0.2736763 -0.0059384047 0.21177693 -0.30444053 0.17703141 -0.16568846 -0.004507873 0.21184085 0.04798224 0.3041006 0.1549436 0.026082182 0.03917463 -0.44998318 0.15259095 -0.044822633 0.00041630937 -0.1690307 0.5181776 -0.044813134 0.20941201 0.036731616 0.26562205 0.15972747 0.04527535 0.3235965 0.11454301 -0.0072269854 0.11527176 0.38049135 0.15884888 0.103795595 -0.23437221 -0.106239155 -0.08949315
cost -0.05557943 0.017103653 -0.00073564687 -0.034300566 0.021621658 -0.3265441 0.053425092 0.36525127 -0.03217508 -0.09090966 0.10315846 -0.16994973 -0.059303787 0.07570959 0.029682247 -0.082089454 0.11500261 -0.15315275 0.04089994 -0.33179772 0.07006444 0.07050952 0.079087555 -0.09407783 -0.08659276 0.03932895 -0.055722132 -0.10788589 -0.13969819 -0.048228335 0.1657082 0.051209576 0.11475038 -0.049577523 -0.07647049 0.16148467 0.0064261206 -0.20035972 -0.078574866 -0.288903 0.046123475 -0.21085262 0.025306853 0.0030481203 0.09119983 -0.07559647 -0.06168975 -0.09283195 0.14826605 0.1907338 -0.021506054 -0.117475405 -0.021200413 0.09633098 -0.086881936 0.19828062 0.14103065 0.042463496 -0.07581928 0.06938978 0.09725774 0.049703583 0.08075059 -0.029958025 -0.24375637 0.19324718 -0.012024966 0.15345263 -0.20794657 0.12688547 -0.111337274 0.020835167 0.14568685 0.029689508 0.22351469 0.10864182 -0.0022486814 0.023851985 -0.29761323 0.10196172 -0.017719308 -0.015093105 -0.12352091 0.36031732 -0.034604613 0.1253408 0.02294131 0.17271088 0.09749784 0.019977082 0.21740812 0.07780986 0.004998206 0.075177394 0.26486695 0.10732991 0.06771595 -0.1505879 -0.077735014 -0.07271377
exam -0.065025374 0.036839984 -0.019536192 -0.08490915 0.051654756 -0.54416263 0.07203486 0.6074591 -0.047801904 -0.12883455 0.17000026 -0.2774284 -0.09532976 0.15075459 0.06283125 -0.15007772 0.19404028 -0.24642432 0.064495824 -0.53580844 0.13338923 0.101079196 0.15190676 -0.13965875 -0.16170795 0.052895393 -0.07995784 -0.1681077 -0.22332048 -0.06799673 0.2938834 0.06916427 0.21007113 -0.0871779 -0.11019559 0.2611105 0.019001475 -0.31478226 -0.15305232 -0.44408575 0.06283133 -0.33170268 0.060338054 0.0170072 0.12494711 -0.10718159 -0.11426317 -0.12794852 0.23899181 0.31521538 -0.026905019 -0.20036012 -0.02480442 0.15485711 -0.1309154 0.33327436 0.23862849 0.094005026 -0.13823181 0.10728549 0.14828904 0.06279829 0.118915685 -0.030840343 -0.38245413 0.31515288 0.0023827697 0.23203737 -0.35973918 0.21756303 -0.19179459 0.01561198 0.23457044 0.033186484 0.3514925 0.17369622 0.02182753 0.049636535 -0.48648852 0.17642002 -0.054651454 -0.00881726 -0.21090148 0.572146 -0.05664451 0.22396941 0.03272534 0.29563406 0.17206241 0.044503752 0.36172897 0.115951866 -0.005821921 0.10152423 0.40469864 0.1571317 0.12891193 -0.25634244 -0.119544424 -0.11727685
students -0.09906342 0.03810547 -0.041426424 -0.07172275 0.052419405 -0.6220067 0.071728736 0.6995773 -0.07168889 -0.13540882 0.19673398 -0.3411425 -0.11820441 0.1607841 0.069870174 -0.17345288 0.23264822 -0.3056071 0.072244704 -0.62919664 0.13234645 0.11488364 0.16228618 -0.17437859 -0.18667567 0.052104052 -0.10610341 -0.2170577 -0.2727524 -0.09973332 0.34952393 0.08660498 0.2258854 -0.11135086 -0.12771855 0.29109666 0.0121744005 -0.386693 -0.1554105 -0.5396666 0.07246902 -0.37950355 0.053769358 0.02150077 0.16578552 -0.11978075 -0.119832434 -0.15480104 0.2927777 0.38161686 -0.02282783 -0.228379 -0.01785143 0.21279325 -0.13704103 0.38539907 0.2719944 0.11167605 -0.17572962 0.13047163 0.15622261 0.08821059 0.124249384 -0.044531226 -0.43384507 0.3587091 -0.024463043 0.25848 -0.4076438 0.22978726 -0.2136806 0.0206858 0.2867591 0.04134581 0.39344767 0.19542381 0.03272966 0.048796542 -0.5455925 0.19089997 -0.067194164 0.0011321404 -0.24528238 0.65246063 -0.0881784 0.25227323 0.033599954 0.34339023 0.20567709 0.07350361 0.4105033 0.14238699 -0.01512234 0.14945473 0.48342207 0.20624168 0.14106902 -0.28088474 -0.117630884 -0.12998548
study -0.11372132 0.039729066 -0.018392801 -0.113143735 0.060800806 -0.76416165 0.10120099 0.85182774 -0.08799351 -0.17614362 0.22908273 -0.4208572 -0.14751954 0.18773207 0.07327322 -0.20646684 0.27160293 -0.36023203 0.08785606 -0.77938604 0.18280266 0.13782334 0.21133226 -0.22725481 -0.22470373 0.0822913 -0.11424127 -0.26325488 -0.31519127 -0.11215531 0.40305284 0.11740324 0.29086295 -0.12200616 -0.17216538 0.36846244 0.013439116 -0.45924908 -0.2104295 -0.6558159 0.10680483 -0.48957503 0.07816235 0.03323605 0.1876465 -0.17242223 -0.157576 -0.20428948 0.33140403 0.4591769 -0.02741378 -0.27031732 -0.032006748 0.23907012 -0.19117278 0.45671383 0.35158855 0.13155517 -0.20096488 0.15969472 0.2099756 0.09456395 0.16581473 -0.064059906 -0.5393377 0.45176658 -0.005724273 0.33459175 -0.50695723 0.29078254 -0.28999877 0.03289226 0.3294592 0.049555525 0.5029619 0.24109465 0.035046216 0.066835895 -0.69842875 0.2502409 -0.0742209 -0.014747404 -0.29447123 0.8081738 -0.08751809 0.30610713 0.057129122 0.43287134 0.24596745 0.06981259 0.49454796 0.18021825 -0.006630441 0.16510625 0.60669315 0.24569671 0.1777936 -0.35556617 -0.14788578 -0.1557066
military -0.06851885 0.03633907 0.0033101528 -0.0755552 0.03222749 -0.50675404 0.03803045 0.54116184 -0.057758108 -0.112413466 0.1534713 -0.2651896 -0.08261205 0.16055536 0.06423885 -0.12684989 0.17190157 -0.21803485 0.048916664 -0.5231062 0.13541846 0.054308586 0.13860145 -0.14022078 -0.16705927 0.058319323 -0.07657972 -0.13937713 -0.21131498 -0.08173152 0.2763516 0.07967162 0.18332227 -0.07945743 -0.11702437 0.20178026 0.021360893 -0.26208755 -0.12943849 -0.4224782 0.075579256 -0.29699352 0.02499034 0.006639866 0.11086132 -0.10540164 -0.08935496 -0.10126388 0.2064987 0.3058875 -0.048812617 -0.1796478 -0.029892696 0.138953 -0.100347 0.31878677 0.1945019 0.089496806 -0.12941517 0.07859885 0.14266704 0.056545082 0.11340585 -0.026166208 -0.33725104 0.2605206 0.002692926 0.23140572 -0.3146603 0.20402509 -0.19200552 0.0096742995 0.20893659 0.054539777 0.30710107 0.18238527 0.008770327 0.030130945 -0.46295166 0.14823715 -0.015885374 -0.02235927 -0.18339498 0.54976106 -0.06770577 0.19899704 0.04512575 0.248468 0.15769976 0.034832474 0.3332813 0.104802474 -0.009160155 0.13164277 0.36236995 0.16858761 0.108283624 -0.2138882 -0.114933886 -0.11049049
many -0.0795838 0.025245538 -0.026299417 -0.075549744 0.026965598 -0.5602094 0.07021732 0.62490636 -0.040568683 -0.13173807 0.17078333 -0.28768137 -0.12582168 0.14588995 0.061825868 -0.14812514 0.18956187 -0.2675532 0.043937586 -0.54366595 0.13262786 0.1019534 0.16248684 -0.16653918 -0.15879744 0.058282215 -0.09061593 -0.19510171 -0.215891 -0.085413314 0.27981186 0.091658495 0.19854282 -0.0937669 -0.1146937 0.25419 0.0022188735 -0.33833143 -0.15580471 -0.46302202 0.06583619 -0.34802413 0.06672224 0.0123470295 0.15618938 -0.10883112 -0.11337811 -0.138874 0.25381294 0.34817144 -0.006998466 -0.1974625 -0.022217423 0.17149147 -0.13690823 0.33128682 0.23898555 0.07649788 -0.14089188 0.11672604 0.15502556 0.06679543 0.13291186 -0.05166562 -0.38211694 0.31898612 -0.0056438595 0.25098306 -0.36090717 0.21634421 -0.19186424 0.007478855 0.23395361 0.030011227 0.34204894 0.18511645 0.034801207 0.046120927 -0.480246 0.17093697 -0.049518783 0.005348677 -0.2217794 0.57504547 -0.055499997 0.21400276 0.043306496 0.3072469 0.15858555 0.06836393 0.36462644 0.11626784 -0.01855561 0.10100726 0.43188286 0.18466412 0.1251023 -0.25666013 -0.12607175 -0.111421406
schedule -0.07449595 0.020479366 -0.01681446 -0.0827853 0.024734074 -0.56623834 0.06604448 0.62189394 -0.06506891 -0.1179374 0.18576793 -0.29383174 -0.112756625 0.16776335 0.050112206 -0.15284176 0.19991839 -0.2593102 0.049594134 -0.56425595 0.14607573 0.075046845 0.14144112 -0.1438931 -0.17294464 0.055509172 -0.06813967 -0.17756368 -0.22272147 -0.069844455 0.3092008 0.08816574 0.20766345 -0.100016184 -0.11975115 0.2427464 0.019967252 -0.30149913 -0.12969908 -0.48514384 0.091955796 -0.350169 0.04227076 0.019344045 0.120400704 -0.12151664 -0.11289399 -0.11967866 0.25631317 0.32886806 -0.054974914 -0.19889225 -0.005676363 0.15412676 -0.12157918 0.3516579 0.23655075 0.1088213 -0.12759934 0.114733905 0.16118842 0.05004321 0.1316826 -0.050768983 -0.39759243 0.29446605 -0.00035690435 0.25984877 -0.36375108 0.21339384 -0.20293692 0.0048888754 0.22982056 0.052342966 0.3513424 0.18470646 0.013808254 0.04821512 -0.5141738 0.18184717 -0.026611844 -0.008011094 -0.2097286 0.59225744 -0.07374907 0.21793453 0.044023603 0.2863116 0.18045664 0.058695123 0.36956042 0.12341964 0.01099146 0.13376491 0.41882655 0.1654561 0.1299032 -0.24855986 -0.111844055 -0.11596342
nsu -0.06153619 0.031724267 -0.0061164717 -0.07365635 0.041374974 -0.48431888 0.059545986 0.543811 -0.057373725 -0.12350258 0.15726519 -0.25035876 -0.09528022 0.13167849 0.055961408 -0.12627818 0.16105554 -0.21597768 0.037633035 -0.49972552 0.1193534 0.078415416 0.13305947 -0.13398795 -0.14167176 0.0469623 -0.07940851 -0.16398485 -0.19097276 -0.057535056 0.24785008 0.061339296 0.18308814 -0.09209259 -0.09874263 0.23464431 0.004852688 -0.27231452 -0.11445495 -0.40959784 0.06592845 -0.3133159 0.056367572 0.019431582 0.1274621 -0.11765063 -0.093366005 -0.118939854 0.21966074 0.29561365 -0.018869404 -0.169225 -0.02266611 0.15326537 -0.12792815 0.29810256 0.22089691 0.08414334 -0.11873379 0.0960353 0.13213708 0.0736955 0.10533982 -0.033466168 -0.3555085 0.2887283 0.0026950927 0.22273757 -0.3146245 0.19633868 -0.1763737 0.012286138 0.20641844 0.035896104 0.30658326 0.14890082 0.0061158105 0.05651781 -0.42331994 0.15825574 -0.04811231 -0.0073407507 -0.1938663 0.5227426 -0.051977273 0.20730606 0.022809748 0.25959286 0.15915574 0.050773494 0.31214908 0.101681925 0.0019126276 0.08429526 0.38103023 0.15897495 0.10991876 -0.23635282 -0.11021215 -0.104139626
much -0.061795697 0.026314264 -0.029603189 -0.06110247 0.025270205 -0.52200836 0.08070548 0.5867113 -0.05845545 -0.11958558 0.16334304 -0.28641054 -0.094155185 0.12280528 0.039785936 -0.14528403 0.191053 -0.24011159 0.0458068 -0.53157985 0.12937541 0.10499194 0.15047505 -0.14225024 -0.15183291 0.055897795 -0.0730486 -0.1684043 -0.2087097 -0.0738018 0.2748648 0.06505912 0.20758513 -0.09524578 -0.11103079 0.24212784 0.0053374623 -0.32351935 -0.1300744 -0.44811922 0.06330765 -0.33508936 0.06381766 0.019991769 0.13679089 -0.10154785 -0.11827737 -0.13569771 0.23046707 0.31436986 -0.010949348 -0.19643979 -0.02944451 0.15454619 -0.12115333 0.32297978 0.23303588 0.07662607 -0.13327621 0.11051493 0.13622229 0.055702493 0.10975078 -0.034621637 -0.38565657 0.30838534 -0.012544921 0.2417026 -0.3471795 0.20436412 -0.19555396 0.008036424 0.23214814 0.03182583 0.3337793 0.17204784 0.034850843 0.03967139 -0.47411487 0.16735603 -0.050369993 0.009710585 -0.20491996 0.54967946 -0.06738074 0.2018874 0.019350136 0.27528128 0.1587758 0.049709495 0.3345329 0.11059799 -0.0027635838 0.112399615 0.4127693 0.15827738 0.12573348 -0.23729895 -0.11055633 -0.10894691
wound -0.031126844 0.0107266 0.003071318 0.003672415 0.0454603 -0.14819331 0.029672407 0.16771312 0.01780672 -0.058173086 0.06694197 -0.079315335 -0.047409378 0.042955205 0.019755375 -0.02490052 0.048129175 -0.055540223 0.0071591693 -0.095890135 0.012413594 0.05470992 0.021670343 -0.021758277 -0.061845437 0.0044549652 -0.02515621 -0.033785876 -0.045654256 -0.039280586 0.06680569 0.00994657 0.06392801 -0.0025981183 -0.04260469 0.07987101 0.042649675 -0.06330947 -0.05640275 -0.08166704 0.054939646 -0.073008545 0.015493857 -0.0080529 0.041075706 -0.00066572457 -0.059178818 -0.033736993 0.06678717 0.079236664 0.0014019319 -0.0446137 0.009123383 0.04058585 -0.06444414 0.08818322 0.08342988 0.014952426 0.009750508 0.044430904 0.04199064 0.017175304 0.02094844 -0.022802852 -0.07971472 0.06380279 0.0037563667 0.056151964 -0.10085126 0.021459842 -0.037484538 -0.006584071 0.078601636 0.024716875 0.09426849 0.024200462 0.025232084 0.03838281 -0.11715741 0.037551403 -0.01681821 0.023046466 -0.025973992 0.14901157 -0.0385879 0.08751945 0.010884168 0.07264642 0.021386022 -0.026021259 0.05502415 0.036412664 0.010118352 0.03600535 0.08457487 0.0380192 0.038063474 -0.050474755 -0.0035884627 -0.0078098774
second -0.057550337 0.030441722 0.014016061 -0.0175076 0.0035535353 -0.16714786 0.054029427 0.22073248 -0.0423968 -0.056578506 0.0019088307 -0.11207976 -0.016825557 0.023038203 0.042911638 -0.06388874 0.029971486 -0.09946275 -0.018766312 -0.24004371 0.05597519 0.049630668 0.053804714 -0.07484672 -0.030468075 0.024121616 -0.025096793 -0.08471412 -0.098848455 -0.0010895273 0.09643362 0.022331672 0.087979786 -0.073724434 -0.027972706 0.12972382 0.0055945264 -0.08425734 -0.043923307 -0.15875618 0.020536713 -0.10208307 -0.0009236767 -0.013978773 0.061264932 -0.050357018 -0.030403871 -0.016204907 0.080421396 0.08567256 0.011791868 -0.094622836 -0.016836593 0.046250623 -0.045469247 0.10349524 0.04860116 0.022464292 -0.069343634 0.05604486 0.03759585 0.04809686 0.041716773 -0.017174184 -0.11907557 0.12700069 0.019451592 0.11290393 -0.1564309 0.11210653 -0.08258904 0.060440507 0.100570835 -0.0067200083 0.14652908 0.03700369 -0.027851947 -0.019904321 -0.15377551 0.05306124 -0.037569728 -0.02514113 -0.09365137 0.18915552 -0.01867591 0.04714842 0.023416057 0.09104194 0.10510494 0.033374354 0.17579678 0.047381796 0.03326316 0.03567266 0.18257762 0.068219885 0.035638183 -0.09800973 -0.024563478 -0.057680473
point -0.0860677 0.06571022 0.008173908 -0.038905058 0.02223747 -0.3963389 0.08413595 0.45366725 -0.08715623 -0.11680396 0.06414405 -0.2359408 -0.046176743 0.095390216 0.075117685 -0.13508756 0.091163486 -0.18082187 0.019796353 -0.44024342 0.11222683 0.07329608 0.123986006 -0.15249602 -0.093809925 0.07238002 -0.06822468 -0.15660854 -0.19228049 -0.008001009 0.21196203 0.053923514 0.15111423 -0.10333371 -0.0807072 0.20692946 0.01110027 -0.18880627 -0.0871588 -0.35054487 0.047877308 -0.2272454 0.03785057 -0.0082656965 0.0920794 -0.10658645 -0.06812448 -0.078199826 0.17691591 0.19590949 -0.017135877 -0.1701603 -0.015608493 0.0861747 -0.07592787 0.20673698 0.1603639 0.06220288 -0.13302559 0.117086224 0.103963085 0.064929985 0.10321981 -0.020572716 -0.2737142 0.26871467 0.026053557 0.1865129 -0.3005312 0.19390438 -0.17166367 0.060257725 0.19836654 0.002317372 0.27793282 0.116191894 -0.03554389 0.008976875 -0.31604895 0.10987488 -0.040655296 -0.013197808 -0.17634077 0.39435548 -0.043685447 0.115798116 0.052889474 0.2099058 0.18036242 0.05226735 0.30603036 0.10080937 0.0073848767 0.046947867 0.34297577 0.12181322 0.07893851 -0.20719832 -0.042909797 -0.1131298
event -0.037180517 0.01891996 -0.009855695 -0.06443833 0.03102919 -0.39413968 0.065146044 0.4355206 -0.033469096 -0.102728546 0.1110519 -0.2070906 -0.06483277 0.094046466 0.052366372 -0.09726494 0.13505594 -0.16541648 0.055023693 -0.38230476 0.10724633 0.06435093 0.09254573 -0.11955825 -0.12547338 0.065215625 -0.07507789 -0.12572224 -0.16219899 -0.039774425 0.20706199 0.041594148 0.12653948 -0.058419466 -0.08034859 0.18915376 0.010612894 -0.23689096 -0.11055202 -0.32501402 0.044948615 -0.25496095 0.03223184 0.0056238254 0.113270506 -0.08481351 -0.082147844 -0.118955776 0.16713779 0.20530531 -0.00951603 -0.124806985 -0.0071651842 0.10691545 -0.08819308 0.21640517 0.18186733 0.05870809 -0.09854272 0.0803117 0.10510383 0.04537156 0.07651813 -0.05245941 -0.25653195 0.21540773 0.0018503807 0.15225436 -0.25460023 0.13941626 -0.14387216 0.0061193826 0.14855756 0.03049367 0.25476244 0.12846987 0.0077455738 0.041433193 -0.3565156 0.13668309 -0.0368875 -0.009390961 -0.1350713 0.4089501 -0.051419508 0.17381749 0.0024764498 0.19425564 0.11731401 0.021750918 0.26138055 0.08977657 -0.00017698182 0.062755734 0.2998506 0.08994955 0.07084661 -0.19753452 -0.09408133 -0.06076233
mmf -0.032698765 0.016893934 -0.0034753035 -0.03638396 0.015160899 -0.22658232 0.033218887 0.24745059 -0.022080997 -0.06426946 0.08403183 -0.124895275 -0.058913697 0.058080446 0.022916827 -0.058173094 0.081276126 -0.10145058 0.025387418 -0.21378197 0.044231508 0.031039031 0.052372076 -0.052437805 -0.06403049 0.01567767 -0.02166647 -0.06398763 -0.08158042 -0.039218042 0.11102407 0.02959715 0.079530984 -0.032151353 -0.03776733 0.09674199 0.009273427 -0.14813302 -0.05356147 -0.19100659 0.031650588 -0.14678322 0.029864263 0.015535475 0.05881145 -0.052180953 -0.05541175 -0.056397434 0.112203725 0.14796953 -0.012693015 -0.08825526 0.00042304068 0.0697621 -0.050686926 0.1479806 0.09355567 0.039395653 -0.06289011 0.04102012 0.053049996 0.02594957 0.043840088 -0.016965816 -0.16526984 0.13737057 -0.0030161615 0.101814434 -0.14496091 0.07831889 -0.08235871 0.01629284 0.105487436 0.0050022714 0.15195584 0.08345077 0.029933576 0.013484224 -0.20145643 0.07256886 -0.0146004455 0.00037843458 -0.0888484 0.24361543 -0.018637454 0.09016608 0.0033649078 0.1192821 0.062227335 0.029841406 0.13979907 0.04790118 -0.011337792 0.042910974 0.17534864 0.07863084 0.057545036 -0.106950335 -0.03362912 -0.036364593
dining -0.058212847 0.05022695 -0.0009708633 -0.015652353 0.028239202 -0.23349237 0.06722008 0.29816893 -0.060983773 -0.0878059 0.021766968 -0.15303119 -0.04123012 0.059199605 0.06638117 -0.09324859 0.05256778 -0.11126664 -0.018266918 -0.3024293 0.049139626 0.050668944 0.08235714 -0.11273695 -0.037906397 0.028018078 -0.055855595 -0.10676579 -0.13098098 0.00048699632 0.13497397 0.013623543 0.09390376 -0.08871259 -0.06780474 0.15626116 0.02232225 -0.10975437 -0.045824204 -0.21848212 0.014574993 -0.14792198 0.023680404 -0.000425007 0.0777771 -0.070491254 -0.061202943 -0.025981378 0.101083905 0.13184121 0.012728191 -0.118561454 -0.01713964 0.04071665 -0.069471434 0.14205498 0.09216115 0.04185651 -0.11489007 0.069864705 0.06138451 0.05686865 0.061401963 -0.016406668 -0.16807705 0.15131088 0.011271998 0.15569867 -0.20094742 0.13058889 -0.111668125 0.06227687 0.13592598 0.0053242072 0.17577602 0.059963845 -0.052208472 -0.0024200734 -0.20672983 0.06560159 -0.033574738 -0.04804293 -0.12645029 0.26231554 -0.0088471845 0.08608434 0.052096177 0.12191038 0.12832019 0.05211554 0.2273595 0.0803644 0.033004925 0.042247497 0.24124537 0.09491528 0.043733224 -0.118982755 -0.028331503 -0.095194645
1st -0.042428296 0.028711403 0.020303175 -0.009365457 0.011430643 -0.11857429 0.05039703 0.15780284 -0.04479412 -0.049918268 -0.002747596 -0.09956512 -0.013256538 0.012803374 0.048332907 -0.053061515 0.0110627925 -0.08306942 -0.018408429 -0.19899607 0.039627332 0.04349297 0.037266705 -0.054243412 -0.016172357 0.020201791 -0.030477172 -0.060976837 -0.08435033 -0.0040175095 0.07666898 0.012434857 0.06511728 -0.06942064 -0.032269597 0.104625635 0.008003795 -0.05389946 -0.03037542 -0.12291441 0.013243648 -0.088774145 0.0055149677 -0.0014789193 0.042966552 -0.037287112 -0.028722808 -0.010694337 0.04304114 0.07703766 -0.0072282422 -0.06991551 -0.01303249 0.02147668 -0.013743392 0.06616804 0.027649084 0.031112209 -0.0678003 0.050522733 0.02476467 0.038250696 0.038397957 -0.017566524 -0.103332624 0.08974949 0.031410635 0.09434119 -0.117376015 0.098391056 -0.06267922 0.051175673 0.07227703 -0.012381512 0.1137686 0.0233279 -0.040699676 -0.0132311145 -0.101134025 0.030681256 -0.021305509 -0.01582802 -0.08413894 0.15129445 -0.0062806946 0.044991966 0.020834709 0.07207846 0.09018396 0.021576645 0.1330319 0.032477118 0.032209776 0.030949079 0.1317552 0.055000003 0.023451502 -0.08430147 -0.009129258 -0.068189435
connect -0.045114018 0.008558986 -0.0022321853 -0.038902458 0.02053696 -0.35360548 0.039143547 0.39003962 -0.031054927 -0.07528338 0.11305568 -0.18729913 -0.06291397 0.09888469 0.043182123 -0.080364235 0.11039896 -0.16267338 0.04678038 -0.36155695 0.085358575 0.07141826 0.08830184 -0.089853786 -0.11043636 0.04497227 -0.04740087 -0.11309724 -0.15140156 -0.038509466 0.19230571 0.046530094 0.13780466 -0.048463065 -0.07489991 0.16956554 0.008915957 -0.20762694 -0.09438589 -0.29793125 0.048849266 -0.23103634 0.040006295 0.024933469 0.09491005 -0.07140635 -0.07683738 -0.083402306 0.14874636 0.199557 -0.0077695786 -0.11339389 -0.016243322 0.10313186 -0.08375979 0.21843076 0.16484857 0.048797566 -0.087724164 0.071083754 0.09687657 0.04825451 0.069441564 -0.024136841 -0.2501043 0.20956543 -0.004490696 0.16218993 -0.22932437 0.13773866 -0.13506481 0.0017816985 0.1503516 0.020974042 0.23338415 0.122106016 0.0027538126 0.04412558 -0.31263757 0.09974676 -0.023060601 -0.0045027155 -0.13972862 0.3766241 -0.028147459 0.1540886 0.019335866 0.1961596 0.114563845 0.02281162 0.23718171 0.07179165 -0.01171652 0.082242355 0.26407912 0.11825514 0.066787064 -0.15230197 -0.08097026 -0.06436705
first -0.032781545 0.038687427 0.008007281 -0.021608563 0.0013086894 -0.14114572 0.051425636 0.1808521 -0.03586615 -0.04629499 -0.0030581688 -0.09885116 -0.02496819 0.02247333 0.041075107 -0.061830666 0.019727228 -0.09062928 -0.019443963 -0.21471 0.053695336 0.049143117 0.046694074 -0.07224968 -0.0152517315 0.031097354 -0.03820812 -0.072319716 -0.08279858 0.011981706 0.092462316 0.02715133 0.07321179 -0.06488042 -0.022344474 0.12179072 0.016806297 -0.05787112 -0.04452799 -0.14030206 0.00036714063 -0.098426424 -0.0035572445 -0.0026982282 0.047512624 -0.053310625 -0.0228364 -0.004157569 0.065082364 0.08722795 -0.004161466 -0.08149682 -0.010274695 0.030079743 -0.035284854 0.087046 0.042397667 0.020299738 -0.059873406 0.05466428 0.04083844 0.03358072 0.051187593 -0.013118087 -0.10149621 0.10560785 0.025030354 0.09965411 -0.13939612 0.103814445 -0.07171517 0.054224767 0.077298276 -0.0034071 0.11203019 0.034815285 -0.036580253 -0.017676102 -0.12227599 0.054480582 -0.019018538 -0.02744433 -0.08994855 0.15578963 0.00019547893 0.033461593 0.035939507 0.081312954 0.08346624 0.041101635 0.15252064 0.04558898 0.026758358 0.015395028 0.14181696 0.056118384 0.039055146 -0.083452776 -0.006079184 -0.06657422
dorm -0.0562866 0.020655844 -0.010868781 -0.05869076 0.034836043 -0.42749497 0.06552892 0.46895346 -0.04712674 -0.107437246 0.12123348 -0.23058237 -0.08656136 0.11241751 0.03873 -0.10905809 0.13542108 -0.18768525 0.04417543 -0.43419957 0.09923363 0.08619068 0.11697299 -0.115942374 -0.1262053 0.048253357 -0.06391734 -0.13878177 -0.16313277 -0.056376312 0.22967137 0.06604026 0.16400437 -0.059353117 -0.09484736 0.19045778 0.023240054 -0.23506907 -0.10803216 -0.35545853 0.066861786 -0.26360482 0.041342445 0.026513115 0.11259638 -0.09020856 -0.08619483 -0.11416158 0.18411778 0.24808784 -0.025551775 -0.1402619 -0.007212022 0.11831636 -0.11612085 0.2530365 0.18589199 0.06620378 -0.10831885 0.08597084 0.1196476 0.06881539 0.08787059 -0.041670207 -0.29028952 0.23112349 0.0040677856 0.19004497 -0.28248873 0.15073207 -0.16053297 0.016629728 0.18477187 0.033483405 0.2680217 0.14333394 0.010975801 0.043361537 -0.38426724 0.13091037 -0.031363737 -0.011303883 -0.1590551 0.44001746 -0.036934074 0.17086239 0.03931685 0.22216511 0.122237004 0.027487762 0.27232218 0.09517336 0.005725858 0.09014095 0.33488187 0.13205263 0.10303479 -0.19763598 -0.09296417 -0.079132
receive -0.06733068 0.035105545 -0.0218656 -0.07878401 0.037572898 -0.4989208 0.066326216 0.54719144 -0.054980386 -0.12526844 0.16796015 -0.2718137 -0.098313764 0.12875691 0.044354033 -0.1397645 0.1745819 -0.22685887 0.062178917 -0.51269054 0.11020359 0.085871436 0.13291326 -0.14457487 -0.1529366 0.045782328 -0.067012586 -0.17210601 -0.20690441 -0.06386676 0.26624465 0.056709547 0.19233896 -0.08278701 -0.105678774 0.2207085 0.0071964753 -0.29131377 -0.12265289 -0.41709384 0.07413962 -0.32694203 0.049291097 0.010427576 0.12733713 -0.10415911 -0.10122153 -0.13196293 0.22690399 0.3009483 -0.032599516 -0.16786525 -0.015595083 0.16535085 -0.117136404 0.30823448 0.2185637 0.068720676 -0.1145701 0.10052566 0.13967775 0.06654023 0.098061696 -0.038928796 -0.34668946 0.27980968 0.0063754055 0.2116727 -0.32771397 0.19559492 -0.18134809 0.0057523693 0.21457832 0.042341 0.30918378 0.16194138 0.009695269 0.04964931 -0.450717 0.16401112 -0.040178526 -0.0063512153 -0.18614776 0.53074104 -0.053445254 0.19538136 0.017075649 0.26561522 0.16601533 0.048202243 0.31572977 0.10181775 -0.011275695 0.10370288 0.37144542 0.15391502 0.11721834 -0.23819515 -0.1204991 -0.08909871
course -0.1046764 0.02560567 -0.027063308 -0.08550556 0.053866323 -0.73197496 0.09792759 0.8061711 -0.08758993 -0.18337494 0.2227743 -0.3983494 -0.1406463 0.18694007 0.08486747 -0.18873937 0.25783485 -0.31988364 0.071137324 -0.7232288 0.16746259 0.12948908 0.1801056 -0.20085895 -0.20910166 0.08509406 -0.11755387 -0.24303927 -0.3036702 -0.08608141 0.37311298 0.1044324 0.26332462 -0.12532914 -0.16327442 0.3434063 0.0132240495 -0.43099844 -0.19742286 -0.6120554 0.09177395 -0.4525959 0.07829741 0.025189204 0.17458436 -0.1588803 -0.13778137 -0.18288895 0.311279 0.4324856 -0.02537715 -0.2645784 -0.015736725 0.20611626 -0.1900066 0.43365148 0.32510537 0.11659256 -0.17544739 0.16255252 0.19578782 0.09172332 0.14521404 -0.066206604 -0.5083 0.42603344 -0.01569907 0.3248636 -0.46464962 0.26818135 -0.26862323 0.014339242 0.30377448 0.041581325 0.46908733 0.22496544 0.018671228 0.077145375 -0.6455288 0.21511966 -0.07007107 -0.0040924703 -0.26603732 0.7565057 -0.0821618 0.2932734 0.044328686 0.38965738 0.23640043 0.056512218 0.47966588 0.14633976 -0.005517664 0.155422 0.5523264 0.22787304 0.17559098 -0.3530704 -0.14544106 -0.14924902
center -0.09447225 0.03136759 -0.005702885 -0.06483701 0.03186275 -0.55783415 0.073539525 0.6207156 -0.042902943 -0.14326619 0.19097425 -0.31023398 -0.10378049 0.14739661 0.039686635 -0.14819856 0.19257723 -0.26648635 0.054078575 -0.55841124 0.11938832 0.09798863 0.1379057 -0.14237805 -0.1634374 0.08350747 -0.09896184 -0.16821314 -0.23986226 -0.07743854 0.2853993 0.083951056 0.20074978 -0.08241492 -0.12516253 0.25818047 0.025374457 -0.34046632 -0.1419993 -0.4731489 0.06160998 -0.3543385 0.06309843 0.005099595 0.13195786 -0.14012909 -0.116019666 -0.13231853 0.27060735 0.33931893 -0.02899939 -0.20093755 -0.024577757 0.16707847 -0.15109187 0.3356101 0.25652438 0.07902481 -0.16308561 0.11097493 0.15725823 0.08010261 0.13017437 -0.03639728 -0.3984465 0.3136153 0.01762073 0.26265648 -0.35833746 0.23205253 -0.18008804 0.012400565 0.24000347 0.05185466 0.36179516 0.19187498 0.0030243779 0.052857712 -0.49544573 0.16940266 -0.048307505 0.0065333666 -0.19435467 0.5854891 -0.06077517 0.21750645 0.04085841 0.31209362 0.1699301 0.0591085 0.37775025 0.14086558 0.0053439043 0.1092393 0.43241027 0.17821282 0.13839446 -0.2630992 -0.13443339 -0.10950506
fourth -0.083238676 0.06776324 0.009016977 -0.025960406 0.021529246 -0.26086578 0.06789463 0.33383027 -0.07478156 -0.10002976 0.021525167 -0.17529427 -0.024779536 0.042779 0.069583684 -0.0975438 0.05279573 -0.15333007 -0.013657383 -0.36899993 0.06689912 0.073035926 0.07815062 -0.11978984 -0.04526367 0.05336455 -0.059072927 -0.11103249 -0.14360254 -0.00093655783 0.15691079 0.036008824 0.10881232 -0.11715936 -0.052832805 0.20223297 0.010026246 -0.13407767 -0.06415845 -0.25708663 0.021385832 -0.15209243 0.0037297006 -0.01982551 0.09448132 -0.08139171 -0.058740705 -0.029032836 0.10244987 0.13716769 -0.0005691543 -0.1291158 -0.022664854 0.06720112 -0.04860575 0.14795159 0.07516045 0.04546097 -0.11425592 0.08748831 0.0652475 0.057832815 0.08053577 -0.03013156 -0.19701806 0.18987265 0.046753317 0.17228244 -0.22928442 0.17227478 -0.13234457 0.088725924 0.13392007 -0.004086314 0.20224391 0.07595152 -0.057259053 -0.019518485 -0.2141303 0.072468124 -0.0464401 -0.031621188 -0.14851919 0.2928261 -0.009506705 0.07428074 0.053767323 0.14342287 0.15065199 0.060117494 0.24252386 0.076514 0.04845354 0.049959112 0.26709238 0.101476535 0.05912639 -0.1473851 -0.013287235 -0.099965274
place -0.057412982 0.016544877 -0.019984843 -0.06284583 0.03629671 -0.45146838 0.07181651 0.4920254 -0.054176465 -0.099437445 0.14888911 -0.24961054 -0.0916223 0.11141492 0.044164244 -0.11027717 0.15931502 -0.21111208 0.04152624 -0.46507102 0.09431254 0.0916408 0.10912441 -0.13233802 -0.1407489 0.06652095 -0.062137324 -0.15155368 -0.1830927 -0.060272217 0.2562795 0.060575698 0.17549187 -0.08147523 -0.0854561 0.22529227 0.022357054 -0.26712567 -0.119481415 -0.3942999 0.071900934 -0.2996839 0.036332306 0.016709542 0.11114574 -0.09128352 -0.101371184 -0.098613724 0.20659891 0.25499955 -0.016918387 -0.16760482 -0.008426218 0.14757381 -0.12601158 0.28762972 0.20761916 0.07841856 -0.12708804 0.08681114 0.11113426 0.06702357 0.09585808 -0.030580094 -0.3151898 0.26855308 0.0006579506 0.20136712 -0.29682237 0.18073444 -0.1753407 0.0107564395 0.1948821 0.042071655 0.28925195 0.13431208 0.009620236 0.050006315 -0.3992131 0.14557052 -0.04461187 -0.011138874 -0.17202781 0.4746294 -0.058859214 0.18420993 0.030700177 0.25329313 0.14873445 0.053507462 0.29187045 0.112981096 -0.0020156861 0.093112364 0.3472198 0.13686988 0.10260628 -0.22687198 -0.083890945 -0.08655571
permission -0.05573486 0.0178499 0.0077712312 -0.0716392 0.03411399 -0.4164721 0.06154529 0.4510783 -0.05033036 -0.092583045 0.12625645 -0.23315503 -0.06890802 0.103546634 0.056293685 -0.11773025 0.1457719 -0.18126298 0.047565643 -0.41740233 0.115875356 0.074397214 0.096061215 -0.12638538 -0.13462397 0.0526762 -0.06404779 -0.12774473 -0.17987412 -0.04245232 0.22632952 0.046572536 0.14048837 -0.06980679 -0.1048565 0.1987068 0.02209098 -0.25015023 -0.10737716 -0.35455942 0.05462178 -0.2813097 0.04175433 0.022627827 0.11552691 -0.09013515 -0.07044675 -0.10714168 0.17232923 0.24018344 -0.002865278 -0.14928001 0.00013843205 0.11389591 -0.10673453 0.25283107 0.1762511 0.05585899 -0.11220305 0.069098055 0.109259225 0.069648735 0.088960074 -0.055203352 -0.2646151 0.24686345 0.008009005 0.18869136 -0.278892 0.15776846 -0.14320372 0.0148542635 0.17528796 0.02734317 0.2767387 0.15261915 -0.0062415176 0.04455574 -0.36695638 0.13302246 -0.030671937 -0.02825396 -0.16432667 0.43934432 -0.05152019 0.19351776 0.0025625646 0.2016863 0.1395866 0.047258962 0.28194535 0.10298254 0.008593664 0.067947716 0.33006772 0.09943057 0.079627916 -0.21312968 -0.0890594 -0.08357819
restaurant -0.04839612 0.035042163 0.003474497 -0.027274102 0.009500265 -0.2232525 0.052638892 0.2678767 -0.050891288 -0.0650793 0.021835705 -0.12603149 -0.0317593 0.045530926 0.04484694 -0.06426418 0.051818527 -0.118100844 -0.010015369 -0.27749497 0.05334895 0.062041275 0.057611946 -0.08602266 -0.038781878 0.03928655 -0.04833486 -0.07795111 -0.11697193 0.00068319996 0.12071009 0.026232269 0.08103695 -0.07765477 -0.05285221 0.13626567 0.00925759 -0.1128616 -0.04619216 -0.20433009 0.014739882 -0.14695437 0.021887166 -0.00045679437 0.07397977 -0.056535847 -0.051641252 -0.024285115 0.08477445 0.12649703 -0.0016210267 -0.098119654 -0.014037856 0.05210799 -0.056553196 0.12770669 0.085216776 0.03958774 -0.09135993 0.06534958 0.04814218 0.034865726 0.050016023 -0.01586121 -0.15334326 0.15842001 0.02898071 0.1329066 -0.18061046 0.11951163 -0.08543423 0.054296646 0.11836187 0.012256368 0.16547878 0.063171454 -0.037108507 0.0077344906 -0.17672631 0.061935715 -0.02968532 -0.0137763 -0.100757115 0.24448754 -0.005427634 0.070718616 0.04049332 0.12270543 0.10341923 0.036965467 0.19730496 0.06522024 0.01305039 0.031565357 0.200392 0.08728113 0.047510933 -0.12783265 -0.023850324 -0.059931584
number -0.06787144 0.030012973 -0.00816319 -0.059239015 0.047790177 -0.5039325 0.06825141 0.5653122 -0.061713196 -0.1131479 0.15457588 -0.2624888 -0.11050871 0.12942934 0.05818339 -0.13895483 0.17563307 -0.22369947 0.06306756 -0.5167798 0.11146403 0.10290289 0.12426452 -0.13808331 -0.14198059 0.04944801 -0.081337765 -0.17911309 -0.20632957 -0.059918124 0.25844106 0.067132056 0.20155698 -0.08633633 -0.10461152 0.23988894 0.0121003855 -0.3047452 -0.12526971 -0.4319431 0.07950379 -0.3257276 0.053728648 0.02014077 0.12935078 -0.10612523 -0.111618325 -0.11756332 0.22615914 0.29665533 -0.019113233 -0.16808257 -0.02151495 0.15587454 -0.12572718 0.31013137 0.22460026 0.09018663 -0.11959749 0.10079667 0.13193767 0.07584046 0.11047075 -0.050250232 -0.360636 0.283952 -0.0006746456 0.22494465 -0.3369325 0.19156295 -0.17357771 0.020114766 0.2222825 0.038738787 0.333899 0.16328253 0.023960225 0.04983489 -0.46317482 0.15156423 -0.047162373 0.0013044593 -0.18709388 0.5268234 -0.053265892 0.20534936 0.026241956 0.2839959 0.16602238 0.043120705 0.33562264 0.11286004 -0.012522834 0.10341505 0.39945248 0.16067153 0.12078288 -0.24599344 -0.1034878 -0.11034973
price -0.04289967 0.019524895 -0.0077542025 -0.044780523 0.026883224 -0.32785818 0.047763947 0.37772402 -0.03115806 -0.079832725 0.09946783 -0.18303992 -0.07458807 0.081645966 0.038158495 -0.07811424 0.11520169 -0.1534738 0.039869476 -0.33999202 0.076817006 0.06928749 0.09530286 -0.092604585 -0.10276776 0.043022107 -0.039998822 -0.099973984 -0.13797769 -0.035495378 0.18427278 0.036769386 0.1331605 -0.053009737 -0.07595441 0.15860134 0.019631954 -0.20229344 -0.07752322 -0.28728896 0.037821822 -0.20410678 0.027455047 0.016622895 0.09163646 -0.062303122 -0.060142174 -0.09199246 0.15027958 0.18518396 -0.016742293 -0.10598726 -0.017591096 0.10405733 -0.090111904 0.19290504 0.1559156 0.056151386 -0.07344252 0.07414031 0.09226436 0.04796658 0.063886344 -0.019258369 -0.2395293 0.196858 -0.00877796 0.14865367 -0.21282108 0.1239658 -0.12698863 0.0051664575 0.13172343 0.034205105 0.20975675 0.10698285 -0.001949053 0.028119743 -0.30171964 0.107185274 -0.021072121 -0.00080087624 -0.11104743 0.3534932 -0.023151742 0.14292525 0.024371294 0.18206285 0.09520379 0.024560258 0.22444212 0.06276711 0.0021690114 0.059374057 0.26682076 0.10385038 0.07602382 -0.16193308 -0.0617792 -0.07403023
third -0.06824004 0.051031552 0.008260187 -0.025695924 0.021395413 -0.22778724 0.0687738 0.29573414 -0.051640164 -0.08438771 0.029114956 -0.14169297 -0.035282917 0.048179623 0.052095767 -0.0875587 0.0574536 -0.12731726 -0.005905211 -0.31494635 0.07393435 0.05551363 0.066730164 -0.09614432 -0.030561913 0.03349331 -0.03942987 -0.09809408 -0.13380839 -0.008425571 0.13114384 0.03484945 0.10130774 -0.09134714 -0.048895106 0.16621967 0.021949349 -0.12588094 -0.058071446 -0.22010133 0.016616138 -0.14679064 0.018544018 -0.009947978 0.08233331 -0.06904008 -0.048179645 -0.021883631 0.10712 0.13045518 -0.0011684748 -0.103676304 -0.021859022 0.06051733 -0.050336003 0.12928577 0.08668361 0.033765774 -0.08902823 0.061427053 0.059268408 0.056327146 0.06765478 -0.031830262 -0.17909083 0.1711181 0.030788431 0.14019442 -0.20242287 0.13997452 -0.11935961 0.06124671 0.1166701 0.0026689249 0.1849793 0.063179165 -0.04457454 -0.0085621495 -0.2074502 0.07051574 -0.03248093 -0.01834134 -0.1274133 0.2572808 -0.005087381 0.08495902 0.043700844 0.11573438 0.12879021 0.049597096 0.21748684 0.069399334 0.025589341 0.044201635 0.23221874 0.097755454 0.04448441 -0.14026724 -0.019536776 -0.0894461
atm -0.036179963 0.014439037 -0.006249904 -0.03664858 0.018953728 -0.25491834 0.036075186 0.27019727 -0.031455874 -0.056827266 0.078844376 -0.12735525 -0.046336506 0.054631453 0.035077628 -0.06953663 0.084971674 -0.10473294 0.025462626 -0.24827649 0.06100909 0.0466101 0.07333333 -0.05714838 -0.07349228 0.025382675 -0.032916382 -0.08885317 -0.0910934 -0.026715938 0.13524464 0.036928225 0.090272196 -0.040433552 -0.056580205 0.12391372 0.01353537 -0.14144659 -0.07106446 -0.21407294 0.04234724 -0.15365268 0.019525697 -0.0037787973 0.05870208 -0.053621355 -0.060802393 -0.06148024 0.11429548 0.13571489 -0.011463974 -0.09464079 -0.012316547 0.07302744 -0.07367784 0.14714117 0.10155478 0.032416005 -0.060764946 0.056330647 0.07539732 0.04015123 0.047404163 -0.02884758 -0.16627575 0.14755246 0.008492619 0.106707 -0.16833392 0.091674335 -0.09774924 0.014976464 0.10378483 0.02597141 0.15197465 0.08979948 0.002941222 0.03386577 -0.22568509 0.06940125 -0.014078074 -0.013705067 -0.09946264 0.2655961 -0.03673451 0.10637506 0.017038045 0.12744452 0.081702754 0.022825992 0.17189969 0.05662735 -0.0048885653 0.045915335 0.197079 0.0670828 0.068518594 -0.121090226 -0.054618858 -0.05212926
training -0.042540472 0.003212235 -0.00778461 -0.04528283 0.03402672 -0.31954938 0.035824 0.35038295 -0.025184749 -0.071520604 0.09563841 -0.16406482 -0.06974108 0.07743174 0.027724 -0.079971835 0.10627378 -0.15294471 0.0252498 -0.3138283 0.07812695 0.06820942 0.08631285 -0.08117281 -0.087181434 0.044203 -0.0533182 -0.10152734 -0.12454723 -0.031213805 0.16142699 0.04642325 0.119464725 -0.05609947 -0.07407938 0.15518536 0.009979611 -0.18216248 -0.09214054 -0.2521496 0.04454538 -0.1952707 0.032703232 0.009764097 0.08580338 -0.08194923 -0.06188675 -0.08157485 0.14952448 0.18620297 -0.020631218 -0.11462426 -0.01635923 0.10885057 -0.0710812 0.19446592 0.15111168 0.04649246 -0.075908415 0.061964072 0.0758568 0.038220372 0.06453557 -0.029120004 -0.22782195 0.17835711 -0.002778193 0.1276182 -0.1960424 0.1262054 -0.12522036 0.009183965 0.12626994 0.027773423 0.19882484 0.11138963 0.014095798 0.025166193 -0.28990725 0.090603456 -0.016130295 -0.009728498 -0.11962005 0.32894498 -0.04964263 0.13291587 0.00926704 0.1814978 0.08892178 0.036680873 0.20521814 0.06460108 -0.005061924 0.06448415 0.24529801 0.09683512 0.07267405 -0.14366241 -0.07303428 -0.06855748
enter -0.065370046 0.02623106 -0.008266449 -0.067417145 0.039647765 -0.42727733 0.05939397 0.46677655 -0.0287042 -0.10574353 0.12850611 -0.21444659 -0.053038735 0.10402499 0.047167197 -0.11902257 0.14311826 -0.18076558 0.056375347 -0.41886932 0.10497656 0.064790554 0.10182159 -0.1430169 -0.10608071 0.058890667 -0.07185143 -0.1202787 -0.16744487 -0.06155294 0.20283578 0.051993657 0.13339557 -0.054606754 -0.083744556 0.20156315 0.012016255 -0.26465154 -0.10093817 -0.36348978 0.053491544 -0.2842296 0.036781218 0.002803172 0.11874628 -0.1003181 -0.070314065 -0.12567239 0.17186919 0.22945555 -0.028206035 -0.125809 -0.015463752 0.12389313 -0.09291239 0.250121 0.18389091 0.07520457 -0.106009975 0.08846887 0.12547086 0.04388465 0.086173534 -0.056197822 -0.279306 0.24725838 -0.0060024564 0.16939922 -0.25931948 0.17386341 -0.13487296 0.00052514556 0.17854163 0.050455343 0.26263455 0.1377622 0.0013666501 0.021667704 -0.37385055 0.150261 -0.03216908 -0.027269838 -0.16203125 0.41199544 -0.041253082 0.18562514 0.014215899 0.20403711 0.14314924 0.020283915 0.26695877 0.07533127 0.016091589 0.07400901 0.3097679 0.09322292 0.098178566 -0.20609166 -0.1066909 -0.07723529
table -0.07272018 0.036996324 0.007488436 -0.074651316 0.016516667 -0.43078196 0.024228368 0.4813826 -0.0367734 -0.08482512 0.12157937 -0.23170097 -0.088924065 0.13490069 0.057325084 -0.11502635 0.14495704 -0.18023196 0.04897544 -0.4337224 0.09690312 0.05041963 0.10884157 -0.10247736 -0.1554219 0.04833585 -0.05848486 -0.13642795 -0.16365513 -0.057678387 0.22738075 0.04102572 0.13714722 -0.06765837 -0.09392571 0.16557202 0.023060659 -0.22352068 -0.091433145 -0.373031 0.06679902 -0.2581753 0.017680855 -0.0008447667 0.08336112 -0.08731413 -0.10492026 -0.091992676 0.2052375 0.25785613 -0.05952938 -0.1320843 0.0019906142 0.11332965 -0.09804419 0.2901138 0.18417197 0.06853488 -0.09431732 0.07385193 0.10508421 0.04979838 0.09024101 -0.03519102 -0.30879703 0.21914907 -0.0058778827 0.19711018 -0.27260807 0.17513855 -0.1494921 -0.012530752 0.16185927 0.03356832 0.26490617 0.13698307 0.029602813 0.05446741 -0.41060895 0.14662041 -0.03142214 -0.025268974 -0.14976363 0.47567052 -0.056227032 0.16741961 0.028305063 0.23721159 0.14477149 0.017767826 0.26485777 0.09098026 0.008155123 0.10633357 0.327012 0.13123214 0.10653856 -0.1856529 -0.09379683 -0.07335133
budget -0.044013534 0.026621489 -0.012426672 -0.038086995 0.024930371 -0.31830886 0.054862518 0.3521146 -0.023502717 -0.07782167 0.10968979 -0.16169244 -0.06332169 0.08703255 0.037393264 -0.07215793 0.11369948 -0.13939478 0.029347131 -0.3226297 0.06429346 0.05653692 0.07985558 -0.0817549 -0.09419713 0.03937346 -0.04123797 -0.1098211 -0.119733736 -0.031906884 0.17457679 0.047577772 0.11027137 -0.051851608 -0.07330209 0.13875377 0.011713869 -0.18298852 -0.0758887 -0.26662144 0.048778582 -0.20000549 0.039699174 0.0034361305 0.07368452 -0.06626539 -0.06667702 -0.08061577 0.13488607 0.1931193 -0.024726009 -0.10183337 -0.012869677 0.10751359 -0.07429284 0.19429274 0.13429657 0.048873544 -0.08463825 0.063661344 0.092924125 0.029422019 0.06776393 -0.020755302 -0.21140751 0.17132363 0.0015063134 0.12649913 -0.20067385 0.12852396 -0.10602431 0.0017018152 0.13175027 0.012392935 0.19899112 0.10923515 0.000749974 0.035058714 -0.2867492 0.103836685 -0.020318838 -0.0028986414 -0.11655199 0.31643805 -0.041327953 0.12732354 0.0065539256 0.1814986 0.100536644 0.02544205 0.21546964 0.061869595 0.0010129567 0.06312542 0.2481046 0.097305015 0.070331514 -0.15403734 -0.07634528 -0.055132408
4th -0.0626168 0.060560018 0.019852089 -0.03263183 0.027861608 -0.23860608 0.068767965 0.2937842 -0.053745415 -0.090657026 0.018528119 -0.1603504 -0.027628824 0.051958803 0.051165566 -0.07532635 0.032104947 -0.12262874 -0.025495822 -0.32753247 0.06037739 0.07046439 0.069052555 -0.10168518 -0.04344106 0.052621763 -0.04070345 -0.10452934 -0.13397604 0.009377206 0.14313856 0.017411452 0.10733148 -0.10116641 -0.04834799 0.18035558 0.01340404 -0.11230661 -0.050028123 -0.22715484 0.021091972 -0.13969758 -0.0029179375 -0.01641031 0.08397153 -0.06886755 -0.037847318 -0.024361951 0.1068715 0.11715692 0.008474571 -0.124277644 -0.018811809 0.062066168 -0.0509403 0.14038031 0.06518458 0.036318015 -0.09218293 0.066431195 0.062432896 0.046408065 0.063784905 -0.016716786 -0.16347402 0.16972153 0.044008102 0.1370297 -0.2073926 0.15345941 -0.11720819 0.075602256 0.13220763 -0.0046827514 0.1823105 0.06861589 -0.054228608 -0.024291009 -0.19732411 0.0652047 -0.036997724 -0.027131885 -0.13440003 0.25258407 -0.014916522 0.068018675 0.045302503 0.12439192 0.12970778 0.054890316 0.22381055 0.078122415 0.037055325 0.044441514 0.24612409 0.08852861 0.047716968 -0.13926716 -0.013741394 -0.09548441
bistro -0.051794767 0.045304373 0.0013811865 -0.016558224 0.014394295 -0.20199196 0.050490703 0.24107996 -0.03775919 -0.056624506 0.011351395 -0.1356418 -0.02569772 0.048494082 0.042273976 -0.061268624 0.037495155 -0.10977165 0.0032188057 -0.26015308 0.04794066 0.060088832 0.06735565 -0.08886446 -0.0402364 0.031939037 -0.028596243 -0.08355833 -0.104299195 -0.002602314 0.12733206 0.01731874 0.08907462 -0.06400791 -0.05573601 0.13937314 0.0008418101 -0.11239062 -0.04010189 -0.18846092 0.020791579 -0.14096607 0.02066064 -0.01451278 0.054616522 -0.057199404 -0.048095156 -0.024302505 0.07938335 0.10693208 0.009403563 -0.096538015 -0.011164037 0.04648748 -0.048003983 0.124360636 0.083424464 0.029217526 -0.094942 0.054620672 0.05467719 0.04689432 0.045968994 -0.013730833 -0.14315636 0.13489796 0.021252459 0.122200444 -0.17618778 0.11295545 -0.08472071 0.04496515 0.10106641 0.006063192 0.1648182 0.063655704 -0.036180772 -0.0061857835 -0.16293316 0.0653787 -0.034615967 -0.032627903 -0.10667593 0.22700928 -0.0064199907 0.057641823 0.03819175 0.1046558 0.102152534 0.03235939 0.1840339 0.05632859 0.02256431 0.027374614 0.19021715 0.08009426 0.037619203 -0.114621975 -0.013906172 -0.065049455
how -0.040993497 0.020186799 -0.0086976215 -0.0514354 0.03900735 -0.34830543 0.03854661 0.39572185 -0.039623246 -0.08319925 0.099748425 -0.19879267 -0.0717964 0.100912526 0.034205627 -0.09142146 0.12082033 -0.14905532 0.049728457 -0.3453038 0.08097693 0.050988026 0.10183249 -0.099167116 -0.10337727 0.046453506 -0.039916333 -0.11755142 -0.14697014 -0.04835591 0.19244368 0.0509597 0.12634042 -0.043352157 -0.07291859 0.15630327 0.019532373 -0.21614519 -0.09468579 -0.28989774 0.043988418 -0.2187218 0.027933722 0.002198063 0.079397805 -0.073167995 -0.06150421 -0.08109639 0.15924671 0.21122746 -0.017274419 -0.12755138 0.0027854545 0.1010705 -0.08019367 0.21570958 0.15596446 0.054452237 -0.07571209 0.06303511 0.09540901 0.044914443 0.07727548 -0.03387938 -0.25421503 0.19155756 -0.00750313 0.14837219 -0.23165426 0.14227226 -0.12355714 -0.0035503658 0.14220832 0.020628942 0.21463849 0.11947228 0.012315502 0.045732044 -0.30983752 0.111251816 -0.018341267 -0.012419072 -0.13869523 0.37120906 -0.041879367 0.14192976 0.023882862 0.18119858 0.10693357 0.031107765 0.23161034 0.07719357 -0.00155473 0.082309 0.27368414 0.10400391 0.074898876 -0.17582586 -0.079306796 -0.07064685
personal -0.058622073 0.018127548 -0.015904242 -0.051611386 0.023086326 -0.34082687 0.058182362 0.3861026 -0.021597553 -0.07932585 0.11227095 -0.17914551 -0.06192305 0.084917545 0.04388717 -0.10039532 0.12241417 -0.14841573 0.04729786 -0.3531474 0.089850076 0.06892335 0.0826395 -0.083770506 -0.10563372 0.04714921 -0.06154945 -0.11992272 -0.13203849 -0.042649016 0.16955516 0.04539674 0.11632469 -0.05011863 -0.06344303 0.15883794 0.017804366 -0.20784827 -0.08524425 -0.28320235 0.039402172 -0.21418881 0.02852064 0.016541848 0.07961551 -0.06649358 -0.07115882 -0.07615113 0.15829928 0.21602435 -0.014559444 -0.118919544 -0.008868703 0.100983165 -0.0909574 0.2140552 0.16183768 0.0630529 -0.08264325 0.07805861 0.090308204 0.047119655 0.07097266 -0.036111534 -0.2514053 0.20495841 -0.009054275 0.16141656 -0.23504917 0.13107166 -0.12962058 0.023516033 0.15610103 0.025975179 0.22261846 0.10559145 0.0038823474 0.04777714 -0.31756657 0.11570497 -0.023442885 0.007071485 -0.124310166 0.36510196 -0.029711504 0.14718404 0.009268323 0.17677292 0.10689256 0.02916869 0.22936472 0.07212043 0.0007919665 0.07265011 0.26907074 0.11344255 0.0915006 -0.16271771 -0.06788564 -0.07920433
cafeteria -0.041422576 0.031577524 0.008494276 -0.018434348 0.024211863 -0.18304002 0.057462644 0.233773 -0.04848209 -0.06513575 0.010963682 -0.11754317 -0.016439084 0.05290386 0.041288596 -0.063585885 0.03579334 -0.0913877 0.00083869137 -0.23747483 0.05931832 0.03820117 0.0455743 -0.06934344 -0.025913622 0.022674281 -0.026425868 -0.08003136 -0.09904661 0.002911743 0.105535485 0.024396293 0.07001787 -0.0751246 -0.038293574 0.13367246 0.018212501 -0.089603275 -0.040697265 -0.18557815 0.012718493 -0.12392743 0.014793364 0.0018526989 0.06472351 -0.055383664 -0.045796786 -0.01715335 0.08495907 0.09766084 0.007318801 -0.078670755 -0.016510746 0.047477618 -0.051558286 0.1008163 0.065135695 0.020912534 -0.08470997 0.057630528 0.038607407 0.044649232 0.05016176 -0.01905737 -0.14930503 0.12675305 0.022700604 0.121650755 -0.15944451 0.11687714 -0.085702054 0.055407513 0.09587977 -0.00012906092 0.14842871 0.051306397 -0.022929687 -0.010775272 -0.15641773 0.06429595 -0.018620266 -0.024122205 -0.095042914 0.19591182 -0.0037796558 0.05301278 0.037110582 0.10691171 0.101264045 0.04109392 0.16164452 0.062207147 0.011685675 0.036273558 0.17493498 0.07445733 0.038061 -0.10592425 -0.013827483 -0.061826903
work -0.09646725 0.04258568 -0.010180962 -0.085085854 0.042179555 -0.55723166 0.083260134 0.6131904 -0.036011044 -0.12184166 0.1853412 -0.3111091 -0.10452013 0.14623256 0.04046275 -0.15468298 0.19620968 -0.25268254 0.050635397 -0.56677765 0.13923545 0.11193308 0.1280464 -0.15387832 -0.16819966 0.06859504 -0.088798285 -0.18542631 -0.24560651 -0.079251476 0.30001864 0.08593612 0.18878086 -0.10371298 -0.13408543 0.2527492 0.005331421 -0.32374406 -0.12863831 -0.4797048 0.06478624 -0.34374386 0.070077255 0.007126442 0.12910935 -0.14231485 -0.118539624 -0.13061991 0.27009445 0.3265556 -0.017814964 -0.21059531 -0.014527203 0.17919245 -0.14987788 0.3511822 0.24230842 0.09257507 -0.16425474 0.111625195 0.14654937 0.084296376 0.12634782 -0.057721633 -0.39499924 0.30661088 -0.004911464 0.25970232 -0.34867656 0.21355739 -0.1798462 0.015923083 0.22650541 0.044249624 0.3526363 0.19340962 0.012825948 0.06732828 -0.5101275 0.1591312 -0.055699017 0.00046201225 -0.20888743 0.5838576 -0.06783161 0.22571878 0.04243972 0.30523154 0.17747581 0.055162836 0.37878233 0.13444176 -0.014184571 0.09725583 0.42532912 0.17673662 0.14588329 -0.25316516 -0.1220867 -0.105590135
library -0.038734376 0.01645788 -0.0010324817 -0.03841287 0.02397652 -0.31334856 0.035350133 0.33537588 -0.03881176 -0.06502009 0.08685325 -0.1741792 -0.055990636 0.08773514 0.038058236 -0.087394126 0.1167808 -0.13861218 0.028779048 -0.318431 0.06875344 0.04711939 0.08204084 -0.076747075 -0.09516847 0.03827607 -0.041000195 -0.09320584 -0.13167243 -0.035850786 0.15952672 0.04753353 0.11113435 -0.059360724 -0.06360029 0.13314995 0.019150665 -0.18985923 -0.0832104 -0.2493539 0.036862172 -0.20523922 0.025697561 -0.0010872254 0.08567965 -0.07661091 -0.06916955 -0.08601429 0.14871928 0.17768398 -0.020769585 -0.10586386 -0.009282567 0.10379188 -0.08048577 0.18021029 0.12978171 0.040316213 -0.066870786 0.07694851 0.08498411 0.03129615 0.06393166 -0.01869895 -0.22283047 0.18638599 0.007956499 0.13380103 -0.210532 0.12878174 -0.110392764 0.006895665 0.1363163 0.013525795 0.18741499 0.10778829 0.00983121 0.03417361 -0.2641602 0.093861856 -0.033384886 -0.014573218 -0.10404025 0.31893837 -0.026120244 0.12850007 0.006965721 0.16921638 0.10773207 0.021945179 0.20255895 0.06532149 0.0082978895 0.058169544 0.23262236 0.084042735 0.06828644 -0.14280169 -0.06384196 -0.058590215
