782 200
located -0.028420055 -0.008561888 -0.01791282 0.013661853 0.0017228577 2.7716613e-05 -0.014086286 -0.01988016 0.012446014 -0.02237661 0.007459307 -0.012573905 -0.03885009 0.005487 0.023275401 -0.002424409 -0.04446444 -0.014336788 0.030569347 0.0140938135 0.0073691155 0.0028863458 0.016453817 0.0070448853 0.011053735 0.03428853 0.02406823 -0.033761945 -0.0050454726 0.0023041442 0.027562564 0.007855203 0.045194376 -0.014422844 -0.023225384 -0.045806006 0.03628376 0.02567343 0.01579809 0.006086696 0.00044632153 0.0027818019 0.031554326 -0.015604091 0.037763778 -0.053671148 -0.028814532 -0.016874384 -0.017655762 0.003320747 0.039489962 0.022602916 0.029401902 -0.010998311 0.0074992985 -0.043046992 -0.027947104 -0.0044228756 -0.011956943 0.014201804 0.008101823 0.039322272 -0.0043253037 0.034551546 0.002624066 0.008934804 -0.012168466 0.012944085 -0.02804115 0.027816523 0.05097222 -0.018221738 -0.036025763 0.006853063 0.00672232 -0.008242136 0.011818814 -0.011534416 0.0059641143 0.015294892 0.03874694 6.8094814e-05 9.0748414e-05 -0.015858756 -0.023619523 -0.008677917 -0.026097646 -0.027282204 0.027326642 0.034872767 0.0024010912 -0.027821502 -0.014251398 -0.01072229 -0.026632452 0.004145249 0.016080847 -0.012718604 0.028449085 -0.00648065 -0.0013724884 -0.028718572 -0.00018699856 0.036547404 -0.009417285 0.017625501 -0.0003944623 0.015221212 -0.017840238 0.05982364 -0.019214751 0.004269656 0.028970655 0.013086414 0.040233366 0.008157594 -0.011821412 0.036185827 -0.002380977 0.022217555 0.037009384 0.039939404 0.03156046 0.015958924 0.02090187 -0.01925283 -0.00073380733 0.011746961 -0.019156799 -0.0039215153 0.0122477 0.014096574 -0.031113649 -0.008630794 -0.016196359 -0.0064233984 -0.01579038 0.03601648 0.0060082213 0.020823605 0.043393467 -0.020081487 0.022358535 0.010666642 0.03857906 0.025685513 0.007503268 -0.011104567 0.009248377 0.020771043 -0.023512695 -0.011077984 -0.015908731 -0.02434478 0.018428493 0.0021291217 -0.028827854 -0.030306749 -0.029921874 -0.008237382 -0.052748315 0.01791614 -0.0063129775 0.05216703 -0.04766051 -0.019046165 0.009318822 3.4249064e-05 0.01706361 0.026563233 0.010692417 -0.028139161 0.014742994 -0.0143017 -0.0060801194 0.007595633 -0.025621006 -0.0082756495 -0.009633651 -0.0049473015 0.006547438 0.02003722 0.021753496 -0.020032287 -0.035970703 0.017156234 0.027721688 -0.006256345 0.004316789 0.021508805 -0.0016479768 -0.021280572 -0.025005192 -0.015879786 -0.0101218475 -0.0028825023 -0.03851009 -0.0018791353 -0.0058771716 0.020318678
get -0.028393855 -0.007200687 -0.019857619 0.009466775 0.001960542 -0.0027096616 -0.013706696 -0.015994623 0.01360217 -0.020154256 0.0073874686 -0.011261087 -0.036905568 0.0047389828 0.023485601 0.0015162755 -0.04462457 -0.013514388 0.029644212 0.013900373 0.0063397363 0.0025655166 0.017081983 0.0052192127 0.0089853555 0.032108985 0.024369637 -0.033631645 -0.0010988041 0.0025059392 0.02535862 0.006791915 0.04558582 -0.01771355 -0.023536151 -0.045722917 0.03319706 0.026508667 0.01383437 0.0040932 0.0050587184 -0.0006414956 0.0343792 -0.015577111 0.04021394 -0.05444118 -0.023402357 -0.016570793 -0.015612868 0.0018933688 0.03905875 0.02172123 0.033727568 -0.008280689 0.011714959 -0.042744923 -0.025840541 -0.0015942785 -0.014422863 0.015597981 0.005899758 0.038656533 -0.005349756 0.033645958 0.0013278642 0.011854876 -0.010578513 0.010000997 -0.028129434 0.030622179 0.051322356 -0.019319143 -0.036754195 0.0042879083 0.009291736 -0.005476714 0.009968386 -0.012298768 0.008465011 0.0120449355 0.038351696 -0.0017286557 0.002809896 -0.013876667 -0.022060318 -0.009510484 -0.025408467 -0.029720219 0.025880136 0.035410177 -0.0007446168 -0.031113224 -0.018164942 -0.015121771 -0.026683463 0.0056598596 0.019666025 -0.014396352 0.028402869 -0.00349161 -0.006969119 -0.027112858 -0.0013524832 0.035148535 -0.010322857 0.018050848 -0.0029263985 0.016166428 -0.017906627 0.06319795 -0.020552494 0.008311948 0.030048613 0.0115296645 0.038033556 0.00812232 -0.016004177 0.035770975 -0.006123732 0.025539625 0.03476023 0.04144358 0.033931192 0.01585438 0.02367546 -0.01788329 -0.0033139898 0.012929912 -0.016450407 -0.005031767 0.016808417 0.01288296 -0.028597925 -0.008699005 -0.015212899 -0.0038109764 -0.01566632 0.03369984 0.004722974 0.020578953 0.045925055 -0.019711196 0.023323247 0.011472459 0.042740177 0.025631815 0.0056270733 -0.0114508 0.0051898635 0.021620633 -0.021469455 -0.009533216 -0.01670729 -0.023014402 0.02088481 0.0026608102 -0.027523903 -0.031625103 -0.030246774 -0.0069155707 -0.05458412 0.017441964 -0.008817245 0.052772164 -0.04861378 -0.020547984 0.01142164 0.0006175555 0.01934549 0.028295485 0.0136735495 -0.03290659 0.014886558 -0.016465329 -0.008334696 0.009553337 -0.02578337 -0.009717616 -0.012253457 -0.0047241007 0.004821169 0.018780528 0.02171843 -0.020928456 -0.03537664 0.019405337 0.029166857 -0.0047105947 0.001593613 0.022699008 -0.001267614 -0.023177305 -0.024908574 -0.019152509 -0.011141146 -0.0031527493 -0.039327588 0.0014098017 -0.010025673 0.017171022
find -0.020141602 -0.0028164696 -0.016098883 0.0069956505 0.0023576275 -0.0039124554 -0.01362667 -0.01591035 0.011656276 -0.016648022 0.007052364 -0.00927283 -0.030177185 0.0054860464 0.022131346 0.00056568306 -0.03221153 -0.014352693 0.026441375 0.009714532 0.008370084 0.0013487352 0.010308897 0.0064107226 0.0073415446 0.024961758 0.020396018 -0.030213404 -0.0034740895 0.0017689747 0.022915836 0.003835311 0.035480566 -0.0138653405 -0.021685947 -0.03437657 0.026714582 0.021050168 0.0134419 0.0051176897 0.0014136899 -0.0016210434 0.028279955 -0.011800842 0.033740923 -0.04070949 -0.02330097 -0.011627603 -0.012334775 0.004005548 0.029010331 0.015552913 0.023528062 -0.009669283 0.009247912 -0.034596495 -0.02384132 -0.000390003 -0.009791162 0.012125919 0.0038996555 0.02883472 -0.0013247856 0.028360264 0.0051217997 0.006294774 -0.008466383 0.008412566 -0.021056645 0.02618444 0.04269253 -0.016682066 -0.02878572 0.005616926 0.009276041 -0.003862124 0.007066332 -0.008963613 0.0043333042 0.012476953 0.031141117 -0.00089978444 0.0020204827 -0.011980096 -0.019714206 -0.0037357253 -0.02199782 -0.01969387 0.020762896 0.026096864 0.00012634703 -0.02333175 -0.013525243 -0.010991086 -0.019660454 0.0024617964 0.01244439 -0.009304827 0.022339767 -0.0048448783 -0.0026933935 -0.020234542 0.0016324141 0.029949587 -0.006762381 0.015834862 0.00065649353 0.009656662 -0.0119401375 0.050999805 -0.018267557 0.0069193044 0.022935983 0.008141522 0.03310989 0.003338286 -0.008878052 0.028995924 -0.0037507506 0.016614063 0.026784938 0.03270868 0.028417625 0.010225264 0.020405859 -0.0123190535 -0.0021371294 0.0073144324 -0.01646293 -0.0017456956 0.009081602 0.011553351 -0.021748908 -0.007543482 -0.015755234 -0.0070022233 -0.012720584 0.024585988 0.0043820054 0.015391958 0.03670422 -0.012202569 0.019681755 0.010916903 0.034748357 0.02106881 0.0058825514 -0.005225988 0.003863667 0.019065581 -0.019274645 -0.0055362997 -0.012024462 -0.018802604 0.016437404 0.0049628657 -0.022147648 -0.022352172 -0.021410562 -0.006092526 -0.040672515 0.01064103 -0.0046127182 0.040929213 -0.038383022 -0.016880032 0.006232619 1.7789684e-05 0.015917309 0.02078208 0.011532761 -0.026742153 0.012810938 -0.010367781 -0.0054129115 0.0070971283 -0.021278093 -0.006406397 -0.009798495 -0.0067914026 0.006228553 0.016852766 0.014313549 -0.017568003 -0.029492907 0.013753402 0.019045426 -0.004115997 0.001699528 0.017166508 0.00039087463 -0.017570976 -0.017806787 -0.014973687 -0.0062395106 -0.0031040441 -0.032118656 -0.0016768603 -0.006202728 0.013405795
pass -0.02112779 -0.0057960316 -0.011776282 0.0059124697 0.002403044 -0.0036770778 -0.012248338 -0.01243045 0.006583643 -0.014242754 0.0058197984 -0.0071339477 -0.027746024 0.004719975 0.017450955 -0.0012766815 -0.029074859 -0.011748305 0.019991677 0.009869209 0.003967895 -0.0014935235 0.009606527 0.006103791 0.007861702 0.026059318 0.020941805 -0.02520335 -0.0017939572 0.00076224934 0.020224553 0.0055693444 0.03146057 -0.013035987 -0.019535234 -0.028924435 0.025930993 0.020386724 0.011751901 0.002449433 0.00053006347 -0.00071392115 0.023653768 -0.010691599 0.028799884 -0.037337348 -0.016277041 -0.008040779 -0.014093201 0.0014066643 0.027837971 0.0164706 0.023465574 -0.0081116045 0.009675117 -0.02844443 -0.020560335 -0.0032753863 -0.012197339 0.012433852 0.0023358501 0.029958254 -0.0005804786 0.023223875 0.0012662703 0.0064104195 -0.0061409026 0.005903416 -0.020502223 0.021696517 0.03557979 -0.012741559 -0.027371071 0.0037631865 0.007755781 -0.005687992 0.007635226 -0.011305436 0.0034481168 0.009268833 0.0269167 -0.0026690364 -0.0013391688 -0.011365223 -0.017486922 -0.0026567224 -0.017533053 -0.019797446 0.01782714 0.028152414 -0.0011209571 -0.023044689 -0.01375113 -0.011344058 -0.017141001 0.0015087271 0.014117643 -0.008411124 0.017662842 -0.0028040246 -0.0049647405 -0.017668022 -0.0002764545 0.026444726 -0.0062061064 0.015731875 0.0016247575 0.0109952595 -0.0136850355 0.04446873 -0.015148381 0.0055680024 0.021183662 0.010591988 0.030731484 0.0054972554 -0.010502694 0.021691315 -0.0017264367 0.01856756 0.02766173 0.029269174 0.02389173 0.011395803 0.017808914 -0.014363767 -0.0030206533 0.0093693435 -0.01201083 -0.0030489708 0.008422167 0.01025707 -0.02088363 -0.0040887226 -0.011086883 -0.006206982 -0.011273352 0.026412707 0.0036223875 0.015189447 0.0317361 -0.012966686 0.019027386 0.007131473 0.027715923 0.015412039 0.006763268 -0.0071094125 0.006381634 0.017444788 -0.017211083 -0.008439906 -0.01062324 -0.014446687 0.014038003 0.004973204 -0.020795789 -0.020804012 -0.022797711 -0.004493922 -0.04099231 0.011197053 -0.0043834224 0.034193393 -0.036689363 -0.012404373 0.005717574 4.881618e-06 0.015422656 0.017981244 0.008642321 -0.024271594 0.010651393 -0.012442699 -0.0039814007 0.0068343086 -0.018106826 -0.0065721516 -0.008840199 -0.006294488 0.001381673 0.016697926 0.015115493 -0.012864183 -0.026029378 0.014551711 0.017739402 -0.0055842 0.003080679 0.018013444 0.0006862597 -0.015133073 -0.01761624 -0.0105703175 -0.0045973165 -0.0047173104 -0.029213563 -0.0011095513 -0.0042941095 0.015127657
building -0.02588589 -0.0077880393 -0.01966855 0.007117694 0.0020883693 -0.0012819902 -0.015582357 -0.014927428 0.007511955 -0.020270836 0.009666389 -0.014648091 -0.03252978 0.006662376 0.024996866 -0.0017059866 -0.037793983 -0.014338203 0.025647633 0.010846312 0.0072640083 0.0010202733 0.0153175965 0.003280739 0.008119128 0.031083519 0.021719456 -0.034508955 -0.0030412693 0.0047362503 0.024626639 0.0037623665 0.041381005 -0.015878601 -0.019869039 -0.039222542 0.03266339 0.024171885 0.01500277 0.0039691227 0.0014400451 0.0014903753 0.02952728 -0.014622047 0.034879226 -0.04946056 -0.023764353 -0.011624899 -0.017302832 0.00023303158 0.036608074 0.01678377 0.029453965 -0.011915143 0.0091675315 -0.037451945 -0.022361446 -0.0017813591 -0.011805043 0.01459606 0.002172799 0.034277834 -0.0030586799 0.029144662 0.0058672824 0.010244151 -0.009731806 0.01203237 -0.023220973 0.027413514 0.048458908 -0.015012468 -0.0321588 0.0028229977 0.009266076 -0.007462232 0.008778219 -0.012917661 0.0051508006 0.015019158 0.03470097 -0.0022425551 0.0029742701 -0.013594936 -0.017298039 -0.009763654 -0.026503187 -0.024835424 0.02411538 0.031438284 -0.001460397 -0.026920397 -0.01663034 -0.008399372 -0.022138903 0.008211516 0.015466274 -0.010692917 0.025807224 -0.005095928 -0.0037918962 -0.026637122 0.0008041405 0.033546362 -0.0081554875 0.014437082 0.0015468774 0.012041718 -0.011997783 0.057713185 -0.016797034 0.003868361 0.025918255 0.012660526 0.03694737 0.007564694 -0.013308017 0.032660235 -0.0051884246 0.024541454 0.033239648 0.033419497 0.03193673 0.013375645 0.02178453 -0.016170103 -0.0008722912 0.0086231 -0.018937083 -0.001698439 0.010215708 0.014297587 -0.02843346 -0.004391399 -0.018227374 -0.0021227656 -0.0147079695 0.029491654 0.0073860423 0.019833077 0.04236182 -0.017834548 0.02008871 0.012382755 0.03999862 0.020916495 0.0072725858 -0.008737288 0.004454822 0.02212267 -0.021363458 -0.009053885 -0.013806381 -0.019670764 0.019783715 0.004274815 -0.024248855 -0.023707375 -0.022872802 -0.0064524473 -0.050647553 0.0144501105 -0.003808977 0.047482125 -0.044395898 -0.019949993 0.012186329 0.001318517 0.017088272 0.025308404 0.011976657 -0.027822414 0.010312439 -0.015430499 -0.005759709 0.008086786 -0.020321948 -0.008255199 -0.0076835533 -0.0021628807 0.0021021115 0.018923815 0.016569193 -0.017028892 -0.032497186 0.01954741 0.025323926 -0.002109798 0.00053291395 0.023570424 -0.0026364143 -0.022304451 -0.024616677 -0.012736697 -0.005193609 -0.005360017 -0.032448612 0.002793092 -0.0046575386 0.01795464
dean's office -0.015248656 -0.0038995177 -0.008251547 0.0052436767 -0.001379363 0.0015992621 -0.006062322 -0.008435889 0.00753456 -0.009970663 0.0066348887 -0.008534825 -0.021667168 0.0012797456 0.011505444 -0.0007411697 -0.023561763 -0.0103660375 0.017513694 0.00618487 0.006380194 0.00030395426 0.011849798 0.0011718856 0.002820025 0.019024719 0.011775872 -0.017187506 0.0001711267 0.00055114995 0.016184557 0.005787388 0.026213765 -0.011197222 -0.016496846 -0.027397117 0.020374602 0.014876171 0.009464461 0.0017287218 0.003721135 -0.0002780342 0.02198555 -0.005718076 0.023541683 -0.027593017 -0.014276791 -0.0095139425 -0.007418298 -0.0014114565 0.01959261 0.011898553 0.017790625 -0.005888757 0.004142661 -0.02510299 -0.017151557 -0.0018928838 -0.006399633 0.006599744 0.003075278 0.022062842 -0.0032791211 0.02084327 0.0031153224 0.0050020595 -0.00813398 0.0056939465 -0.01862957 0.018471325 0.03100558 -0.00856433 -0.017061884 0.001951338 0.005055799 -0.005279414 0.008106957 -0.0072934185 0.0015601801 0.0076842494 0.019794451 0.0005417302 0.0029204993 -0.011019999 -0.014401444 -0.005127227 -0.013957896 -0.017505616 0.015077044 0.021696586 0.00095508125 -0.013795161 -0.009164896 -0.007470258 -0.014623666 0.0043471814 0.010199505 -0.0065838983 0.011985169 -3.6686633e-05 -0.0046487013 -0.015158119 -0.0024193418 0.021094905 -0.0039591687 0.010310763 -0.0021380985 0.006514589 -0.009428354 0.03506147 -0.01430728 0.0032028651 0.015929068 0.008457422 0.022319917 0.0034351877 -0.0058829905 0.019581247 -0.0023814617 0.013495271 0.018391704 0.019442435 0.020644782 0.008305581 0.01499334 -0.00964017 -0.0027766663 0.006448141 -0.011734515 0.0004402136 0.00950398 0.0097771445 -0.015052441 -0.0047351844 -0.009667017 -0.0015668311 -0.006792912 0.017090559 0.002893279 0.007856946 0.027501728 -0.007718008 0.016004805 0.008856638 0.02099852 0.0121697225 0.0010176654 -0.0034916005 0.005026049 0.013397941 -0.011666022 -0.0056465426 -0.009410161 -0.012015343 0.012280106 0.0035855123 -0.014002065 -0.019799799 -0.014856488 -0.003853308 -0.031682916 0.011475521 -0.00228676 0.030726258 -0.029532956 -0.012996626 0.0036756163 -0.00024674486 0.011268808 0.015926339 0.0090537155 -0.019354604 0.005141639 -0.010074979 -0.0055424874 0.0064283437 -0.014596611 -0.0024349112 -0.006964295 -0.001386421 0.00017975578 0.0112994155 0.013229136 -0.0120823225 -0.021051891 0.012948067 0.014417318 -0.0037294154 0.0016044627 0.014891671 1.2776581e-05 -0.013402613 -0.014962603 -0.009545768 -0.0047107353 -0.00062775053 -0.024998216 -0.0021268486 -0.006537968 0.012386916
institute automation -0.006423914 -0.0013260398 -0.006455569 0.0026671984 -0.0026831843 -0.0036066987 -0.0048652617 -0.0045618513 0.0001233436 -0.005048391 0.002129729 -0.003655997 -0.0117345285 0.0042333724 0.0076863584 0.001150924 -0.011061068 -0.0049598734 0.008685628 0.001555619 0.0042413305 0.0003688009 0.0022704722 0.003434288 -0.00072842796 0.008598898 0.008592382 -0.009880656 0.002303916 0.003006646 0.0036915226 0.0019846621 0.012932614 -0.0060580173 -0.007023118 -0.012790437 0.010357902 0.0046937177 0.0047752145 0.001796518 0.0012432947 -6.9468515e-05 0.0070033814 -0.0042349785 0.0077366102 -0.014274348 -0.00816177 -0.0015922451 -0.0041914107 -0.00115139 0.0077407802 0.0019985654 0.009586288 -0.0012647135 0.0014079417 -0.008900911 -0.008525759 0.0008326729 -0.00027726256 0.001300236 0.0017167121 0.008965249 -0.0005354064 0.0056876424 -0.0023409203 0.0054199644 -0.005380509 0.0017426084 -0.006306139 0.009509417 0.014878597 -0.006113284 -0.008814134 0.00019393768 0.0008734159 0.0017727701 0.00065236905 -0.0013337545 0.0011290015 0.0055499524 0.0078093014 0.002508555 0.0002380591 -0.004711046 -0.00305064 0.0010693028 -0.0029081968 -0.004405736 0.00866675 0.010825681 -0.00061181164 -0.006979103 -0.0038670509 -0.0006577013 -0.008428329 0.0023601353 0.0049539437 -0.0049247877 0.008011978 -0.0015440604 -0.0037893376 -0.008324915 0.0002494471 0.011432788 -0.001204507 0.006294822 -0.0024846082 0.0036663725 -0.0055932105 0.014331824 -0.003026243 0.00030972838 0.0066513983 0.0049306066 0.010750238 0.003961538 -0.0053997715 0.0061262855 -0.0023560831 0.006185038 0.010797007 0.009954899 0.008961678 0.0035272213 0.0059723393 -0.007168677 -4.663199e-05 0.0009327496 -0.0057367575 -0.0037340606 0.0057367254 0.002029941 -0.004881275 -0.0018589139 -0.007170009 -0.0012853579 -0.0020988141 0.010780415 0.004377438 0.0037548097 0.0123653645 -0.002365342 0.004762419 0.002509818 0.010912369 0.005993671 0.0048434953 -0.0010756673 0.0007721584 0.0028381434 -0.008131703 -0.002403586 -0.0040762154 -0.004574218 0.0061680484 -0.0015095051 -0.0056563206 -0.00906064 -0.0072682 -0.0030998818 -0.015554065 0.0055899713 0.00087296584 0.0123760905 -0.011848347 -0.0018390684 0.0030567679 0.0025393448 0.006954527 0.0028595114 0.0037454155 -0.010353507 0.00623086 -0.000546967 0.00011106989 0.0007909412 -0.0034360953 -0.0009799486 -0.0033093842 0.00035392793 0.0033515848 0.0069287634 0.007891259 -0.002357692 -0.0060329144 0.005454497 0.00772537 0.0006060341 0.0011442037 0.004276914 0.001699223 -0.0059041074 -0.0071902084 -0.0044588647 0.0010816073 0.0014446275 -0.009834467 -0.002497425 -0.0018484949 0.006622848
take -0.02255257 -0.0053695976 -0.015948169 0.01081616 0.0021278213 -0.0032503651 -0.014441736 -0.015309137 0.011603653 -0.016298715 0.003626044 -0.009506132 -0.02796201 0.0060190274 0.019292472 0.0011246442 -0.033425037 -0.011027041 0.026818737 0.010294125 0.006016022 0.0014461583 0.011884608 0.007079245 0.0054808664 0.028206604 0.021740215 -0.03004602 -0.0036577054 0.0012757007 0.02157412 0.0025303331 0.036607187 -0.011294032 -0.02003903 -0.036636006 0.02797674 0.019947963 0.010485311 0.0029664324 0.0045992024 0.0036160147 0.028817013 -0.010971472 0.033076983 -0.04181957 -0.02021887 -0.0134997945 -0.01346723 0.004717488 0.03188494 0.01698226 0.028178427 -0.009641312 0.0075616743 -0.033173684 -0.023781082 -0.0015148009 -0.013480908 0.011405616 0.0029530192 0.030850813 -0.0032720256 0.027573815 0.0039852792 0.008474257 -0.010374785 0.011044282 -0.021763364 0.02590703 0.039501585 -0.012091677 -0.026790582 0.006886889 0.006696666 -0.0060044276 0.010881207 -0.0076611866 0.0057978155 0.00858975 0.028078528 0.00028249988 7.5577495e-06 -0.013224793 -0.017762372 -0.0035914378 -0.020837178 -0.021330174 0.022618717 0.028887674 0.00064669136 -0.02582308 -0.0154826855 -0.010398074 -0.017820291 0.0024676614 0.013294745 -0.011946382 0.019055583 -0.0018236722 -0.0044907923 -0.019931072 0.0013308887 0.026238985 -0.0080891475 0.012921242 -0.0025022295 0.01152787 -0.010616348 0.049108714 -0.018827777 0.008084476 0.021194395 0.008474928 0.029865686 0.00451533 -0.013240932 0.02598328 -0.0014501669 0.020842055 0.029417217 0.029474735 0.027494216 0.013540593 0.017556027 -0.016472476 -0.0039551044 0.012216712 -0.0139465 -0.0047812327 0.009834443 0.010509513 -0.020702938 -0.004262959 -0.01207898 -0.0031710486 -0.014812976 0.025053283 0.0061113206 0.014669635 0.03445015 -0.013208374 0.019892965 0.010982415 0.03545048 0.018940408 0.002259529 -0.006891826 0.003262255 0.015411084 -0.019429343 -0.008632465 -0.009392855 -0.018829783 0.016511546 0.0030082734 -0.018931232 -0.026010254 -0.022789842 -0.004871396 -0.04446621 0.013852629 -0.0062954663 0.040671747 -0.039480135 -0.016622275 0.007108937 0.002591583 0.016507786 0.021446822 0.01081693 -0.02463885 0.011626842 -0.012371967 -0.004495424 0.007090107 -0.02226414 -0.0080768075 -0.006198392 -0.006727735 0.0042320807 0.018718187 0.019081853 -0.013227606 -0.025469648 0.015034472 0.022540225 -0.0039966735 0.0015901523 0.01945672 0.0015172679 -0.017860513 -0.018580107 -0.012989992 -0.004442473 -0.0059722033 -0.030171223 -3.7912097e-05 -0.004986632 0.016170181
unearth -0.016302066 -0.0036025029 -0.010981756 0.008143069 0.002330928 0.0009536811 -0.0067889825 -0.007007735 0.008099058 -0.00954919 0.006046806 -0.008284416 -0.020815121 0.0033036328 0.011889169 -0.0013661791 -0.023503441 -0.0069943694 0.018548355 0.008205778 0.0062903785 -0.0019404561 0.008164155 0.0012000091 0.007066756 0.019493861 0.015673965 -0.017691778 -0.0020091105 0.0013706932 0.012138271 0.0036093448 0.02423751 -0.0064069517 -0.012262356 -0.023620889 0.015420707 0.013692712 0.0098979315 0.0046887733 0.0009717303 0.0024794019 0.015905648 -0.007880755 0.020179177 -0.026450824 -0.015966946 -0.0062386314 -0.008613395 -0.0011495358 0.021762569 0.010950632 0.017495831 -0.005158555 0.0060893637 -0.02277536 -0.013062897 0.0012666746 -0.0066640815 0.008522963 0.0053933654 0.023402803 -0.004403143 0.019553674 -0.00054958416 0.0068009957 -0.0041409475 0.004485734 -0.014566318 0.018044638 0.02930903 -0.009590414 -0.017905774 0.005572048 0.0023841986 -0.004762779 0.004138643 -0.008799914 0.004209129 0.0062158857 0.01815052 0.0008935815 0.0005126901 -0.009897893 -0.010779601 -0.005783687 -0.014502222 -0.013119571 0.015199468 0.020050537 -0.0014258618 -0.015082145 -0.010413346 -0.008851133 -0.013285143 0.0037695805 0.010073451 -0.0060902643 0.012078601 -0.0013094319 5.060502e-05 -0.012464114 -0.0005776003 0.018135158 -0.0021343185 0.011711313 0.00077584485 0.009136597 -0.007957522 0.033207882 -0.013159936 0.003051124 0.012954536 0.004150602 0.020442747 0.005888645 -0.0046389443 0.020089952 -0.002246666 0.0131807225 0.017821819 0.022682808 0.019509733 0.00827138 0.011115423 -0.008094516 -0.00043887112 0.008029713 -0.007832298 -0.0042809094 0.008650999 0.0061433916 -0.015282903 -0.0033160427 -0.010229651 -0.0014996547 -0.0058811205 0.017806033 0.0048279315 0.0085981535 0.025019914 -0.011422741 0.011358825 0.006304356 0.020792626 0.014350307 0.0020037643 -0.003818279 0.0030293332 0.010926742 -0.013528013 -0.0027074502 -0.009616499 -0.012841836 0.013074431 0.0034257818 -0.015404226 -0.0178971 -0.016462913 -0.004746251 -0.030362114 0.010224276 -0.0043902164 0.024582135 -0.027475758 -0.009070424 0.0041390914 0.0022387207 0.010718346 0.015662305 0.008682689 -0.015985852 0.008604184 -0.007613488 -0.0018754087 0.0028472876 -0.014184886 -0.005537341 -0.007539849 -0.0051508774 0.00235053 0.009071567 0.012965299 -0.01030978 -0.020800104 0.011621095 0.015662646 -0.004566622 0.0004969259 0.013147623 0.000103356404 -0.014504015 -0.014350307 -0.010916338 -0.0069626383 -0.00024562344 -0.02194236 -0.00062626513 -0.006523269 0.007240106
university -0.033176534 -0.007817304 -0.018958129 0.015001851 0.0028618732 -0.0027203436 -0.015885321 -0.018875033 0.012326784 -0.0257397 0.009355571 -0.011817302 -0.04083799 0.006935171 0.02922342 0.00066543266 -0.050082486 -0.019753667 0.03396777 0.015974907 0.008779039 0.0018505183 0.019125367 0.0054311077 0.008891043 0.036301795 0.027410358 -0.03776239 -0.0030990122 0.0046139616 0.032064352 0.007074913 0.052426223 -0.020603934 -0.027706696 -0.048769735 0.04039248 0.028162485 0.01794777 0.0046303705 0.0057041575 -0.0004205915 0.038001582 -0.015597088 0.04828988 -0.058748614 -0.028673911 -0.015879434 -0.016327288 0.0010502887 0.04428536 0.023373665 0.039727837 -0.013754561 0.01136741 -0.047602337 -0.03262473 -0.002451209 -0.017229503 0.016565546 0.008253335 0.04517866 -0.0033457915 0.0393177 0.0025534823 0.013836159 -0.012334196 0.013323506 -0.03178949 0.035020348 0.06026712 -0.019654667 -0.037379194 0.0047906777 0.008366004 -0.006043632 0.012569629 -0.01531733 0.009136865 0.015617127 0.042702742 8.617376e-05 0.001474227 -0.01703629 -0.026204282 -0.0065648416 -0.027554026 -0.03395744 0.028674653 0.038315218 -0.001725879 -0.035607982 -0.018471548 -0.012797342 -0.02859614 0.0068989974 0.022601163 -0.014599318 0.030633783 -0.0073888022 -0.0049230102 -0.032216366 -0.00170359 0.037327595 -0.0071066963 0.023515655 -0.0009293566 0.0138612315 -0.017121775 0.07174257 -0.026175244 0.008721093 0.030177262 0.012142592 0.04392961 0.009363143 -0.016200803 0.03736273 -0.007061684 0.02566406 0.0424393 0.04380637 0.037160598 0.013678082 0.028482597 -0.020533072 -0.0011110086 0.016598837 -0.02011162 -0.0060608485 0.017951699 0.015755551 -0.03225012 -0.0063116597 -0.018648325 -0.008934033 -0.018651713 0.039977547 0.004379219 0.02329599 0.049511254 -0.01817614 0.027992103 0.013606254 0.045604017 0.027788712 0.003985524 -0.012293969 0.0057741385 0.024731318 -0.027498158 -0.007701716 -0.017302545 -0.023906346 0.024652427 0.0067787333 -0.029396279 -0.034845836 -0.02968268 -0.009581351 -0.05876832 0.019568378 -0.005881323 0.059378907 -0.05547931 -0.02264424 0.012682617 0.0012526122 0.023060028 0.02821247 0.012511922 -0.03159232 0.014458148 -0.015793206 -0.0068022883 0.008423391 -0.027594924 -0.008575818 -0.012721947 -0.008639905 0.0033748439 0.024036607 0.02336435 -0.020744236 -0.038593832 0.02301875 0.027591355 -0.00636993 0.004822748 0.02802662 -0.00025488448 -0.026404876 -0.027802998 -0.019538129 -0.007944062 -0.005996711 -0.045115262 -0.0004514575 -0.010898315 0.019868819
hostel -0.017064577 -0.002452822 -0.00828204 0.0060429233 0.0022317409 -0.0014323982 -0.00987681 -0.010908447 0.007320526 -0.011512409 0.0020626315 -0.007019675 -0.022903012 0.005588746 0.011892405 -0.0019120689 -0.023889955 -0.006240537 0.017101912 0.007440607 0.002306978 -0.0017050197 0.010232896 0.0016479678 0.008033999 0.01869175 0.015600321 -0.0209691 0.00040298828 0.0011667319 0.016853876 0.00088829774 0.02737895 -0.009522976 -0.015780138 -0.024276827 0.020402955 0.015433745 0.007741704 0.00015937563 0.003057323 0.002784592 0.02162617 -0.008927774 0.024329195 -0.027551465 -0.0144669125 -0.009476816 -0.009097814 0.00018589439 0.022644334 0.009499108 0.019968385 -0.0053652506 0.003997877 -0.023530187 -0.014109829 -0.0004898338 -0.007528087 0.010386919 0.0050006197 0.019803008 -0.0037573597 0.021417018 0.00457501 0.005895307 -0.009122429 0.008014326 -0.018446354 0.017867012 0.027140612 -0.0082605835 -0.021688383 0.0011502655 0.005417346 -0.0038318974 0.0055940496 -0.008458976 0.0007551102 0.009106103 0.02278161 -0.0021541521 -0.00014821065 -0.0071917516 -0.0100976415 -0.0024664544 -0.015614961 -0.015163891 0.014914963 0.020502638 0.0014368194 -0.017033895 -0.010334205 -0.0063784644 -0.015863169 0.002262042 0.010764153 -0.009313116 0.016934695 -0.001990603 -0.0005441713 -0.014369619 -0.0004899724 0.022143379 -0.0066644796 0.010048989 0.0018954944 0.00964672 -0.008031645 0.036649212 -0.009835834 0.002396588 0.015361771 0.004940551 0.022015251 0.001766571 -0.010060427 0.018080091 -0.0013930004 0.013009105 0.021539396 0.024087317 0.017038815 0.008264359 0.013965711 -0.009000549 0.0003477269 0.0050913463 -0.01217346 -0.004217035 0.009196563 0.009889326 -0.017316537 -0.0027609891 -0.00885683 -0.005597634 -0.009750551 0.017488463 0.00053576054 0.011298475 0.024381507 -0.008670421 0.010419055 0.007739587 0.02397817 0.0148877995 0.004882969 -0.004275274 0.0016568046 0.014750337 -0.012116944 -0.0063382485 -0.006114084 -0.0135844005 0.009635188 0.0046429704 -0.015019078 -0.01849173 -0.017513813 -0.0032506855 -0.030290084 0.007781011 -0.0042001274 0.029793715 -0.026416652 -0.012368761 0.0037734248 -0.0017981989 0.011899926 0.015935779 0.0072478275 -0.014940825 0.00843242 -0.005603934 -0.0045791427 0.002844626 -0.0151908295 -0.0070956973 -0.0052042655 -0.0052855304 0.0010098206 0.009327348 0.010682972 -0.008331696 -0.020853996 0.010269329 0.016036598 -0.0047016153 0.0024447443 0.012779351 -0.0021303645 -0.010031545 -0.01164004 -0.009976395 -0.0025245955 -0.0008556745 -0.020066312 7.913322e-05 -0.0045888177 0.011278587
building new -0.01711573 -0.003471591 -0.012897403 0.0040717795 0.0018225946 -0.0028366023 -0.0060838712 -0.011039023 0.0066966657 -0.010068499 0.0030310387 -0.006543368 -0.02235957 0.005529337 0.0151523845 0.0017201399 -0.0229502 -0.010406333 0.01576842 0.008523191 0.0037394504 -0.00067399495 0.008824767 0.005326196 0.005273679 0.017959137 0.015968727 -0.023603436 -0.003430184 0.00094442844 0.01773751 0.006301753 0.027441625 -0.0075184647 -0.014415131 -0.026661662 0.017526679 0.013599463 0.0077568293 0.001384935 0.0016539294 -0.002153726 0.02124531 -0.01078111 0.023510894 -0.029529484 -0.016792404 -0.0060772654 -0.00899749 0.0021512643 0.02431597 0.012021787 0.015396692 -0.006621826 0.0044284323 -0.022858858 -0.017566353 -0.0020857772 -0.0065376004 0.0069545372 0.0022814972 0.024234932 -0.0031719678 0.018081442 0.0011828948 0.0032371175 -0.009447174 0.0048009693 -0.016535752 0.0150988195 0.027865646 -0.0067414455 -0.01840971 0.0048693814 0.0057224105 -0.0010382361 0.007522261 -0.0056659984 0.005258183 0.0059013497 0.022150867 -0.00025016078 0.00025587992 -0.007776787 -0.014512656 -0.0061243786 -0.013300055 -0.017090775 0.018133752 0.017717768 0.0016780703 -0.015269805 -0.007492147 -0.010128849 -0.01681915 0.00479294 0.007850911 -0.0065014 0.016534943 -0.0042717666 -0.002368107 -0.013770676 -0.00048275388 0.018171513 -0.0069884136 0.008035218 -0.003180327 0.00963228 -0.008282231 0.0376145 -0.013015885 0.0041632815 0.018876731 0.0078619085 0.020930972 0.0029532404 -0.0060893665 0.02191648 -0.002319105 0.012495286 0.020970495 0.023565162 0.021627583 0.007445084 0.0136144 -0.011594066 -0.0024878248 0.0045284135 -0.011348026 -0.0016731336 0.01010846 0.0059889425 -0.017878037 -0.0060392893 -0.008270236 -0.005783159 -0.0075232093 0.020021657 0.0050739683 0.012418068 0.026173478 -0.012708138 0.0160429 0.0053428947 0.022724748 0.010935956 0.0011663892 -0.006850739 0.0024906725 0.010823806 -0.010644742 -0.0034850368 -0.010711276 -0.014941571 0.0130855935 0.0025902654 -0.01315107 -0.01593378 -0.015596114 -0.0036935788 -0.028632479 0.008949638 -0.0021762566 0.03207363 -0.02902172 -0.0099497605 0.008350216 0.002260932 0.009047215 0.017702928 0.008832965 -0.019992536 0.008718803 -0.007585006 -0.0053546955 0.003233167 -0.013603965 -0.0059036105 -0.005533804 -0.002083259 0.00082500436 0.013554386 0.010643934 -0.011222849 -0.023078332 0.012239708 0.015965074 -0.003180936 0.004118903 0.01389689 0.0006955996 -0.012959281 -0.014424858 -0.011223301 -0.008427734 -0.0011883626 -0.022337705 0.00015167144 -0.0019944592 0.011370542
order -0.018716982 -0.0058979043 -0.011579719 0.010342502 0.0016122281 0.00068768417 -0.008043278 -0.012766915 0.007294197 -0.015826104 0.0024856245 -0.010283567 -0.024069412 0.006489898 0.018150842 -0.0012368876 -0.030189224 -0.008923618 0.020496923 0.006505052 0.007410235 -0.0018975573 0.010607633 0.006357344 0.006203594 0.02401508 0.015523475 -0.023203956 -0.0030575586 -0.00061226974 0.019594664 0.0022009509 0.034063727 -0.010911518 -0.019245174 -0.030851576 0.025233015 0.019922514 0.010242652 0.002261615 3.2182943e-05 0.003765425 0.026829306 -0.0087179905 0.029503155 -0.036717508 -0.01771684 -0.008841968 -0.00963155 0.002690794 0.024548884 0.012939652 0.021317074 -0.008042419 0.007435403 -0.029811777 -0.018840056 -0.0037000761 -0.00833331 0.010075519 0.0039191735 0.028856482 -0.0026537492 0.020646803 0.003276639 0.009440786 -0.010422121 0.008344049 -0.019874148 0.021400431 0.03784455 -0.01514619 -0.023361497 0.0035618076 0.0054723015 -0.003366613 0.008189736 -0.007083338 0.00312863 0.0072882185 0.02455861 0.0009336548 0.001576201 -0.009320837 -0.016839895 -0.0037113768 -0.015603685 -0.01672978 0.01722392 0.022292348 0.0020748402 -0.021939633 -0.009456804 -0.011115656 -0.01763194 0.002181123 0.010135853 -0.009065142 0.01740902 -0.0031327796 -0.0058553857 -0.019404192 -0.0020609682 0.02207566 -0.0043126713 0.01149978 0.0022087148 0.009997182 -0.01281111 0.04377846 -0.015045679 0.0038112907 0.018712968 0.0072787437 0.025875283 0.0028847237 -0.0066621606 0.021512028 -0.0051911906 0.015296775 0.02619614 0.029890887 0.0218706 0.012243688 0.013967464 -0.013060769 -0.0020753066 0.008099524 -0.013081168 -0.002907562 0.009634833 0.0066271056 -0.021832462 -0.002417457 -0.011579344 -0.0038948816 -0.012282959 0.024469662 0.0026010883 0.011308322 0.030162951 -0.014496814 0.014490424 0.009017394 0.027727198 0.019487413 0.0041252193 -0.0064606406 0.00217135 0.014170381 -0.015563856 -0.0042988746 -0.00856963 -0.01705848 0.014748818 0.0022834393 -0.017341137 -0.020590117 -0.01996659 -0.0056866026 -0.037680175 0.011666328 -0.0036882188 0.036416747 -0.032934293 -0.01075146 0.0069349287 0.00090946595 0.013030043 0.018566374 0.007017888 -0.01943504 0.007603256 -0.008749181 -0.0020646777 0.0034330431 -0.018064288 -0.0040529366 -0.0051987306 -0.006159904 0.0050817714 0.015466817 0.015899384 -0.01388337 -0.025030818 0.012770704 0.02148094 -0.0028372023 0.0047072945 0.016015643 -0.00028897612 -0.01718561 -0.014707943 -0.011109869 -0.0045208186 -0.005004475 -0.025902132 -0.00094569765 -0.0056662424 0.013245621
discover -0.015982015 -0.0009091815 -0.010321455 0.007257313 -0.00052564766 0.00018759222 -0.010305989 -0.011862885 0.00794008 -0.0134793 0.002585483 -0.00622517 -0.022922307 0.0035764014 0.015389118 -0.0022386997 -0.023936596 -0.007877902 0.016620796 0.008464486 0.0031799558 -0.00093756564 0.0072587025 0.004797585 0.005121412 0.017545473 0.015840478 -0.01709574 -0.0011523972 0.0019183786 0.014186735 0.002670729 0.02428485 -0.0069463337 -0.013914312 -0.025317842 0.020070108 0.012409484 0.009685465 0.003464675 -0.00039590723 0.00089746446 0.018566418 -0.0066128825 0.023831388 -0.026434554 -0.015253361 -0.01036197 -0.010850496 -0.0011982593 0.019101014 0.008308279 0.018357702 -0.003426938 0.0059310957 -0.02372466 -0.012822094 -0.0028844995 -0.007886745 0.007183012 0.0031401608 0.023540718 -0.00018745573 0.016616458 0.00062055764 0.0073141516 -0.005924593 0.003926036 -0.01287489 0.016958954 0.03093418 -0.012489834 -0.021490362 0.0018314682 0.007289714 -0.0010784427 0.0037683914 -0.0053678886 0.0036891988 0.008705323 0.019988561 -0.0024503386 0.0006004805 -0.00730654 -0.01173661 -0.0022512658 -0.014309685 -0.014201913 0.01184348 0.020676494 0.0008970522 -0.015778419 -0.008244456 -0.009598824 -0.01606614 0.0038560082 0.009627431 -0.0054140165 0.01225156 -0.00019006724 -0.0031454794 -0.014004779 -0.0015554107 0.017367471 -0.0052828076 0.011336983 -0.0008415231 0.007391391 -0.008260136 0.034428123 -0.013500969 0.005521547 0.017047858 0.009031981 0.02286247 0.006077457 -0.008828355 0.019734168 -0.0028012707 0.015081858 0.019956704 0.020247748 0.018107824 0.006257586 0.013654396 -0.010422328 -0.00024651163 0.006108574 -0.011643342 0.00029928584 0.010303538 0.005634066 -0.01771153 -0.0031890436 -0.010323135 -0.00504059 -0.008175523 0.020206882 0.0005613179 0.013079647 0.0264994 -0.007779566 0.015167529 0.009112783 0.02097571 0.012546213 0.00579426 -0.004130929 0.0016155147 0.011427103 -0.012031559 -0.0038300925 -0.008092047 -0.013745006 0.009834638 0.0028096673 -0.01330134 -0.017454594 -0.016689569 -0.0008834607 -0.028038474 0.007100302 -0.0026202905 0.028364582 -0.027659394 -0.012916895 0.0060653538 0.001775565 0.007770514 0.013074212 0.006738136 -0.015707968 0.009163226 -0.008762033 -0.0062725153 0.0040999097 -0.013487213 -0.003963019 -0.004764183 -0.0028360623 0.0050417697 0.010496278 0.012783225 -0.008028774 -0.018340055 0.010334514 0.01723723 -0.0048142453 0.0014391444 0.01317522 -0.0007005128 -0.012026832 -0.01126522 -0.011369778 -0.0064845625 -0.0021639592 -0.023701852 -0.0008893431 -0.0044278186 0.007807947
stand -0.011526547 -0.004944964 -0.010111457 0.006834839 -0.00077068247 -0.00020225544 -0.0050489106 -0.0066517047 0.0071733263 -0.00836297 0.0042412123 -0.007829201 -0.014933411 0.003929676 0.013884437 -0.00121343 -0.01845801 -0.0046977694 0.013272308 0.0068559055 0.0034936727 0.0011023403 0.009222507 0.0026563818 0.0034098066 0.015667075 0.011704206 -0.018630603 -0.0016096194 0.0032587117 0.012577382 0.002677417 0.021318158 -0.007778063 -0.012577159 -0.021128567 0.0141894 0.01466166 0.0072327126 0.0015987738 0.0027579875 -0.0010711559 0.014719908 -0.0077661467 0.017558033 -0.025629278 -0.013846664 -0.0081715435 -0.0072822566 0.0015820392 0.019014243 0.0067602997 0.016808568 -0.005453048 0.0064658485 -0.019102242 -0.015088813 -0.0009747879 -0.0067773117 0.006108206 0.0042915903 0.016027832 -0.0002757436 0.018105062 0.0035800247 0.0056526614 -0.0064782538 0.004427564 -0.014754315 0.013259181 0.026143774 -0.007941917 -0.01837374 0.0024851353 0.003649454 -0.0049258284 0.0071736025 -0.007454445 0.000493672 0.0041229883 0.01660442 -0.0026554817 -0.0007758089 -0.0049327603 -0.00886022 -0.0044505964 -0.013415656 -0.014349273 0.011888439 0.016289487 0.0004607179 -0.014797684 -0.0056735342 -0.008149309 -0.011918369 0.0017488064 0.0063786055 -0.004166258 0.011560996 0.0005365156 -0.0018288428 -0.01151483 0.0007690136 0.018145466 -0.0027655098 0.008557372 0.002029595 0.0043326044 -0.0066385013 0.03035321 -0.010986101 0.004908698 0.010735593 0.00525941 0.017953146 0.0030630766 -0.0072210585 0.014988527 -0.0044705933 0.009771616 0.016162066 0.016794808 0.017375479 0.0064738486 0.011511366 -0.00907813 -0.0038130023 0.006518429 -0.006961614 -7.7194105e-05 0.007570758 0.0047143595 -0.0132040875 -0.00077951665 -0.008879143 -0.0046653696 -0.00807536 0.015101238 0.0012532378 0.01005629 0.019644389 -0.010841819 0.008347318 0.0056038136 0.017634077 0.010726737 0.0035781409 -0.00262504 0.0033439687 0.009189735 -0.009715223 -0.0025732282 -0.0052774744 -0.01214026 0.0075629 -0.0006388152 -0.011668029 -0.015952978 -0.01521627 -0.0051130652 -0.02625685 0.00927788 -0.004717722 0.022185482 -0.020955242 -0.0092043355 0.003750732 0.0017686866 0.007503396 0.013848176 0.008087992 -0.013808163 0.005572341 -0.0053605153 -0.005471599 0.0010366115 -0.010938834 -0.0049937814 -0.002487139 -0.0006335858 0.0016345548 0.010940378 0.011131961 -0.0069518 -0.017742109 0.0085660815 0.013837634 -0.0009747631 0.0015177745 0.009393411 0.0008099106 -0.009237509 -0.0125968475 -0.008026702 -0.0029528784 -0.0024643422 -0.015724376 0.00081303547 -0.0055163517 0.006547967
go -0.015585576 -0.0029402236 -0.009468967 0.008362699 -0.0010378077 0.00027559663 -0.008728526 -0.0097564515 0.005108778 -0.011618415 0.0035715855 -0.0041737896 -0.01853963 0.0037254274 0.015584658 -0.0014645581 -0.020691896 -0.006373863 0.018470738 0.004477309 0.0059247045 -0.0013942827 0.010072056 0.0025418776 0.006503985 0.01611668 0.012453532 -0.019571142 -0.0024716614 0.0021969806 0.012917478 0.0009050798 0.022642577 -0.010217272 -0.011460877 -0.02112 0.019300386 0.014137221 0.006031855 0.00031329808 0.00018706928 0.0011667619 0.019104185 -0.0074677635 0.022278987 -0.026986808 -0.015684739 -0.009868963 -0.009386146 0.0019237665 0.017076962 0.010400094 0.019477125 -0.0068545314 0.006350167 -0.021274835 -0.016822968 0.0007047932 -0.0096500525 0.008301282 0.0038379903 0.020115698 -0.0016870003 0.015632944 0.003841599 0.0053044525 -0.0052808784 0.005689516 -0.0139885675 0.017455554 0.026977286 -0.0104061505 -0.021114057 0.0019339628 0.0032617205 -0.0009114346 0.0074550416 -0.008014241 0.004750068 0.008621798 0.01874775 -0.00310517 0.000888939 -0.008419806 -0.012905941 -0.0029623506 -0.011861177 -0.012679973 0.011531311 0.019623106 -0.0016015144 -0.01511328 -0.0090642795 -0.007561424 -0.01292838 0.0014691659 0.012112224 -0.006381772 0.014725216 -0.00023144888 -0.0008306809 -0.013333653 0.00087144406 0.020749018 -0.0024159935 0.009489754 -0.0017214247 0.0065307217 -0.008147979 0.03289858 -0.013145411 0.0022547748 0.01302571 0.0052233133 0.020457326 0.0040054824 -0.008910856 0.016989391 -0.0016061366 0.0110971825 0.017699236 0.021211185 0.015064913 0.0058690347 0.0141855795 -0.009074125 0.00042865187 0.007780516 -0.01226157 -0.0038019037 0.008192006 0.0072926437 -0.012800788 -0.004083388 -0.010729296 -0.0036759167 -0.010359973 0.015712643 0.00055874535 0.010841946 0.023132442 -0.007361198 0.012021608 0.0059508462 0.023611404 0.014821469 0.0024652982 -0.0053512747 0.0043816557 0.0108340485 -0.013487036 -0.0030732672 -0.009243596 -0.012558669 0.012251455 0.0013677238 -0.016235534 -0.014803935 -0.013659451 -0.0049047978 -0.027828902 0.006369674 -0.0010697355 0.024946785 -0.027107906 -0.008942068 0.006831355 -0.00094727223 0.011397719 0.012539408 0.008412335 -0.01734935 0.0069720717 -0.0071957456 -0.005399731 0.0012442834 -0.011193853 -0.0024096156 -0.007406153 -0.001786918 0.00046654107 0.008368368 0.012470293 -0.011708553 -0.016348625 0.007640904 0.015667414 -0.00072060415 0.00011467462 0.010391837 0.00047289353 -0.011254326 -0.013800915 -0.010166138 -0.005094313 -0.0032697374 -0.019854993 0.0016715515 -0.005667584 0.00819962
office -0.00787705 -0.0007661458 -0.009298989 0.0043877345 -0.0019263986 -0.0012019395 -0.004638728 -0.008165923 0.006235049 -0.009328909 0.00045118667 -0.0058274707 -0.0151435835 0.00422862 0.009759563 2.906254e-05 -0.013508101 -0.00830521 0.0105001535 0.0018827671 0.005917113 0.00038440668 0.007906522 0.0040753707 0.004555398 0.011317481 0.009991316 -0.014286043 -0.001818878 -0.00017526367 0.010743511 0.0041426676 0.019398179 -0.0038850144 -0.011156841 -0.015867054 0.011069368 0.010257513 0.0046517495 0.0032670223 0.00317103 0.0014208801 0.014768879 -0.0070489473 0.014800572 -0.019909417 -0.011996108 -0.00525918 -0.0047956733 -0.0004527495 0.014882847 0.0053765923 0.012710435 -0.003827319 0.0052152965 -0.017403163 -0.01134464 -0.00048803329 -0.0077765086 0.0053506573 0.00219122 0.016363481 -0.003843404 0.014358735 -6.5060085e-05 0.0021126664 -0.0025770855 0.006684394 -0.010316655 0.01302768 0.019196521 -0.009722687 -0.011406524 0.0028065317 0.0043080547 -0.002998256 0.004177709 -0.0056757806 0.0029350915 0.0047442825 0.014316085 -0.0031058849 0.00061901816 -0.0043264506 -0.010457269 -0.002644611 -0.010056148 -0.0126961535 0.009076238 0.01582771 0.002020089 -0.012574643 -0.008702552 -0.004331022 -0.010778706 0.0005685133 0.0049678213 -0.006255002 0.010690474 7.3237316e-05 -0.0014793224 -0.007643989 -0.00091277674 0.015298528 -0.0035796713 0.007052545 -0.0013889995 0.0034619928 -0.008041715 0.023682535 -0.0065386714 0.0016361636 0.010045952 0.0065330975 0.014360348 0.0022677993 -0.004854228 0.012858115 0.00029402203 0.009966937 0.014838076 0.013600901 0.011520905 0.008044259 0.011369804 -0.005536886 -0.0032533011 0.0038942213 -0.009380794 0.0010626074 0.005654657 0.006102022 -0.01209903 -0.0018604829 -0.005587328 -0.0052516228 -0.006100217 0.012479618 0.0040675597 0.00469923 0.015239119 -0.0072825965 0.010483355 0.0066956957 0.017423566 0.0104264915 0.0015681201 -0.0018615362 0.0009765687 0.009878452 -0.010845484 -0.0055642244 -0.0058450457 -0.010115052 0.008034231 4.8989e-05 -0.01129422 -0.012932872 -0.011386529 -0.0019673877 -0.021681374 0.0047363145 -0.0044189817 0.02080692 -0.015731769 -0.005290767 0.0033907606 0.0026170774 0.0069315066 0.007569357 0.0020032572 -0.01143889 0.0065340847 -0.003736347 -0.003546872 0.0014353426 -0.011491371 -0.0047192103 -0.0030095617 -0.0028801323 0.00012962279 0.0053561977 0.0067666206 -0.0074625215 -0.015025831 0.009373227 0.009859915 -0.004339876 0.002696404 0.008848526 0.0016385643 -0.007291122 -0.009770773 -0.0063994625 -0.005931722 0.00023474495 -0.012774181 -0.0022759424 -0.0049402504 0.008095286
please -0.013532219 -0.0051232246 -0.009409916 0.0029298244 0.001011201 -0.002122122 -0.004231253 -0.00871646 0.0063833282 -0.010756758 0.0030414502 -0.0067733186 -0.017822148 0.004032083 0.009854601 0.0020352115 -0.017469067 -0.009004879 0.013040177 0.0050225332 0.0040453323 0.0021608118 0.008897196 0.0009803775 0.004049911 0.015451354 0.011016 -0.01388214 0.00023241286 0.0029590323 0.0140528865 0.0032271044 0.022525035 -0.008437479 -0.010406572 -0.01908172 0.016732624 0.013645409 0.0047646337 0.0007043194 -0.0009786806 0.0025783097 0.014086864 -0.004399185 0.019098185 -0.025603468 -0.0114809675 -0.008836225 -0.007014594 0.0017073627 0.015206891 0.0082611125 0.016066786 -0.0044985865 0.0039617806 -0.015930265 -0.012382596 -9.631754e-05 -0.00782898 0.004507152 0.0016118697 0.018855136 -0.0012898293 0.013248644 0.0004494596 0.0058688074 -0.0033294708 0.0066700177 -0.011794902 0.011823485 0.025618155 -0.0060669295 -0.017369436 -0.00015206315 0.0028098202 -0.004662652 0.0038643319 -0.004231032 0.0032970062 0.004133998 0.015630994 -0.00061621435 -0.0013171105 -0.0052722753 -0.0096874805 -0.0037961944 -0.013642381 -0.011852934 0.011422358 0.014592584 0.0007544671 -0.01358927 -0.0063926084 -0.0054089515 -0.013071726 0.0035490468 0.0065210033 -0.007531474 0.01352971 -0.0020138223 -0.0020827034 -0.01165411 -0.0025723435 0.013467675 -0.004965729 0.008621271 0.00034045696 0.0056734593 -0.009712271 0.029333662 -0.00800502 0.0046725227 0.0106364805 0.0047731446 0.018338244 0.001994954 -0.00880946 0.01222831 -0.003722832 0.012186345 0.01829685 0.017371444 0.014281862 0.008122445 0.010813063 -0.010384307 0.0014264552 0.003906943 -0.0069690067 -0.0008838876 0.008622654 0.006328077 -0.014489758 -0.0021495242 -0.005959449 -0.0014288522 -0.0050985813 0.01265045 0.0033628272 0.010717279 0.022480734 -0.009610512 0.011357829 0.007134124 0.01821902 0.0110119665 0.0031632066 -0.0046520876 0.0012916847 0.010323695 -0.011082296 -0.0021232304 -0.008434104 -0.010053481 0.009400393 0.0014311582 -0.012005812 -0.014897217 -0.012530658 -0.0033362054 -0.026295958 0.008555273 -0.00491963 0.023450295 -0.023360366 -0.007739157 0.004055285 -0.00046328592 0.009335766 0.010459632 0.00782793 -0.014287696 0.0038819683 -0.0070129484 -0.002117101 0.00567392 -0.010529447 -0.003362808 -0.00490531 -0.0035533854 0.002249053 0.008403185 0.01018918 -0.006178973 -0.016072595 0.0069387835 0.013274756 -0.0041525126 0.0035544343 0.011309042 5.505017e-05 -0.011058958 -0.008272641 -0.0075087957 -0.0032303329 0.0002628885 -0.016505228 0.0020890457 -0.004087809 0.007807145
building main -0.013203602 -0.00050109916 -0.00842599 0.003793152 0.0010908999 -0.0012040739 -0.0048902947 -0.00899231 0.0042825337 -0.009673782 0.0055955905 -0.0066245035 -0.021510899 0.0035383948 0.01142325 -0.00038545803 -0.021142164 -0.008836691 0.016330099 0.0039498853 0.005789894 0.0011539793 0.009843433 0.001233677 0.005986475 0.0145567125 0.014035654 -0.019473786 -0.0040319194 0.0043781176 0.016748438 0.0042479397 0.025150012 -0.0075825145 -0.014336888 -0.021945115 0.015190577 0.013829753 0.0071429964 0.003620194 -0.00094227353 -0.0010220404 0.01764896 -0.0062986785 0.020865677 -0.02808296 -0.013921319 -0.0055043926 -0.0061510345 0.002951314 0.019504977 0.008187514 0.01644675 -0.006586805 0.0064020087 -0.023323752 -0.011733806 -0.002982767 -0.005085645 0.009250671 0.004725463 0.017674964 -0.003921329 0.01539587 0.0015157918 0.004371361 -0.008331848 0.005191733 -0.013883498 0.011898476 0.024797942 -0.0057225768 -0.016791582 0.005118925 0.006028653 -0.0028133981 0.003846166 -0.0051339255 0.0027135303 0.0047163586 0.01833548 -0.0004136488 -0.000747491 -0.0048020007 -0.010479252 -0.0052878708 -0.015118953 -0.01592027 0.016627327 0.018417932 0.0007428083 -0.012335982 -0.009001792 -0.009123682 -0.015968533 0.0014295415 0.007044117 -0.0045534517 0.016668668 -0.005444856 0.0011156716 -0.01393312 0.00036818133 0.017006045 -0.002757531 0.008863612 -0.0017470929 0.007764875 -0.006663668 0.030309645 -0.009913664 0.0029244379 0.012810418 0.0054626586 0.019929145 0.005851978 -0.007134307 0.018753735 -0.00046433404 0.012729131 0.020193689 0.017124379 0.018994007 0.007820884 0.010955152 -0.0082565695 -0.0018502116 0.003728633 -0.009602395 -0.0014525519 0.00768501 0.0060235653 -0.016238911 -0.005123508 -0.008146984 -0.004137125 -0.009561219 0.015557546 0.0031757345 0.00890078 0.02132064 -0.011034245 0.009185636 0.005025202 0.021539701 0.009101694 0.0045368364 -0.0040294467 0.0039128764 0.012170769 -0.0104982415 -0.0040492145 -0.005497914 -0.012911096 0.009465594 0.0040518166 -0.014341294 -0.011814603 -0.015866544 -0.002093724 -0.02467079 0.008846156 -0.0016212875 0.027242523 -0.022402547 -0.007982092 0.0068532336 -0.0015286788 0.009760356 0.013407239 0.0044537177 -0.01394553 0.0062062056 -0.008019704 -0.0027768556 0.0012232184 -0.014118431 -0.0024025084 -0.0023166104 -0.0030489827 0.00071775285 0.012213952 0.0110863345 -0.009676717 -0.01993639 0.011187568 0.012903363 -0.0030431494 0.0032434769 0.01273467 0.00043481484 -0.009130637 -0.013835467 -0.010971641 -0.0060437266 -0.00019716179 -0.01711791 0.0013299291 -0.0039298516 0.008440057
ngu -0.018091513 -0.004260219 -0.010814015 0.007443834 0.0030088646 -0.0021892576 -0.011674687 -0.013148333 0.0083607305 -0.011880421 0.003043105 -0.008673604 -0.022831773 0.005851373 0.015377747 -0.0018321478 -0.02734188 -0.010970284 0.018054286 0.009363412 0.007785502 -0.00011713938 0.012186952 0.0044759843 0.008069592 0.02027101 0.015164143 -0.025069552 -0.0014718417 0.002379522 0.018283842 0.004985286 0.028293286 -0.009684979 -0.014018732 -0.030495694 0.023445586 0.014785625 0.011856386 0.003741024 0.0007863129 0.0024995052 0.020589113 -0.007937478 0.026892819 -0.034144256 -0.014141781 -0.0063473955 -0.008957716 0.003018378 0.025196083 0.011897673 0.023422904 -0.0055391095 0.0038249674 -0.024126673 -0.017894976 -0.0019675363 -0.010324577 0.010275818 0.0045799855 0.023538247 -0.0052821925 0.023959938 0.00041296807 0.0068369997 -0.0057753515 0.008089154 -0.019073315 0.017302534 0.030684419 -0.012939364 -0.023934286 0.0049093426 0.00518766 -0.0009983014 0.00650789 -0.008274075 0.003150879 0.009437212 0.022163743 -0.0012816392 0.003476589 -0.007743751 -0.012162791 -0.0063087223 -0.018839728 -0.017128883 0.016363643 0.021445634 6.606412e-05 -0.021367319 -0.009001234 -0.009792873 -0.015222138 0.0010720202 0.010825754 -0.005447978 0.014058649 -0.0051303473 -0.002145472 -0.015892915 0.0011052369 0.022929743 -0.005447083 0.009630189 -0.0021848266 0.009852093 -0.011400438 0.037808012 -0.016166238 0.004622799 0.01785239 0.005948807 0.026504496 0.0036553254 -0.0061767017 0.022467561 -0.0035066798 0.0162088 0.023280183 0.02737722 0.019770084 0.007804506 0.01616125 -0.009646025 0.0010997603 0.008186399 -0.013833665 -0.00015258399 0.011114804 0.010171686 -0.018802455 -0.004489696 -0.01102294 -0.0025110566 -0.010646211 0.021582697 0.0034971107 0.011168655 0.027108276 -0.009462756 0.013583734 0.0069232653 0.0292556 0.014848518 0.0038751399 -0.006423639 0.0048057865 0.01571755 -0.013751871 -0.006913688 -0.010908936 -0.012678888 0.014668822 0.0052072676 -0.015521857 -0.019794567 -0.015041307 -0.0015758394 -0.037184928 0.009499693 -0.0046088533 0.034438595 -0.03237596 -0.010178642 0.0062517994 -0.0012577265 0.011702413 0.018330773 0.005764876 -0.018773526 0.008181669 -0.009457316 -0.0019976401 0.0056008007 -0.01729562 -0.0077283564 -0.007163136 -0.0059242514 0.0042035803 0.012475959 0.013184116 -0.013678901 -0.023763532 0.014956061 0.014465029 -0.005594254 0.00022208439 0.014948712 -0.0015798748 -0.016305532 -0.016011879 -0.013465977 -0.007875802 -0.00039186445 -0.022957498 -0.0014421819 -0.004566715 0.013269836
student -0.02525013 -0.0041188216 -0.015180917 0.00688857 0.0009260552 0.0007150883 -0.014379224 -0.012749283 0.007598398 -0.015559771 0.0058605485 -0.011612176 -0.030205876 0.005514815 0.02266745 0.0014287512 -0.032438274 -0.011895491 0.024309114 0.008645598 0.008621634 -0.0012283957 0.014813114 0.0047036973 0.008042863 0.024835877 0.021091806 -0.029897759 0.000316175 0.0017913283 0.024580814 0.005740195 0.035215706 -0.01390695 -0.021267394 -0.03560396 0.028315995 0.02175921 0.009245369 0.004107743 0.004614162 0.0040135393 0.02904567 -0.010082974 0.03256381 -0.04197418 -0.018838188 -0.010820995 -0.010169928 0.0045710974 0.028649036 0.017202932 0.026105305 -0.010110209 0.00914191 -0.031338613 -0.020033587 -0.0032171542 -0.012505348 0.012711443 0.0056997016 0.03079849 -0.0025170608 0.027123556 0.004534216 0.007218302 -0.011792438 0.010482482 -0.021688092 0.021521196 0.039719068 -0.016602414 -0.025899487 0.0028865165 0.0052280785 -0.0061925156 0.005802458 -0.011895277 0.004938217 0.00789278 0.026717339 -0.0005852017 0.00069158326 -0.014021207 -0.020461308 -0.0052398443 -0.021619335 -0.019924663 0.018375551 0.027191237 -0.0003585947 -0.021439517 -0.013372228 -0.008080147 -0.020260746 0.0063317856 0.016082475 -0.008940008 0.019249314 -0.003134405 -0.005573583 -0.022926891 -0.0005865874 0.02741871 -0.008911169 0.016026419 -0.0022399686 0.01362161 -0.0149723245 0.04721453 -0.015244944 0.004491239 0.023490423 0.0074675786 0.029451873 0.006288169 -0.008846066 0.02700726 -0.0016142195 0.019856919 0.03078492 0.03037649 0.02872737 0.013353998 0.018992744 -0.015042349 -0.0041838908 0.010580663 -0.011845876 -0.0024304108 0.01278765 0.009456469 -0.021259725 -0.00728644 -0.012708894 -0.005129675 -0.011307688 0.024477072 0.0069041653 0.017974276 0.033754624 -0.015476253 0.017325552 0.0085926615 0.034332998 0.020770418 0.005634424 -0.006877222 0.0062717185 0.017578525 -0.020036345 -0.0073499014 -0.011385685 -0.01924533 0.0147970375 0.005207237 -0.02100028 -0.022353811 -0.025124652 -0.0026084147 -0.043675296 0.014778194 -0.004032465 0.040553026 -0.04028444 -0.01522971 0.008264658 0.001132823 0.016531652 0.019757027 0.010425013 -0.026623242 0.009829179 -0.010171737 -0.006309416 0.008203992 -0.021224964 -0.004781251 -0.0071882317 -0.005026731 0.005198779 0.015823103 0.015965369 -0.01693605 -0.02629108 0.016148062 0.01865567 -0.0035131618 0.0009946555 0.020089885 0.0028815134 -0.018042423 -0.020915205 -0.012269944 -0.006395802 -0.0047102654 -0.033670038 -0.00024639707 -0.007120265 0.0154372
new -0.013402159 -0.0029432776 -0.011109518 0.006112327 0.0011125884 -0.0021751598 -0.0052748877 -0.008995677 0.004268435 -0.011188996 0.0025864916 -0.005061073 -0.022698099 0.003461997 0.012260893 0.002167433 -0.02329636 -0.0101247 0.0143259885 0.0062308162 0.0033763538 -0.001504329 0.011317041 0.0047528334 0.00665713 0.018318174 0.013957505 -0.01944084 -0.0035388863 0.0018811555 0.012752579 0.0017733237 0.02700267 -0.010138414 -0.010308185 -0.020962581 0.019020714 0.015427285 0.006177839 0.002213126 0.00019466775 0.0016951722 0.019505395 -0.009362975 0.021628749 -0.028642442 -0.012748769 -0.009611385 -0.0094366195 0.0023185175 0.021594973 0.012950979 0.018750198 -0.007707389 0.00288256 -0.020498546 -0.014251053 -0.00033548553 -0.0068146866 0.009380002 0.0049696835 0.021779263 -0.0028348786 0.0161459 0.003335501 0.0036411409 -0.008136129 0.008750881 -0.012469168 0.0175604 0.025446871 -0.007798205 -0.018169068 0.0048607728 0.0053480207 -0.005629643 0.006650099 -0.004101615 0.0030924918 0.0059592593 0.018319443 -0.0015565711 0.0019574435 -0.007158828 -0.008953954 -0.0033809787 -0.014590491 -0.01602652 0.015383184 0.016130598 -0.0021645324 -0.015548315 -0.00747331 -0.0047363047 -0.014651052 0.0039737853 0.0078056175 -0.00900251 0.016384207 -0.004306969 -0.003225968 -0.013938808 -0.001877483 0.016959932 -0.0030975034 0.007554988 -0.0006858424 0.0054069506 -0.010243203 0.032927766 -0.01425012 0.005071165 0.01265029 0.0072453446 0.022948895 0.001413899 -0.0100203995 0.01814322 -0.0032114596 0.01267657 0.019701006 0.020222034 0.019028012 0.007722523 0.011183578 -0.007393271 0.00047749182 0.008524735 -0.010516642 -0.00072333775 0.009385047 0.0055959336 -0.01613174 -0.0013071605 -0.008126215 -0.0038068588 -0.009373252 0.019878974 0.0021058752 0.010120415 0.025294648 -0.010866976 0.013030031 0.0032152953 0.02322694 0.0114319585 0.004327529 -0.007132152 0.004901671 0.00990215 -0.014219601 -0.0035438524 -0.007990253 -0.010837325 0.013028313 0.0041999836 -0.014966657 -0.015626786 -0.014313369 -0.004766198 -0.02597358 0.0074312002 -0.0062362137 0.028515307 -0.02782794 -0.010531275 0.004502461 -0.001188458 0.008857623 0.0124634765 0.004949214 -0.016971668 0.0059691733 -0.0062327543 -0.0028374884 0.005478071 -0.011109309 -0.0042970814 -0.003383501 -0.005982841 0.0027990032 0.010869985 0.013113174 -0.011223753 -0.018592622 0.009044099 0.0134261 -0.0052041425 0.0047661704 0.015578783 0.000114158174 -0.011687441 -0.011886179 -0.011003592 -0.006078345 -0.004289611 -0.022914905 0.00058791944 -0.0024863363 0.0086049605
institute electrometry -0.0032644009 0.0014976981 -0.0019100715 -0.0009587489 -0.0019266818 -0.0013728819 -0.0019835322 0.0012481321 -0.0005450737 -0.0006220373 0.001827825 -0.0013559106 0.0004121353 -0.002401263 0.00090675656 0.0021219663 -0.0024141911 0.0010309436 0.0030884636 -0.0008383841 -0.00010406398 -0.0006303362 -0.0011139527 -2.7795488e-05 0.002783203 0.00029641367 -0.00011741153 -0.0039145076 -0.0014410404 0.002121638 0.0032794105 -0.0020121455 0.00057973503 -0.0031557698 -0.0010680935 -0.0039835223 0.0031416253 0.0028484024 0.0006725148 -0.0019264867 0.00038633568 -0.0016787659 0.0010688147 0.0007370509 0.003836585 -9.831974e-05 -0.003867169 0.001624548 -0.00043389143 -0.0014419719 0.0030129303 0.0013043483 0.0027926988 0.00072558376 -0.001281245 -0.0005057786 -0.0011853126 -0.0020216 -0.0014389936 -1.6330332e-05 -0.00016266826 2.59864e-05 0.0021620998 0.0034038802 -0.0013923885 -0.001074796 -0.0017785395 0.002342561 0.00078585016 -0.00084631704 0.00481256 0.0014386902 2.1921463e-05 0.0016984518 -0.00016437251 -0.0013793661 -0.0014742455 -0.0012342694 0.0022975449 0.0003856032 -0.00048212102 0.0008007264 -0.0015677854 0.00090381084 -0.0013347514 0.0020567968 -0.0029942577 -0.001467249 0.0015713876 0.002950661 0.0021488771 0.0009987254 0.0015984437 0.001639529 -0.0031498896 -3.9254042e-05 0.0030216365 -0.0005769811 0.001718799 -0.0020432423 -0.0013304596 0.0013706455 -0.0023764619 0.0030859439 0.0020067387 0.00050320465 0.0018820254 0.0026801801 0.0005379088 0.002958367 -0.00026419366 0.0027369442 0.0031389582 0.0015223006 0.0020977324 -0.000467005 0.0014849793 0.0013191809 0.0023629623 -0.00024116733 -0.0002441107 0.0005025196 0.00096887193 -0.0013286147 0.003296477 -0.00061733485 -0.0011084024 0.00024701082 -0.00066677696 -0.0026401198 -0.0013669992 -0.00021456362 -0.003528659 -0.0020922197 -0.0015331767 -0.0013334985 -0.00015882467 0.0038536792 0.0018288915 -0.000361668 0.0040304256 -0.0030588226 0.0035689024 0.0025109614 0.0020877095 -0.0009929275 0.0015859156 -0.001866892 0.0024178321 -0.00054020097 -0.0022089866 0.00093812967 -0.002932698 0.00021995112 0.0034764635 -0.0014626593 -0.0033914174 -0.0020933351 0.00087261514 0.0015988614 -0.0018708195 -0.0004624933 0.0016743627 0.0024053166 -0.0016913604 0.00088334805 -0.00073033554 -0.00018011504 0.0011677521 -0.0007030805 -0.0016140726 0.0006440018 0.0012484723 0.00011812362 -0.0029693057 -0.00015437667 0.00039031543 0.00053533603 -0.0026740888 0.00050493417 0.0007659063 0.00036941207 -0.0008705843 -0.0034146716 -0.0021098498 0.0004510783 0.0029321844 -0.00045169363 -0.0014094514 -0.0014052638 -0.0019523145 -0.0035969452 -0.0025434368 0.00049421925 0.0003506372 -0.000100959165 -0.00084417255 -0.0015928287 0.0009336724 0.0022576505
internet -0.012436597 -0.0034389223 -0.006575693 0.005893451 -0.00065459206 -0.0019953144 -0.0058196466 -0.009111021 0.0077098003 -0.0108581865 0.0046202266 -0.0033350433 -0.014837103 0.0027177164 0.0087970495 0.0013926242 -0.02111706 -0.008881401 0.011757416 0.008100238 0.0055554365 -0.0013184296 0.005983342 0.00041675032 0.0055786083 0.012166068 0.009218954 -0.01283377 -0.0016529724 0.0007499039 0.011745718 0.0018459836 0.021823566 -0.009305945 -0.007877508 -0.017583601 0.012689815 0.009762713 0.007882947 0.0024412149 0.003500015 -0.0002586321 0.014660488 -0.007506764 0.01746404 -0.023879016 -0.010006291 -0.008568236 -0.009626496 -0.00081146054 0.014914597 0.010996898 0.012462504 -0.0025190576 0.006099257 -0.019100953 -0.009841305 -0.0034345926 -0.007865232 0.0067197056 0.0027124383 0.01971707 -0.00097238657 0.013581719 0.00023472177 0.0055035083 -0.0048340387 0.004012274 -0.010978823 0.012742346 0.023548448 -0.009727969 -0.01334239 0.0034173299 0.004527394 -0.0053693797 0.0030469778 -0.0075616064 0.0007675403 0.005906672 0.015269419 -0.0028616113 -0.0019332938 -0.006987734 -0.011887347 -0.0057759928 -0.009306521 -0.009811499 0.011145013 0.01450013 0.002500736 -0.014994729 -0.005972965 -0.00786759 -0.01156806 0.00024946147 0.0058463663 -0.006666642 0.013307353 0.0001984352 -0.0021751125 -0.010132628 -0.0009916831 0.01632776 -0.0030003265 0.0072549065 -0.00087239384 0.0060379403 -0.005536791 0.027043758 -0.008191512 0.0009877409 0.013325225 0.006651984 0.017312717 0.00071986334 -0.004304957 0.016637523 -0.0035744582 0.00773282 0.014672932 0.016573323 0.013016882 0.007513697 0.008462937 -0.008582586 -0.0025179374 0.0057960893 -0.0056835916 -0.0026968159 0.003864386 0.007957935 -0.015488053 -0.0007761112 -0.009789352 -0.0045008888 -0.0069170925 0.014089947 0.0046359524 0.0061966465 0.022200959 -0.008169528 0.011907247 0.0068428125 0.01765881 0.012886777 0.000871105 -0.006221265 0.0038870913 0.010630276 -0.009455938 -0.00397969 -0.006867348 -0.009202575 0.0075261802 -0.0004691308 -0.013943805 -0.014370045 -0.0151267955 -0.002473953 -0.021864267 0.0043649087 -0.0028778715 0.023750098 -0.020024147 -0.008129032 0.005745804 -0.0011070053 0.00677373 0.013832511 0.0053452845 -0.0137916105 0.007548075 -0.007522473 -0.0017730254 0.004320373 -0.013402257 -0.005577126 -0.006401243 -0.0020384567 -0.00037216654 0.006865466 0.008148157 -0.010268017 -0.014216442 0.0072594048 0.013693805 -0.0042922776 0.0043504215 0.011090802 -0.00056449097 -0.0071132444 -0.012508084 -0.009292475 -0.0022788362 0.00043664296 -0.017981809 0.001669044 -0.0023732176 0.006510382
canteen -0.01090846 -0.002186354 -0.0055763274 0.004259513 -0.0009600635 0.00075708126 -0.003772301 -0.0050303494 0.0060026646 -0.007086386 0.0012170109 -0.0067422665 -0.014430264 -0.00018603548 0.0065476736 -0.0003503248 -0.017328916 -0.004731918 0.01330034 0.0026693337 0.0010905538 -0.0016975624 0.0068542007 0.004394328 0.000782636 0.009078747 0.011145385 -0.012486779 -0.00035824766 0.0024775406 0.008728058 0.00086508814 0.018495392 -0.006287931 -0.007977476 -0.016919762 0.012196123 0.007000757 0.004148151 0.0031812526 0.0009951578 0.0011853091 0.014572944 -0.00804461 0.015588551 -0.018863434 -0.010273475 -0.0059309783 -0.0040120482 0.0013054288 0.013924272 0.00698045 0.008476238 -0.0023353386 0.0027881423 -0.013692122 -0.009210195 -0.0012725721 -0.0044985255 0.0052126707 0.00063961715 0.015410599 -0.0030689395 0.011075741 0.0021404678 0.0047774976 -0.004233204 0.0040497202 -0.0076921326 0.008625789 0.018490806 -0.0038182447 -0.013092038 0.004041982 0.0036139062 -0.0015450112 0.0014808191 -0.005203237 2.2765966e-05 0.0068925046 0.012799002 0.00076788105 0.0014654591 -0.005451763 -0.008452844 -0.0051785423 -0.0077181775 -0.010862454 0.012650967 0.012211536 -0.0021337096 -0.012063822 -0.006019841 -0.002741929 -0.010072598 0.0037210388 0.0034547357 -0.0065773204 0.008916153 0.0004984033 -0.0010426071 -0.012355298 0.0017398745 0.01338538 -0.0045111794 0.0040331297 -0.0021081676 0.0042681303 -0.008419338 0.020308046 -0.008060238 3.8395534e-05 0.009866556 0.005863686 0.013976733 0.001640037 -0.0054419506 0.013421166 -0.0019555748 0.007780231 0.014754426 0.013214818 0.013387067 0.0066311886 0.008902574 -0.0046607396 0.0018196582 0.004782797 -0.00710326 0.0005649683 0.0053081596 0.0068748426 -0.009546889 -0.0045519574 -0.0038071 -0.0007448626 -0.0063846475 0.015083794 1.64478e-05 0.009500166 0.017462784 -0.006594498 0.010477869 0.004032532 0.014825443 0.010923185 0.0016532978 -0.0054204836 0.0022938102 0.010058322 -0.0069580446 -0.004364627 -0.007830092 -0.006131458 0.00831276 0.00019949717 -0.00870094 -0.008848027 -0.011319625 -2.8340604e-05 -0.019986209 0.005505703 -0.0026097712 0.021504411 -0.020038823 -0.008055171 0.0015676586 -0.001195624 0.0047246786 0.010046919 0.006354623 -0.010890468 0.0061774794 -0.0033043881 -0.0018744865 0.0048650834 -0.008718823 -0.0026005574 -0.00017221026 -0.001024708 0.0006179377 0.005061344 0.0065100295 -0.009308798 -0.012906707 0.0053252145 0.012045451 -0.0036659115 -0.001138066 0.0102584995 -9.659559e-05 -0.008716488 -0.006508587 -0.0064248177 -0.003259859 0.00064679387 -0.015664767 0.001812458 -0.001348435 0.0072009866
tell -0.017205918 -0.0043633915 -0.012311401 0.006201244 0.0011656245 -0.0015424686 -0.0062814658 -0.012418482 0.009231509 -0.01055537 0.0063156513 -0.006724181 -0.020618875 0.0055151824 0.015281069 -0.0029549354 -0.025530994 -0.0096591 0.018123737 0.003968597 0.0066907313 0.0007914021 0.00932634 0.0012663156 0.003110695 0.017402526 0.013755337 -0.021268014 -0.0011774909 0.002711311 0.014844746 0.0009032904 0.024711741 -0.006187731 -0.013743554 -0.022739757 0.018442122 0.013453615 0.0069903173 0.0020885053 0.0025308449 0.0028948882 0.020104777 -0.0076977164 0.021569941 -0.029799601 -0.013027575 -0.008591992 -0.008846739 0.001723602 0.021079829 0.0107160155 0.015439461 -0.0048133987 0.00602162 -0.021213995 -0.016037457 0.0009538014 -0.005196075 0.009655322 0.0009789205 0.01912141 -0.0016412125 0.020629235 0.002515346 0.0069993366 -0.0055022105 0.0062071946 -0.017258802 0.016889408 0.025594248 -0.012105456 -0.01699006 0.0022386743 0.0040599145 -0.0006320945 0.004329986 -0.0059154574 0.0057759965 0.00893087 0.020093475 0.00068081036 0.0005892597 -0.00935392 -0.013960683 -0.0037757 -0.015476308 -0.015861522 0.014221285 0.018247548 -0.0017921239 -0.014166071 -0.008240294 -0.008665977 -0.015276564 0.0047539365 0.009885336 -0.0060432083 0.014307436 -0.0023326145 -0.0044754823 -0.01661601 0.0013621069 0.017462669 -0.0045913234 0.011434751 -0.0013507697 0.0049263034 -0.008602998 0.03485821 -0.012592844 0.0013334687 0.015239289 0.0065769358 0.02294296 0.0040806835 -0.010204242 0.018592043 -0.0012457987 0.01542279 0.019758036 0.022566613 0.01646108 0.008670483 0.010272835 -0.00959267 0.00024661532 0.0066127237 -0.00809807 -0.0007624755 0.007130528 0.0046527185 -0.017287485 -0.004991901 -0.007775609 -0.0011035086 -0.01092616 0.01725939 0.0009015128 0.013061427 0.025114337 -0.010128708 0.012836343 0.0045376294 0.02474985 0.015210761 0.004571377 -0.006291884 0.0014248161 0.014130405 -0.011682887 -0.0062345313 -0.007318406 -0.014271388 0.0120415855 0.00010519875 -0.015502268 -0.015348713 -0.015162437 -0.0026952724 -0.030741276 0.010304892 -0.002485084 0.02775096 -0.025859887 -0.012473782 0.007494838 -0.0021719323 0.012741199 0.011748171 0.0077923713 -0.015256143 0.0062184273 -0.009887047 -0.0021829403 0.0028778443 -0.015996289 -0.006382772 -0.0038417613 -0.0017219868 0.0015631007 0.011117247 0.013405529 -0.01084635 -0.021050904 0.011617532 0.012762614 -0.005368675 0.0010411306 0.012883975 -0.0016122671 -0.012995997 -0.013499406 -0.00848029 -0.004340618 -0.0011400103 -0.018730463 0.0015219833 -0.006181741 0.010399783
i -0.023822244 -0.0069664503 -0.014938059 0.006790222 0.0007408077 -0.004168544 -0.013191143 -0.014432879 0.008252513 -0.018657584 0.0036149994 -0.010451511 -0.029173438 0.0076271906 0.018440984 -0.00069009763 -0.03409932 -0.014569779 0.022251252 0.010462551 0.009430085 -8.942184e-05 0.013505395 0.0065400777 0.0077127255 0.02663124 0.021914123 -0.028817203 0.0001195043 0.003842532 0.021587944 0.0043948228 0.038212076 -0.012157793 -0.018284032 -0.036276463 0.028722726 0.021789206 0.011651535 0.004217354 0.003891705 0.0029769423 0.026849998 -0.0104424935 0.0313508 -0.04265741 -0.018041437 -0.010926244 -0.014168322 0.0024618725 0.028089102 0.013190318 0.02811066 -0.008524584 0.005809154 -0.03238387 -0.021932106 -0.0007867091 -0.012758571 0.011895906 0.00486589 0.03346049 -0.0035331536 0.025504041 0.003524189 0.008959652 -0.008483286 0.008633813 -0.023952818 0.024718458 0.04014255 -0.014754413 -0.026420048 0.0068416796 0.007806351 -0.0059991307 0.0060290694 -0.010354608 0.0037678161 0.008711174 0.026579516 -0.0008346798 -0.00085856585 -0.011582217 -0.019220734 -0.008111299 -0.021133149 -0.021477262 0.02032916 0.028892618 -0.000108009524 -0.022202294 -0.01451476 -0.012079391 -0.019806465 0.0070881303 0.015286092 -0.0076075406 0.020464966 -0.004219655 -0.0040324526 -0.021676851 0.0022117945 0.02709343 -0.005265976 0.01633382 0.0010934083 0.011805638 -0.012724399 0.046525706 -0.017706774 0.0058204303 0.019785918 0.0070794816 0.03235299 0.0061655757 -0.009333623 0.025270222 -0.0047944044 0.016746674 0.030682255 0.032728177 0.028047606 0.0110486075 0.020483986 -0.015145994 -0.004234076 0.0109229125 -0.012996731 -0.0010187319 0.00904762 0.007822738 -0.02256196 -0.0073651774 -0.013470977 -0.005896757 -0.015324018 0.0269602 0.0061839577 0.016675329 0.034632694 -0.013148194 0.015992226 0.0078123123 0.033069316 0.019547809 0.0033358287 -0.0091402475 0.0048212917 0.018139433 -0.018926766 -0.0052663716 -0.01197545 -0.016312404 0.018385466 0.0029690398 -0.019555474 -0.026165951 -0.021787211 -0.005071587 -0.0411645 0.012223358 -0.007368872 0.041216023 -0.041077774 -0.014727058 0.010316623 0.0028485595 0.014224295 0.022874456 0.011261427 -0.0251421 0.010849377 -0.011707906 -0.004712613 0.0055830753 -0.018510742 -0.007817828 -0.006813804 -0.0046487893 0.002224391 0.015956318 0.01612228 -0.016266538 -0.027886817 0.013975619 0.023265319 -0.004024317 0.005567923 0.021064648 0.0003450542 -0.018642861 -0.01742789 -0.010766132 -0.0047471263 -0.0013317394 -0.033048205 -0.0016600871 -0.009020827 0.016559191
scholarship -0.011478703 -0.0026883318 -0.005844591 0.0022617052 -0.00041099824 0.0006981629 -0.0038131932 -0.0064215506 0.0022237054 -0.007057222 0.0030278433 -0.0028334763 -0.010563056 -6.0918515e-05 0.0062184962 -0.0006820343 -0.012745558 -0.0064950297 0.011206129 0.0040358584 0.0019765936 0.0011383197 0.005428397 0.0042162077 0.0014547093 0.013069683 0.005992597 -0.010670831 0.0002432495 0.0030936284 0.006606077 0.0003940412 0.015517896 -0.0051939343 -0.010314748 -0.012633418 0.011311909 0.010166899 0.0030483159 0.0015392874 0.0006791051 0.00021604309 0.013537777 -0.0041637244 0.013244834 -0.017610144 -0.0058838925 -0.0020807907 -0.004641252 -0.0014487769 0.012416025 0.0055956007 0.01067161 -0.0038652678 0.00399017 -0.013046641 -0.0083925845 0.001658429 -0.0038245646 0.003904257 0.002906701 0.011200886 -0.0006264801 0.008409098 0.0004702664 0.0014934156 -0.0017290164 0.006159647 -0.01115504 0.00858119 0.017226882 -0.008085677 -0.011020903 -0.00052238454 0.0019731964 5.0296345e-05 0.0056087887 -0.004846612 0.0033809568 0.0060452614 0.012931002 -0.0018294798 0.002645421 -0.0057230056 -0.0071487664 -0.0010356165 -0.006991528 -0.009783534 0.006962011 0.01369693 0.0018391822 -0.009624672 -0.0051754983 -0.005209643 -0.0058979425 0.0007486611 0.0074269287 -0.003838189 0.009030651 -0.0012627442 -0.0036325087 -0.010510908 0.0013907186 0.00929469 -0.0020875968 0.0062584225 -0.0026946124 0.0029192301 -0.006275896 0.021017823 -0.006453033 0.0046245935 0.010102582 0.004432464 0.014371445 0.0017614221 -0.004321649 0.01043744 -0.002672824 0.00982613 0.010293003 0.0145028215 0.009120038 0.0067441966 0.007841937 -0.0039121597 -0.0012176074 0.0039754887 -0.0044020605 -0.0037053332 0.0071635135 0.0034847013 -0.010410108 -0.001598273 -0.0050692684 -0.00030127077 -0.0028162166 0.012779161 0.0011401282 0.0036523505 0.012008835 -0.006240105 0.006146022 0.0035233835 0.01273279 0.005908701 0.003232174 -0.004425142 0.0032381183 0.009432896 -0.0055281827 -0.005554459 -0.0058064945 -0.0074774264 0.006430851 0.0030987228 -0.0074988264 -0.008432631 -0.010129516 -0.004198133 -0.018327868 0.005612268 -0.0048402008 0.019175846 -0.01339761 -0.008821121 0.005748633 0.0027021624 0.008158488 0.008536031 0.0060926843 -0.0082626045 0.0046089776 -0.005535226 -0.0005192927 0.003665421 -0.009582589 -0.0052424236 -0.0047711097 -0.002870205 -0.00012333451 0.008442273 0.008966854 -0.008103297 -0.011578987 0.0072057666 0.007140068 -0.0037530046 0.0018178523 0.0073797456 -0.0021856355 -0.0052875304 -0.005001951 -0.0028050775 -0.002696678 -0.0017140579 -0.013733636 0.00012243929 -0.0028821686 0.0059833536
nsu -0.014427041 -0.0045299106 -0.011923954 0.0053447615 0.0011258363 -0.0016851719 -0.009511772 -0.009328725 0.008927722 -0.009779691 0.0035650663 -0.00757073 -0.020599239 0.0058540516 0.011787476 -0.0013129768 -0.023884505 -0.0064094183 0.014925042 0.0031489274 0.0043453057 0.0024788205 0.009542573 0.004890685 0.0027749396 0.01497298 0.0115479585 -0.018480236 -0.0021234197 0.0027521045 0.016426884 0.00036365766 0.02070624 -0.008430327 -0.014795871 -0.022801235 0.019578498 0.012690415 0.008569682 0.003527499 0.0025893825 8.558354e-05 0.01742316 -0.007239321 0.02163843 -0.026710445 -0.011073508 -0.00791308 -0.006406821 0.0027535413 0.021379385 0.009934617 0.018832583 -0.004106898 0.0022905574 -0.022227868 -0.016664669 0.0012561328 -0.004824621 0.0077224574 0.005394008 0.020916145 -0.0040596114 0.017206399 0.001500059 0.00757429 -0.004471045 0.004602502 -0.01390693 0.017112305 0.026405783 -0.009677796 -0.019464541 0.005098572 0.002397299 -0.0034934755 0.006395427 -0.0050036046 0.005234867 0.0060054543 0.018578783 -0.0025435092 0.0036230385 -0.010373068 -0.008697846 -0.0033124492 -0.0129653 -0.015335747 0.011176353 0.01719172 0.0016817208 -0.014836347 -0.008739456 -0.0050861533 -0.012606928 0.0053279526 0.010241331 -0.008963209 0.016052147 -0.0013795064 -0.0010317903 -0.013329852 -0.002296721 0.015999869 -0.002254627 0.008991191 0.0012796347 0.0057590376 -0.01104949 0.031780303 -0.010737993 0.0017683132 0.0142505495 0.0050293384 0.019156637 0.0026130693 -0.006013618 0.015989533 -1.1477112e-05 0.014901709 0.020825164 0.021534652 0.01506793 0.0061460612 0.0147519605 -0.0090409275 -0.0008283162 0.0068182494 -0.008863267 -5.0962495e-05 0.009497938 0.0058406163 -0.0130770225 -0.0059976536 -0.010209656 -0.002728022 -0.010432912 0.0168442 0.00045870998 0.011466453 0.022162087 -0.007864058 0.013116087 0.004120201 0.023789912 0.011022482 0.0012447244 -0.006316688 0.0030193198 0.010217512 -0.00969157 -0.002855977 -0.0066107614 -0.010027047 0.012730073 0.0013991406 -0.012662177 -0.01634012 -0.0129723465 -0.0012093348 -0.027736954 0.0071811234 -0.003325534 0.028303547 -0.026123581 -0.009992596 0.007360668 0.0029781733 0.010292708 0.012567196 0.00844712 -0.017562065 0.005472507 -0.0073031182 -0.004020173 0.003303051 -0.013061047 -0.006622668 -0.008378819 -0.0037778812 0.0043547554 0.008647991 0.008931894 -0.007860705 -0.01745004 0.012681406 0.012241539 -0.00093232206 0.0031878813 0.014355272 -0.0023989447 -0.011389797 -0.014343399 -0.009069887 -0.0036590355 -0.0037862652 -0.019541921 0.0014566683 -0.006792104 0.008893555
pay -0.0149139725 -0.002705726 -0.009428227 0.0076167476 -0.00025665038 -0.0007985002 -0.0064890734 -0.009676335 0.0038736896 -0.0066102776 0.0032111334 -0.003364279 -0.0147993425 0.005054695 0.011300745 0.00049611845 -0.020607574 -0.006058964 0.014325233 0.0042474694 0.005135239 -0.0001498553 0.0068339068 0.0045549716 0.0064820494 0.016421026 0.013443445 -0.014492906 -0.0016824743 0.00029475274 0.013617519 -0.00020343035 0.018433413 -0.008610219 -0.010424184 -0.021684224 0.016390981 0.013537381 0.007772224 0.004485421 -0.0005791729 0.00045423929 0.015460699 -0.004943838 0.018735737 -0.025317367 -0.01168496 -0.0038131971 -0.0072546136 -0.0013319243 0.017800353 0.009394602 0.014186257 -0.0056095165 0.0034733904 -0.019036336 -0.012635984 0.0006392785 -0.00783043 0.0066763135 0.0047669713 0.020305578 -0.0015804983 0.013021362 0.0022843664 0.0054934574 -0.0075607533 0.0059885015 -0.012673982 0.015149013 0.022876987 -0.008930311 -0.0171106 0.0047480394 0.0055423127 -0.0005995582 0.005857641 -0.0072405953 0.003559879 0.0034886138 0.01817187 -0.0011965199 0.0027133464 -0.008634139 -0.007551518 -0.0015558219 -0.010619702 -0.015205588 0.011377747 0.014554935 0.00034011636 -0.015366648 -0.007067332 -0.0044386378 -0.011910963 0.0032995201 0.010693855 -0.0034643998 0.014294891 -0.003288221 -0.0034903202 -0.013769548 -0.0024738363 0.015495362 -0.004111723 0.0075067654 -0.0008459456 0.005348644 -0.008679937 0.025690839 -0.011069948 0.0027672313 0.010132304 0.004955206 0.017521348 0.0030603488 -0.003771723 0.017008364 -0.0042330665 0.009282882 0.016785884 0.015787426 0.012457556 0.004988317 0.009960667 -0.008369491 -0.0027200144 0.004544591 -0.010237342 -0.0036745665 0.0075363703 0.004845019 -0.01171574 -0.0052278456 -0.0060070786 -0.0015789057 -0.00949788 0.016621633 0.0038577782 0.0076271133 0.019925922 -0.0073405374 0.008650463 0.003148135 0.021390652 0.009370374 0.0020715848 -0.002319002 0.0056542833 0.012578266 -0.011315101 -0.0052780556 -0.007079073 -0.009543696 0.00745354 -0.0005037311 -0.009312036 -0.015253073 -0.012039578 -0.002598335 -0.024581358 0.00461537 -0.0020757334 0.02198432 -0.022495927 -0.0082892645 0.004981807 -0.0016918042 0.011098071 0.012421239 0.007214597 -0.012990803 0.004251141 -0.007646163 -0.0035763013 0.0012544602 -0.011269471 -0.0013561803 -0.006880071 -0.0032939075 0.00031546078 0.007218132 0.007109179 -0.008038216 -0.013530373 0.009084281 0.013919513 -0.00040144715 0.0032414377 0.0111815715 0.0025406112 -0.011350313 -0.010770272 -0.009220798 -0.0028921426 -0.0029366934 -0.015129987 -0.0025212367 -0.003257654 0.010260523
administrative building -0.014069909 -0.0012664091 -0.008717981 0.0027147082 0.0025016319 -0.0019281746 -0.0065821204 -0.007708072 0.005011186 -0.0069850585 0.005474886 -0.0073046787 -0.015729345 0.0011674637 0.01187433 0.0015235542 -0.019834729 -0.0074490914 0.014363446 0.007920347 0.004729241 0.000763706 0.008197907 0.0037304652 0.004626872 0.013720373 0.008740233 -0.016556654 0.0003842375 0.0011954742 0.011279706 0.004384127 0.019248012 -0.007822214 -0.011273292 -0.016172258 0.012818506 0.011628863 0.0059434166 0.0011760842 -0.00025621246 0.001685447 0.014610001 -0.008453727 0.017054737 -0.021039216 -0.013610429 -0.0077382238 -0.00792157 1.8077893e-05 0.01790496 0.009906604 0.011113078 -0.003437101 0.0026234041 -0.018581541 -0.011645315 -0.003772832 -0.0036887533 0.0037920815 0.0031781027 0.017429939 -0.0005620105 0.011895563 0.00011585443 0.0026746579 -0.0050366335 0.005072872 -0.011773807 0.012445413 0.02045837 -0.0062500862 -0.015747989 0.002988573 0.0016675219 -0.0023174847 0.0053596906 -0.0034473494 0.0002694796 0.008887971 0.014159393 0.00040328343 -0.0005423847 -0.0076135406 -0.008578515 -0.005539609 -0.011043749 -0.011716219 0.014515885 0.015387414 -0.0020065212 -0.010521474 -0.0068590003 -0.0069306847 -0.0134370895 0.002144423 0.006177336 -0.0030824894 0.013140501 -0.0035289228 -0.00026378958 -0.012226107 -0.0021579517 0.014518466 -0.004290994 0.0081563005 0.0003005562 0.006589264 -0.007924214 0.029170133 -0.010822762 0.0020161124 0.011942293 0.005423518 0.018872576 0.0010775529 -0.006867811 0.014471957 0.00047615907 0.011258645 0.01741126 0.018383075 0.013648773 0.005086107 0.0074186986 -0.0056456514 0.0010993129 0.004760637 -0.005173271 -0.0019648066 0.005838853 0.006708529 -0.012910518 -0.0052188803 -0.009423223 -0.0031981505 -0.009307757 0.016924193 -0.00042487594 0.010962407 0.022025876 -0.008011007 0.012799439 0.004648217 0.017565198 0.0076073348 0.001246553 -0.004343081 0.0016923858 0.009153338 -0.009802323 -0.0022358033 -0.007475848 -0.010353652 0.0064412975 0.0017076203 -0.0137402965 -0.013506286 -0.010909106 5.4048414e-05 -0.024155611 0.0046054567 -0.002416662 0.023065781 -0.020878363 -0.010221786 0.0059968997 0.0005519007 0.009028307 0.009839477 0.0051804893 -0.015293309 0.004230771 -0.006749294 -0.0026732965 0.00044777663 -0.010504535 -0.004686165 -0.0033082797 -0.00010129202 0.0015377424 0.010969457 0.008442205 -0.010588404 -0.01702173 0.00747694 0.011567002 -0.0013586007 0.0017500843 0.012986289 -0.0015510559 -0.010063969 -0.012601869 -0.010035523 -0.0026714057 0.0011323764 -0.016230712 -0.0009468284 -0.00057142426 0.0065102964
floor -0.013004408 -0.0017171609 -0.010070629 0.007819231 -0.001745469 -0.002782957 -0.0102299685 -0.0094650285 0.004960719 -0.009610059 0.004684047 -0.007664533 -0.022728544 0.0043941136 0.012082426 -0.0013170314 -0.026417468 -0.010185823 0.016359104 0.005727687 0.0072560087 0.0017589784 0.010477524 0.0006918558 0.0031212214 0.01919192 0.01166626 -0.021199767 0.00048028253 0.00347385 0.013520899 0.0022970675 0.02393395 -0.007960667 -0.012045022 -0.023222256 0.01854249 0.013677613 0.0055273394 0.005213073 0.0014768217 0.0021116273 0.021514334 -0.008224191 0.024640027 -0.03236713 -0.01538974 -0.00654255 -0.011825762 0.0024630346 0.02414901 0.012045088 0.01788591 -0.0064268773 0.0063893367 -0.025021946 -0.018495224 0.00035293616 -0.009628612 0.010713602 0.0026207136 0.02394291 -0.0040083616 0.01666225 0.0034434965 0.007890025 -0.0077674794 0.006117999 -0.016740117 0.0182182 0.030467404 -0.009713792 -0.019717978 0.005101934 0.0073775 -0.0043728603 0.008614433 -0.0053091 0.0036139386 0.010153736 0.020148069 -0.0012510933 -0.0018017571 -0.008626907 -0.011802829 -0.0054884395 -0.014387729 -0.016789462 0.012575845 0.022022683 0.0015958678 -0.014928044 -0.009117587 -0.004620012 -0.012649105 0.003847072 0.011772419 -0.007936421 0.015032019 -0.0044961716 -0.0004534712 -0.012902509 -0.0010646574 0.017987816 -0.002405197 0.0098247705 -0.00058118015 0.009233362 -0.009005904 0.034582242 -0.013500696 0.0059144273 0.016153133 0.008531107 0.021586563 0.0021370836 -0.008594827 0.018300185 -0.0027733776 0.015445454 0.020603972 0.022623772 0.020483525 0.00715678 0.012006449 -0.0076904874 -0.0023233027 0.0045574997 -0.011079005 -0.00043793718 0.0070419046 0.0075260843 -0.014602778 -0.0016140508 -0.012523484 7.938891e-05 -0.008166603 0.021577872 0.005877497 0.009344875 0.02751805 -0.008154004 0.010016741 0.0037625409 0.02468996 0.012456578 0.0050529246 -0.005759017 0.0052964967 0.01497957 -0.013566549 -0.0051207063 -0.0074330685 -0.015050409 0.012466821 0.0041262633 -0.012470173 -0.017709993 -0.014992736 -0.0052177296 -0.02782691 0.011020224 -0.0046816655 0.029940572 -0.02958672 -0.009243281 0.0069848318 0.0026352175 0.0104329595 0.017238086 0.0066075707 -0.019173592 0.007556239 -0.0106304195 -0.006424095 0.0031674402 -0.012735537 -0.005834818 -0.008011819 -0.005983511 0.0023093992 0.014033238 0.010225787 -0.012751621 -0.01724409 0.011885717 0.014368312 -0.0006299367 0.004745116 0.016106693 -0.00056566787 -0.015428328 -0.011897093 -0.007811273 -0.0034724614 -0.0014250149 -0.0223787 0.001335636 -0.0038416667 0.008932795
cafe -0.011248255 -0.0036838737 -0.007346914 0.0033455906 0.00084896723 -0.0007981869 -0.0049966215 -0.006205844 0.003409359 -0.009995596 0.003924354 -0.0049360837 -0.012007253 0.0013627466 0.0067673177 -0.0018021447 -0.0155366175 -0.007414777 0.011790774 0.0061760955 0.002964207 -0.0017440881 0.0047417176 0.0012892432 0.00045128874 0.012292685 0.008593866 -0.011656575 -0.003948518 0.0027222615 0.008381447 0.00055808446 0.016785821 -0.0052314405 -0.005985795 -0.015229456 0.011957737 0.009562515 0.0027061652 0.0030283625 0.0024736654 -0.0009935261 0.011864249 -0.007245841 0.011842285 -0.018755358 -0.009486732 -0.005923516 -0.006912575 0.0005295806 0.011896647 0.006153358 0.008094798 -0.0049166693 0.005473129 -0.015533697 -0.008244018 -0.0017324543 -0.006811269 0.0050428393 0.0019305127 0.0109593915 -0.003809852 0.01242671 -0.00027680447 0.0008254607 -0.004697789 0.0019781294 -0.010494129 0.011821987 0.019686539 -0.00394751 -0.01321266 0.002851429 0.005258903 -0.0012665009 0.0039813025 -0.004850434 0.00035434478 0.0072115334 0.014177546 -0.0026741175 -0.0018535138 -0.006411042 -0.009467074 -0.004574862 -0.009530115 -0.012222146 0.012054214 0.01176136 0.0021969844 -0.008087406 -0.005305847 -0.0051102308 -0.010970657 0.0036930928 0.008061965 -0.0022785224 0.008609629 -0.0037650247 0.0011240046 -0.007308927 -6.463098e-07 0.010426329 -0.00082180667 0.008805186 0.00024796597 0.0069574937 -0.0055715004 0.022847028 -0.009819239 0.00059670134 0.011117895 0.0065413946 0.01129836 0.0013812946 -0.004188548 0.014725514 -0.0016141348 0.007066989 0.012509082 0.014954955 0.0137503445 0.0054666135 0.008482011 -0.007248214 0.0012536233 0.003244491 -0.0064886147 0.00094221125 0.004788559 0.005597978 -0.011904798 -0.0012097037 -0.006823637 -0.0015054736 -0.0057619726 0.01389492 0.0021962526 0.008636369 0.015679346 -0.00566917 0.007637783 0.0056904852 0.015134895 0.0073408172 0.0027047894 -0.0050405287 0.0009410117 0.009916911 -0.0097568175 -0.0023673268 -0.005119844 -0.0083486 0.0081330165 0.00077552267 -0.008315909 -0.0079994025 -0.012192221 0.00056740566 -0.017426891 0.007284731 -0.00048446728 0.019341767 -0.019420523 -0.007668445 0.005468685 0.0015556412 0.0039516035 0.0115164295 0.0053676064 -0.010110734 0.003124549 -0.0074504786 -0.0033379034 0.0017748384 -0.0059421784 -0.004182801 -0.0012253104 -0.0021945483 0.00040664326 0.008577724 0.006406299 -0.0067043626 -0.012877089 0.00709611 0.009525036 -0.00066972396 -0.0006158817 0.010596608 0.0001521655 -0.009066977 -0.0107807 -0.0067723407 -0.0020890953 -0.002457822 -0.0125611955 0.00029609597 -0.0024533768 0.008463025
dining room -0.011212785 -0.0050503965 -0.008187466 0.006737186 0.00082810904 0.000815444 -0.008142544 -0.007158842 0.0026704716 -0.009810489 0.0009826111 -0.0052196607 -0.016171044 0.00048014388 0.009833745 -0.00022981405 -0.019683862 -0.004005998 0.012290449 0.0056792325 0.002633002 0.001705421 0.005015893 0.0051108534 0.0016023688 0.014741759 0.007932986 -0.01678149 -0.003601647 0.0010388826 0.011060693 0.0007065955 0.018178727 -0.0067217792 -0.009321119 -0.01578383 0.015612254 0.013319762 0.008320972 0.00037388867 -0.0009600082 0.0011745332 0.014065401 -0.008942665 0.01684177 -0.020338919 -0.010260339 -0.004330356 -0.007971442 0.00042395014 0.016671294 0.00990215 0.014054884 -0.0020213956 0.0036435795 -0.016886668 -0.013650257 -0.0022520612 -0.005852477 0.00373757 0.0002806167 0.018513672 -0.0032850655 0.015053266 0.00040476533 0.004247696 -0.007903813 0.0068547926 -0.010161184 0.010792841 0.022432443 -0.00809061 -0.017569613 0.0028327464 0.0055737174 -0.00059988315 0.002943065 -0.0074886614 0.0021333874 0.0073254984 0.015211518 -0.0016372633 -0.00062445935 -0.0039478336 -0.0074086646 -0.0021046854 -0.011773115 -0.0136468895 0.012179866 0.01498952 -0.0025516 -0.011278974 -0.0043949103 -0.0032239058 -0.013555382 0.0052821273 0.0069394214 -0.0070736543 0.012884786 -0.0021591727 -0.0027405967 -0.009213919 0.002698256 0.013485111 -0.003099935 0.0096176285 -0.000100815785 0.0052971886 -0.0055192616 0.028613115 -0.008957183 0.0040409695 0.013174145 0.005376452 0.0161079 0.00020337339 -0.0043110903 0.0156119475 -0.00023973567 0.01240652 0.012979114 0.01896783 0.016636834 0.005112829 0.008086562 -0.005304285 0.0012575672 0.00494955 -0.009215809 -0.0032000355 0.006841498 0.004374242 -0.012053955 -0.0027333961 -0.009212692 -0.0015314613 -0.008968523 0.017381236 -0.0005002273 0.010602058 0.020983228 -0.008932488 0.011097455 0.0036398387 0.018298015 0.010265739 0.0037380564 -0.0020488764 0.0012954064 0.008456462 -0.008659317 -0.0058690165 -0.008061435 -0.008646854 0.007401194 0.0027480542 -0.0093206 -0.009174511 -0.013896974 -0.0030593665 -0.019909551 0.0055619893 -0.0014911141 0.024668794 -0.022469312 -0.0072445367 0.002304763 0.0025755009 0.0057520214 0.011534018 0.004836497 -0.0132515 0.0040399716 -0.007665717 -0.0045650485 0.0010189493 -0.010427131 -0.00306984 -0.005324038 -9.676346e-05 0.0049470505 0.0061702183 0.0057915174 -0.008790424 -0.014095025 0.008086406 0.011641323 -0.0028462983 0.00030510093 0.010617373 0.0020336937 -0.009448755 -0.009638344 -0.0077220984 -0.0060291146 -0.0003552709 -0.017352186 -3.103372e-05 -0.0029581767 0.00544297
institute mathematics -0.0069489623 -0.004119363 -0.007362011 0.0058812066 0.0021829256 0.0014569442 -0.0069649722 -0.007427636 0.002174416 -0.004897325 0.0048109815 -0.0033354957 -0.014506237 0.0031526354 0.010120417 -0.0016621086 -0.014837367 -0.0053697266 0.012039984 0.0013894635 0.0010883034 -0.00056996633 0.005647485 0.0029249548 0.0053355047 0.0113819875 0.006029274 -0.014348962 0.0011603946 0.002182861 0.011324606 0.0019426434 0.016026093 -0.0046683094 -0.009632637 -0.015646646 0.013247149 0.0061615384 0.0035773173 0.002904924 0.0010638592 -0.0005045673 0.010653023 -0.006515537 0.014433192 -0.018353092 -0.010382843 -0.003791009 -0.0063652475 0.0014930188 0.014904729 0.0089869965 0.010940469 -0.0033050238 0.0031705776 -0.012748979 -0.008731641 -0.0015001183 -0.0034442965 0.0025212062 0.0042670597 0.013222936 -0.0039112214 0.011431633 -0.00070513395 0.002858077 -0.0049931663 0.0018766357 -0.008608546 0.0075999177 0.018374588 -0.006961168 -0.009772547 0.0031480265 0.0033978873 -0.0014275837 0.0031560669 -0.0068716593 0.00071761094 0.005778452 0.009937807 -0.002399234 -0.0009719569 -0.004207473 -0.007515254 -0.004093157 -0.0060282405 -0.0070907194 0.006810758 0.012851687 0.0014955429 -0.010927264 -0.0076442254 -0.005932886 -0.008214615 0.00055272906 0.0065873885 -0.004417806 0.008305518 -0.002000629 -0.0024024474 -0.008480558 -1.7596372e-05 0.01085211 6.762717e-06 0.008260092 -0.0029301376 0.0028445958 -0.007944812 0.022628346 -0.009144404 0.00315755 0.009358785 0.004112107 0.012330156 0.0039285747 -0.0060578305 0.009491783 -0.0025793076 0.008555251 0.01327827 0.013646647 0.008763103 0.005110796 0.008216529 -0.00559188 -0.001809279 0.0043646996 -0.0073212325 -0.00016504826 0.0035566376 0.0018248487 -0.007536127 -0.00033996013 -0.0032409607 -0.0048044934 -0.007365672 0.0106137525 0.00016446713 0.007663011 0.013440142 -0.0060699116 0.0056023323 0.0038836696 0.013539336 0.009176243 0.0041191187 -0.0009986447 0.00036664883 0.0051411362 -0.0057042567 -0.0019902973 -0.0027871672 -0.0070413435 0.00824156 -0.00084915984 -0.009999741 -0.008145357 -0.0068255956 1.3638832e-05 -0.016950307 0.007851856 -0.0012049149 0.016622925 -0.018242683 -0.009112482 0.004575936 0.0015671673 0.007097925 0.007390284 0.0062878015 -0.010474575 0.0053140535 -0.0031529106 -0.0032441644 0.0005729488 -0.009290999 -0.0052870824 -0.0030501655 -0.0015662259 0.0031359715 0.008827934 0.009639822 -0.0058325664 -0.012001912 0.004283452 0.011368022 -0.0029787985 0.0002595113 0.009126578 0.0009045643 -0.0062216837 -0.005806899 -0.004008458 -0.0033752157 -0.0004921901 -0.013201512 0.0013685519 -0.0020080665 0.0055714757
1st floor -0.010093038 -0.0034438774 -0.008931232 0.0031595628 -7.043247e-05 0.0010581954 -0.0075453576 -0.0055898996 0.0023247215 -0.008745831 0.0050343415 -0.003936125 -0.0119854 0.00085883006 0.008065408 0.0011664265 -0.016290534 -0.0039130975 0.00966626 0.0058097113 0.0010481342 0.0010785424 0.0074812295 -0.00071947457 0.0007208633 0.012194235 0.008865077 -0.013367817 0.0011758683 0.0024698132 0.007885982 0.0002680431 0.016160578 -0.0047863554 -0.0092367 -0.012756349 0.012765444 0.010737062 0.0035559782 0.0003234385 0.0025498685 0.0012064023 0.009234565 -0.0049326867 0.014761245 -0.016105518 -0.011014766 -0.0061277747 -0.005212606 -0.00043860942 0.011276801 0.006503594 0.0089188805 -0.0037679737 0.0007310304 -0.014681182 -0.008981544 -0.00024645138 -0.0060751243 0.005735744 0.0027589246 0.011281979 -0.0017720115 0.0095363 0.0035146277 0.001293417 -0.004356431 0.0027096407 -0.007560616 0.011788105 0.013700638 -0.0061032437 -0.012320161 0.0006794559 0.002974661 9.3397204e-05 0.0035802242 -0.0021611904 0.00080103107 0.0052137924 0.011947629 -0.0013206865 -0.0010463623 -0.007117921 -0.0046681217 -0.0035118018 -0.010542079 -0.009784251 0.0067413975 0.008857872 -0.0017005608 -0.0073783766 -0.0041074376 -0.0024337946 -0.010110156 0.0024164182 0.003835272 -0.0010215972 0.011119426 -0.0017220231 3.1810934e-05 -0.009508908 -0.0019318762 0.011082595 -0.0024921282 0.007020899 -0.0015570788 0.006870117 -0.0035633212 0.020099739 -0.0089265015 0.00015766553 0.006753361 0.0030518337 0.014950896 0.0005144367 -0.005231787 0.010819827 -0.001413688 0.007084357 0.0093832435 0.0107104825 0.012861939 0.005763838 0.0053687226 -0.007927013 -0.0019785578 0.0043557202 -0.0036475393 -0.00016943282 0.005375429 0.0042602853 -0.00860729 -0.0038076993 -0.005029977 0.00023534796 -0.0027421543 0.009165089 -0.0012425918 0.0065840394 0.014649944 -0.003645444 0.008212752 0.0036029897 0.013553782 0.008262672 0.0010532049 -0.0003187919 0.0026272775 0.0068453015 -0.0071629724 -0.0049062287 -0.004799025 -0.0082630105 0.0069045722 0.0021914078 -0.009020539 -0.010939105 -0.007327166 4.7633872e-05 -0.017714882 0.0062786336 -0.0022364208 0.01690469 -0.015477988 -0.005354742 0.0060346113 -0.0019061166 0.0068350974 0.011108075 0.0029239878 -0.010644377 0.0059793624 -0.0037515466 -0.0016740479 0.00058408314 -0.006347435 -0.003621643 -0.0039488287 -0.0008034961 0.0029318498 0.0057537155 0.0068830485 -0.006817326 -0.01212972 0.0083956 0.007120953 -0.0042680926 0.00261296 0.006645264 -0.0016242353 -0.008604698 -0.009860915 -0.004084276 -0.0022503962 -0.0021570043 -0.010370994 0.001912701 -0.0035021198 0.007611681
wifi -0.0150409 -0.0014735885 -0.007342942 0.0055616363 -0.0016844112 -0.0024977287 -0.008819457 -0.010918471 0.0053781453 -0.012518924 0.0042058313 -0.0072640097 -0.02267824 0.004585901 0.013360392 0.00056705927 -0.022042371 -0.006682497 0.015453111 0.0088319145 0.0042259577 -0.002514313 0.009733387 0.0047583166 0.007026564 0.018719919 0.014403264 -0.019680511 8.034126e-05 -0.00079165574 0.015761925 0.005253199 0.025659442 -0.010287803 -0.012136449 -0.025916649 0.02131875 0.017089643 0.008651738 0.002556611 -0.00066851865 6.329774e-06 0.016900163 -0.00611659 0.022112148 -0.026347563 -0.012529334 -0.010037693 -0.009880635 0.003851019 0.020591194 0.009057021 0.016257096 -0.0055325604 0.0075480025 -0.021115586 -0.016132476 6.763182e-05 -0.010045138 0.0069473227 0.0021550907 0.023335692 -0.0007324093 0.017395804 0.0027789539 0.005464294 -0.006997429 0.007151929 -0.015085294 0.014071301 0.02821671 -0.010272357 -0.021291448 0.0030014787 0.004798151 -0.004123262 0.004811499 -0.0045729126 0.0038329088 0.009406802 0.020564966 -0.002528548 0.00071715435 -0.0063861874 -0.01400025 -0.0025609066 -0.011780758 -0.013070303 0.012249632 0.01979215 -0.0011458753 -0.016990975 -0.008142368 -0.0059447796 -0.01179639 0.0034163226 0.009064676 -0.009085904 0.017058404 -0.0036082265 -0.0018820099 -0.012063991 -0.0021251068 0.017847052 -0.006228475 0.010226656 -0.0021320141 0.0059626102 -0.007608252 0.032103043 -0.010626049 0.004147494 0.017583963 0.006014914 0.01922126 0.0015195066 -0.008152432 0.019123835 -0.0017192381 0.01232933 0.018277448 0.020177761 0.014883475 0.0059482744 0.010674807 -0.010789636 -0.0030534875 0.006749952 -0.010437469 -0.0039345874 0.006808329 0.007265282 -0.016537683 -0.005559471 -0.008629295 -0.003375043 -0.011645879 0.015874358 0.0025712932 0.012810808 0.022210214 -0.011407312 0.013768833 0.008982568 0.02142634 0.013032219 0.0016921896 -0.004507153 0.0028123008 0.014039417 -0.013225353 -0.005467322 -0.0061170827 -0.009752816 0.013032846 0.0039669606 -0.012730764 -0.016419156 -0.014482506 -0.00392324 -0.03082802 0.00815117 -0.002303536 0.025637256 -0.028948875 -0.012679319 0.0038104898 0.0006267676 0.0090866415 0.013632427 0.007885277 -0.016520916 0.009670815 -0.0083109 -0.003565873 0.0040634987 -0.016289633 -0.0028532129 -0.003588834 -0.0035552294 0.0010866261 0.010871663 0.010990435 -0.01268605 -0.020754652 0.011075848 0.01632738 -0.004107795 0.0021336388 0.011904851 0.0003862884 -0.010819557 -0.01374105 -0.007027835 -0.0067738784 -0.003029796 -0.022761038 -0.00085407676 -0.005182081 0.009454738
restaurant -0.008070717 -0.00024626314 -0.0080756955 0.0043384214 -0.00037409028 -0.000163955 -0.006931124 -0.007271554 0.0018182831 -0.0074078734 0.0030962199 -0.0059160367 -0.011977508 0.0027338369 0.009605129 0.00035164334 -0.016410595 -0.006050421 0.010007563 0.0023954676 0.0009283628 0.00059721567 0.0054713837 0.0034181513 0.0021566844 0.008593457 0.009218367 -0.01412004 -0.003693362 0.0027789408 0.011925055 0.0038229704 0.017544456 -0.0054034493 -0.010495225 -0.012159793 0.009033734 0.0069835596 0.0067753326 0.003755252 0.0017474426 0.0010178444 0.013908092 -0.005052499 0.013120809 -0.01675101 -0.011190426 -0.004392826 -0.007062788 0.0025034042 0.010959699 0.0089221075 0.011180157 -0.0027424048 0.0008815327 -0.014597748 -0.008976934 -0.00027071268 -0.0021869198 0.0036002316 0.00056005677 0.012243725 -0.000610781 0.011631968 0.0034859334 0.0006799735 -0.0031935934 0.002637023 -0.009328837 0.0075202826 0.017596323 -0.0045203757 -0.0124849 0.0036687204 0.0038713824 -0.0037814067 0.0057499874 -0.0030895586 0.0037249948 0.006447727 0.011493713 0.0017565063 -0.00034945545 -0.004916948 -0.009333792 -0.00058026135 -0.009597577 -0.011785493 0.0122909 0.011575998 -0.0024825665 -0.010484005 -0.0046047526 -0.0057895607 -0.008279089 0.002330227 0.006787504 -0.0066759125 0.008418762 -0.002801723 -0.0005761484 -0.011546403 -0.0014253429 0.014011369 -0.005022667 0.00608563 0.0010760117 0.0024737276 -0.004376999 0.02232595 -0.006784343 0.0007206118 0.011788709 0.005814335 0.012199279 0.002366999 -0.0021784466 0.011324977 -0.0018789613 0.009600178 0.010930217 0.014750619 0.01333181 0.0059407805 0.0074477727 -0.005968762 0.0003453587 0.005110003 -0.0063776593 -0.0036846553 0.0066321283 0.0040128995 -0.009187685 -0.0013030592 -0.0043587806 -0.003627499 -0.0053207343 0.011404942 0.00011706003 0.008085145 0.016239509 -0.005694229 0.009427447 0.0056682844 0.011419124 0.00603145 0.0035442924 -0.0041726446 0.001648806 0.005342313 -0.010045095 -0.0028212934 -0.0068055135 -0.008393829 0.008802234 0.0027009526 -0.008563339 -0.007879159 -0.011268196 -0.00033334477 -0.017449483 0.003625318 -5.07578e-05 0.01839659 -0.018648498 -0.008667 0.0015257311 0.0013286767 0.003812093 0.00714685 0.0037328235 -0.010439972 0.0052064625 -0.0033427237 -0.0029831724 0.0045791976 -0.010540966 -0.0019705088 -0.0011290471 0.00054030365 0.0015360869 0.005157828 0.006926015 -0.008604775 -0.012821357 0.005563188 0.0073408526 0.00012089582 0.0028931354 0.010433729 0.0019344453 -0.0052391933 -0.007609813 -0.005093036 -0.0024256913 -0.0006386543 -0.0121074 0.0016399923 -0.0014030338 0.007832871
